net
{
	node_size = (76 36);
}

node CAV1
{
	label = "CAV1";
	position = (74 278);
	states = ("(-inf--0.46655]" "(-0.46655-0.51745]" "(0.51745-inf)");
}

node LRRTM2
{
	label = "LRRTM2";
	position = (74 278);
	states = ("(-inf-0.633]" "(0.633-0.885333]" "(0.885333-inf)");
}

node HS3ST4
{
	label = "HS3ST4";
	position = (74 278);
	states = ("(-inf-0.52145]" "(0.52145-3.2749]" "(3.2749-inf)");
}

node COL10A1
{
	label = "COL10A1";
	position = (74 278);
	states = ("(-inf-2.3685]" "(2.3685-4.285375]" "(4.285375-inf)");
}

node KCNE1
{
	label = "KCNE1";
	position = (74 278);
	states = ("(-inf-1.825625]" "(1.825625-2.398875]" "(2.398875-inf)");
}

node MMP11
{
	label = "MMP11";
	position = (74 278);
	states = ("(-inf-0.2215]" "(0.2215-1.871417]" "(1.871417-inf)");
}

node SAMD14
{
	label = "SAMD14";
	position = (74 278);
	states = ("(-inf--0.292083]" "(-0.292083--0.0205]" "(-0.0205-inf)");
}

node CA4
{
	label = "CA4";
	position = (74 278);
	states = ("(-inf-0.42575]" "(0.42575-2.201]" "(2.201-inf)");
}

node WISP1
{
	label = "WISP1";
	position = (74 278);
	states = ("(-inf-0.205333]" "(0.205333-1.024778]" "(1.024778-inf)");
}

node LOC387911
{
	label = "LOC387911";
	position = (74 278);
	states = ("(-inf-2.178]" "(2.178-2.877375]" "(2.877375-inf)");
}

node ARRDC3
{
	label = "ARRDC3";
	position = (74 278);
	states = ("(-inf-0.630311]" "(0.630311-1.079458]" "(1.079458-inf)");
}

node C10orf90
{
	label = "C10orf90";
	position = (74 278);
	states = ("(-inf--0.54175]" "(-0.54175-inf)");
}

node GJB2
{
	label = "GJB2";
	position = (74 278);
	states = ("(-inf-0.465733]" "(0.465733-inf)");
}

node CXCL3
{
	label = "CXCL3";
	position = (74 278);
	states = ("(-inf--1.7974]" "(-1.7974--1.3101]" "(-1.3101-inf)");
}

node TPM3
{
	label = "TPM3";
	position = (74 278);
	states = ("(-inf--0.603694]" "(-0.603694--0.006833]" "(-0.006833-inf)");
}

node USP44
{
	label = "USP44";
	position = (74 278);
	states = ("(-inf--3.136625]" "(-3.136625--2.517]" "(-2.517-inf)");
}

node CKS2
{
	label = "CKS2";
	position = (74 278);
	states = ("(-inf--3.462667]" "(-3.462667--2.872722]" "(-2.872722--2.286111]" "(-2.286111-inf)");
}

node P4HA3
{
	label = "P4HA3";
	position = (74 278);
	states = ("(-inf-0.331223]" "(0.331223-1.589313]" "(1.589313-inf)");
}

node STARD9
{
	label = "STARD9";
	position = (74 278);
	states = ("(-inf--0.496938]" "(-0.496938-0.0645]" "(0.0645-0.354875]" "(0.354875-inf)");
}

node SNCA
{
	label = "SNCA";
	position = (74 278);
	states = ("(-inf--2.078375]" "(-2.078375-inf)");
}

node ANXA1
{
	label = "ANXA1";
	position = (74 278);
	states = ("(-inf-0.9571]" "(0.9571-inf)");
}

node LEPR
{
	label = "LEPR";
	position = (74 278);
	states = ("(-inf-0.355683]" "(0.355683-1.1475]" "(1.1475-inf)");
}

node CORO2B
{
	label = "CORO2B";
	position = (74 278);
	states = ("(-inf--1.011375]" "(-1.011375--0.73475]" "(-0.73475--0.343875]" "(-0.343875-inf)");
}

node DPP6
{
	label = "DPP6";
	position = (74 278);
	states = ("(-inf--0.299025]" "(-0.299025--0.0843]" "(-0.0843-0.944625]" "(0.944625-inf)");
}

node IGSF10
{
	label = "IGSF10";
	position = (74 278);
	states = ("(-inf--2.488875]" "(-2.488875--1.316625]" "(-1.316625-inf)");
}

node TRIM59
{
	label = "TRIM59";
	position = (74 278);
	states = ("(-inf--1.201167]" "(-1.201167--0.8325]" "(-0.8325-inf)");
}

node CACHD1
{
	label = "CACHD1";
	position = (74 278);
	states = ("(-inf-0.703]" "(0.703-inf)");
}

node TPPP2
{
	label = "TPPP2";
	position = (74 278);
	states = ("(-inf-0.016813]" "(0.016813-inf)");
}

node UBAP2L
{
	label = "UBAP2L";
	position = (74 278);
	states = ("(-inf--1.1541]" "(-1.1541--0.92705]" "(-0.92705-inf)");
}

node PGM5
{
	label = "PGM5";
	position = (74 278);
	states = ("(-inf-0.935833]" "(0.935833-1.579833]" "(1.579833-inf)");
}

node class
{
	label = "class";
	position = (74 278);
	states = ("normal" "tumor");
}

potential (CAV1 | class)
{
	data = ((0.009009009009009009 0.35135135135135137 0.6396396396396397)
	(0.9473129610115911 0.051633298208640675 0.001053740779768177));
}

potential (LRRTM2 | class MMP11 CAV1 DPP6)
{
	data = ((0.3333333333333333 0.3333333333333333 0.3333333333333333)
	(0.3333333333333333 0.3333333333333333 0.3333333333333333)
	(0.3333333333333333 0.3333333333333333 0.3333333333333333)
	(0.3333333333333333 0.3333333333333333 0.3333333333333333)
	(0.14285714285714285 0.42857142857142855 0.42857142857142855)
	(0.2 0.2 0.6)
	(0.10344827586206896 0.2413793103448276 0.6551724137931034)
	(0.3333333333333333 0.3333333333333333 0.3333333333333333)
	(0.3333333333333333 0.3333333333333333 0.3333333333333333)
	(0.2631578947368421 0.2631578947368421 0.47368421052631576)
	(0.20754716981132076 0.09433962264150944 0.6981132075471698)
	(0.2 0.2 0.6)
	(0.3333333333333333 0.3333333333333333 0.3333333333333333)
	(0.3333333333333333 0.3333333333333333 0.3333333333333333)
	(0.3333333333333333 0.3333333333333333 0.3333333333333333)
	(0.3333333333333333 0.3333333333333333 0.3333333333333333)
	(0.3333333333333333 0.3333333333333333 0.3333333333333333)
	(0.3333333333333333 0.3333333333333333 0.3333333333333333)
	(0.1111111111111111 0.1111111111111111 0.7777777777777778)
	(0.3333333333333333 0.3333333333333333 0.3333333333333333)
	(0.3333333333333333 0.3333333333333333 0.3333333333333333)
	(0.3333333333333333 0.3333333333333333 0.3333333333333333)
	(0.2 0.2 0.6)
	(0.3333333333333333 0.3333333333333333 0.3333333333333333)
	(0.3333333333333333 0.3333333333333333 0.3333333333333333)
	(0.3333333333333333 0.3333333333333333 0.3333333333333333)
	(0.3333333333333333 0.3333333333333333 0.3333333333333333)
	(0.3333333333333333 0.3333333333333333 0.3333333333333333)
	(0.3333333333333333 0.3333333333333333 0.3333333333333333)
	(0.3333333333333333 0.3333333333333333 0.3333333333333333)
	(0.3333333333333333 0.3333333333333333 0.3333333333333333)
	(0.3333333333333333 0.3333333333333333 0.3333333333333333)
	(0.3333333333333333 0.3333333333333333 0.3333333333333333)
	(0.3333333333333333 0.3333333333333333 0.3333333333333333)
	(0.3333333333333333 0.3333333333333333 0.3333333333333333)
	(0.3333333333333333 0.3333333333333333 0.3333333333333333)
	(0.6 0.2 0.2)
	(0.3333333333333333 0.3333333333333333 0.3333333333333333)
	(0.3333333333333333 0.3333333333333333 0.3333333333333333)
	(0.3333333333333333 0.3333333333333333 0.3333333333333333)
	(0.3333333333333333 0.3333333333333333 0.3333333333333333)
	(0.3333333333333333 0.3333333333333333 0.3333333333333333)
	(0.3333333333333333 0.3333333333333333 0.3333333333333333)
	(0.3333333333333333 0.3333333333333333 0.3333333333333333)
	(0.3333333333333333 0.3333333333333333 0.3333333333333333)
	(0.3333333333333333 0.3333333333333333 0.3333333333333333)
	(0.3333333333333333 0.3333333333333333 0.3333333333333333)
	(0.3333333333333333 0.3333333333333333 0.3333333333333333)
	(0.9178082191780822 0.0684931506849315 0.0136986301369863)
	(0.7142857142857143 0.14285714285714285 0.14285714285714285)
	(0.7142857142857143 0.14285714285714285 0.14285714285714285)
	(0.3333333333333333 0.3333333333333333 0.3333333333333333)
	(0.6 0.2 0.2)
	(0.3333333333333333 0.3333333333333333 0.3333333333333333)
	(0.2 0.2 0.6)
	(0.3333333333333333 0.3333333333333333 0.3333333333333333)
	(0.3333333333333333 0.3333333333333333 0.3333333333333333)
	(0.3333333333333333 0.3333333333333333 0.3333333333333333)
	(0.3333333333333333 0.3333333333333333 0.3333333333333333)
	(0.3333333333333333 0.3333333333333333 0.3333333333333333)
	(0.9814569536423841 0.01456953642384106 0.003973509933774834)
	(0.9183673469387755 0.061224489795918366 0.02040816326530612)
	(0.8181818181818182 0.09090909090909091 0.09090909090909091)
	(0.8666666666666667 0.06666666666666667 0.06666666666666667)
	(0.9024390243902439 0.024390243902439025 0.07317073170731707)
	(0.7142857142857143 0.14285714285714285 0.14285714285714285)
	(0.2 0.6 0.2)
	(0.3333333333333333 0.3333333333333333 0.3333333333333333)
	(0.3333333333333333 0.3333333333333333 0.3333333333333333)
	(0.3333333333333333 0.3333333333333333 0.3333333333333333)
	(0.3333333333333333 0.3333333333333333 0.3333333333333333)
	(0.3333333333333333 0.3333333333333333 0.3333333333333333));
}

potential (HS3ST4 | class CAV1)
{
	data = ((0.3333333333333333 0.3333333333333333 0.3333333333333333)
	(0.024390243902439025 0.9512195121951219 0.024390243902439025)
	(0.3150684931506849 0.6712328767123288 0.0136986301369863)
	(0.9600443951165372 0.02774694783573807 0.01220865704772475)
	(0.9215686274509803 0.058823529411764705 0.0196078431372549)
	(0.3333333333333333 0.3333333333333333 0.3333333333333333));
}

potential (COL10A1 | class C10orf90)
{
	data = ((0.7142857142857143 0.14285714285714285 0.14285714285714285)
	(0.9065420560747663 0.08411214953271028 0.009345794392523364)
	(0.008018327605956471 0.07903780068728522 0.9129438717067583)
	(0.0379746835443038 0.11392405063291139 0.8481012658227848));
}

potential (KCNE1 | class CAV1 HS3ST4 DPP6)
{
	data = ((0.3333333333333333 0.3333333333333333 0.3333333333333333)
	(0.3333333333333333 0.3333333333333333 0.3333333333333333)
	(0.3333333333333333 0.3333333333333333 0.3333333333333333)
	(0.3333333333333333 0.3333333333333333 0.3333333333333333)
	(0.3333333333333333 0.3333333333333333 0.3333333333333333)
	(0.3333333333333333 0.3333333333333333 0.3333333333333333)
	(0.3333333333333333 0.3333333333333333 0.3333333333333333)
	(0.3333333333333333 0.3333333333333333 0.3333333333333333)
	(0.3333333333333333 0.3333333333333333 0.3333333333333333)
	(0.3333333333333333 0.3333333333333333 0.3333333333333333)
	(0.3333333333333333 0.3333333333333333 0.3333333333333333)
	(0.3333333333333333 0.3333333333333333 0.3333333333333333)
	(0.3333333333333333 0.3333333333333333 0.3333333333333333)
	(0.3333333333333333 0.3333333333333333 0.3333333333333333)
	(0.3333333333333333 0.3333333333333333 0.3333333333333333)
	(0.3333333333333333 0.3333333333333333 0.3333333333333333)
	(0.14285714285714285 0.14285714285714285 0.7142857142857143)
	(0.2 0.6 0.2)
	(0.02857142857142857 0.2571428571428571 0.7142857142857143)
	(0.3333333333333333 0.3333333333333333 0.3333333333333333)
	(0.3333333333333333 0.3333333333333333 0.3333333333333333)
	(0.3333333333333333 0.3333333333333333 0.3333333333333333)
	(0.3333333333333333 0.3333333333333333 0.3333333333333333)
	(0.3333333333333333 0.3333333333333333 0.3333333333333333)
	(0.3333333333333333 0.3333333333333333 0.3333333333333333)
	(0.6 0.2 0.2)
	(0.5652173913043478 0.043478260869565216 0.391304347826087)
	(0.3333333333333333 0.3333333333333333 0.3333333333333333)
	(0.3333333333333333 0.3333333333333333 0.3333333333333333)
	(0.17647058823529413 0.17647058823529413 0.6470588235294118)
	(0.08571428571428572 0.2571428571428571 0.6571428571428571)
	(0.2 0.2 0.6)
	(0.3333333333333333 0.3333333333333333 0.3333333333333333)
	(0.3333333333333333 0.3333333333333333 0.3333333333333333)
	(0.3333333333333333 0.3333333333333333 0.3333333333333333)
	(0.3333333333333333 0.3333333333333333 0.3333333333333333)
	(0.9524405506883604 0.04130162703379224 0.006257822277847309)
	(0.8367346938775511 0.10204081632653061 0.061224489795918366)
	(0.6923076923076923 0.23076923076923078 0.07692307692307693)
	(0.7333333333333333 0.06666666666666667 0.2)
	(0.9047619047619048 0.047619047619047616 0.047619047619047616)
	(0.42857142857142855 0.42857142857142855 0.14285714285714285)
	(0.6 0.2 0.2)
	(0.3333333333333333 0.3333333333333333 0.3333333333333333)
	(0.8461538461538461 0.07692307692307693 0.07692307692307693)
	(0.3333333333333333 0.3333333333333333 0.3333333333333333)
	(0.3333333333333333 0.3333333333333333 0.3333333333333333)
	(0.3333333333333333 0.3333333333333333 0.3333333333333333)
	(0.9534883720930233 0.023255813953488372 0.023255813953488372)
	(0.7142857142857143 0.14285714285714285 0.14285714285714285)
	(0.2 0.6 0.2)
	(0.3333333333333333 0.3333333333333333 0.3333333333333333)
	(0.3333333333333333 0.3333333333333333 0.3333333333333333)
	(0.3333333333333333 0.3333333333333333 0.3333333333333333)
	(0.6 0.2 0.2)
	(0.3333333333333333 0.3333333333333333 0.3333333333333333)
	(0.3333333333333333 0.3333333333333333 0.3333333333333333)
	(0.3333333333333333 0.3333333333333333 0.3333333333333333)
	(0.3333333333333333 0.3333333333333333 0.3333333333333333)
	(0.3333333333333333 0.3333333333333333 0.3333333333333333)
	(0.3333333333333333 0.3333333333333333 0.3333333333333333)
	(0.3333333333333333 0.3333333333333333 0.3333333333333333)
	(0.3333333333333333 0.3333333333333333 0.3333333333333333)
	(0.3333333333333333 0.3333333333333333 0.3333333333333333)
	(0.3333333333333333 0.3333333333333333 0.3333333333333333)
	(0.3333333333333333 0.3333333333333333 0.3333333333333333)
	(0.3333333333333333 0.3333333333333333 0.3333333333333333)
	(0.3333333333333333 0.3333333333333333 0.3333333333333333)
	(0.3333333333333333 0.3333333333333333 0.3333333333333333)
	(0.3333333333333333 0.3333333333333333 0.3333333333333333)
	(0.3333333333333333 0.3333333333333333 0.3333333333333333)
	(0.3333333333333333 0.3333333333333333 0.3333333333333333));
}

potential (MMP11 | class)
{
	data = ((0.9099099099099099 0.08108108108108109 0.009009009009009009)
	(0.003161222339304531 0.0874604847207587 0.9093782929399368));
}

potential (SAMD14 | class MMP11 HS3ST4 DPP6)
{
	data = ((0.3333333333333333 0.3333333333333333 0.3333333333333333)
	(0.6 0.2 0.2)
	(0.3333333333333333 0.6190476190476191 0.047619047619047616)
	(0.3333333333333333 0.3333333333333333 0.3333333333333333)
	(0.7142857142857143 0.14285714285714285 0.14285714285714285)
	(0.6842105263157895 0.15789473684210525 0.15789473684210525)
	(0.9016393442622951 0.08196721311475409 0.01639344262295082)
	(0.6 0.2 0.2)
	(0.3333333333333333 0.3333333333333333 0.3333333333333333)
	(0.3333333333333333 0.3333333333333333 0.3333333333333333)
	(0.3333333333333333 0.3333333333333333 0.3333333333333333)
	(0.3333333333333333 0.3333333333333333 0.3333333333333333)
	(0.3333333333333333 0.3333333333333333 0.3333333333333333)
	(0.3333333333333333 0.3333333333333333 0.3333333333333333)
	(0.2 0.6 0.2)
	(0.3333333333333333 0.3333333333333333 0.3333333333333333)
	(0.3333333333333333 0.3333333333333333 0.3333333333333333)
	(0.3333333333333333 0.3333333333333333 0.3333333333333333)
	(0.7777777777777778 0.1111111111111111 0.1111111111111111)
	(0.3333333333333333 0.3333333333333333 0.3333333333333333)
	(0.3333333333333333 0.3333333333333333 0.3333333333333333)
	(0.3333333333333333 0.3333333333333333 0.3333333333333333)
	(0.3333333333333333 0.3333333333333333 0.3333333333333333)
	(0.3333333333333333 0.3333333333333333 0.3333333333333333)
	(0.3333333333333333 0.3333333333333333 0.3333333333333333)
	(0.3333333333333333 0.3333333333333333 0.3333333333333333)
	(0.3333333333333333 0.3333333333333333 0.3333333333333333)
	(0.3333333333333333 0.3333333333333333 0.3333333333333333)
	(0.3333333333333333 0.3333333333333333 0.3333333333333333)
	(0.3333333333333333 0.3333333333333333 0.3333333333333333)
	(0.3333333333333333 0.3333333333333333 0.3333333333333333)
	(0.3333333333333333 0.3333333333333333 0.3333333333333333)
	(0.3333333333333333 0.3333333333333333 0.3333333333333333)
	(0.3333333333333333 0.3333333333333333 0.3333333333333333)
	(0.3333333333333333 0.3333333333333333 0.3333333333333333)
	(0.3333333333333333 0.3333333333333333 0.3333333333333333)
	(0.2 0.2 0.6)
	(0.3333333333333333 0.3333333333333333 0.3333333333333333)
	(0.3333333333333333 0.3333333333333333 0.3333333333333333)
	(0.3333333333333333 0.3333333333333333 0.3333333333333333)
	(0.3333333333333333 0.3333333333333333 0.3333333333333333)
	(0.3333333333333333 0.3333333333333333 0.3333333333333333)
	(0.3333333333333333 0.3333333333333333 0.3333333333333333)
	(0.3333333333333333 0.3333333333333333 0.3333333333333333)
	(0.3333333333333333 0.3333333333333333 0.3333333333333333)
	(0.3333333333333333 0.3333333333333333 0.3333333333333333)
	(0.3333333333333333 0.3333333333333333 0.3333333333333333)
	(0.3333333333333333 0.3333333333333333 0.3333333333333333)
	(0.0410958904109589 0.1780821917808219 0.7808219178082192)
	(0.3333333333333333 0.3333333333333333 0.3333333333333333)
	(0.1111111111111111 0.5555555555555556 0.3333333333333333)
	(0.3333333333333333 0.3333333333333333 0.3333333333333333)
	(0.3333333333333333 0.3333333333333333 0.3333333333333333)
	(0.42857142857142855 0.14285714285714285 0.42857142857142855)
	(0.3333333333333333 0.3333333333333333 0.3333333333333333)
	(0.3333333333333333 0.3333333333333333 0.3333333333333333)
	(0.2 0.2 0.6)
	(0.3333333333333333 0.3333333333333333 0.3333333333333333)
	(0.3333333333333333 0.3333333333333333 0.3333333333333333)
	(0.3333333333333333 0.3333333333333333 0.3333333333333333)
	(0.009126466753585397 0.04302477183833116 0.9478487614080835)
	(0.018867924528301886 0.018867924528301886 0.9622641509433962)
	(0.1111111111111111 0.1111111111111111 0.7777777777777778)
	(0.06666666666666667 0.06666666666666667 0.8666666666666667)
	(0.047619047619047616 0.14285714285714285 0.8095238095238095)
	(0.3333333333333333 0.3333333333333333 0.3333333333333333)
	(0.14285714285714285 0.14285714285714285 0.7142857142857143)
	(0.3333333333333333 0.3333333333333333 0.3333333333333333)
	(0.09090909090909091 0.09090909090909091 0.8181818181818182)
	(0.3333333333333333 0.3333333333333333 0.3333333333333333)
	(0.3333333333333333 0.3333333333333333 0.3333333333333333)
	(0.3333333333333333 0.3333333333333333 0.3333333333333333));
}

potential (CA4 | class)
{
	data = ((0.009009009009009009 0.27927927927927926 0.7117117117117117)
	(0.9262381454162276 0.0684931506849315 0.005268703898840885));
}

potential (WISP1 | class)
{
	data = ((0.8918918918918919 0.0990990990990991 0.009009009009009009)
	(0.01791359325605901 0.10642781875658588 0.8756585879873551));
}

potential (LOC387911 | class SNCA CORO2B UBAP2L)
{
	data = ((0.3333333333333333 0.3333333333333333 0.3333333333333333)
	(0.2 0.6 0.2)
	(0.3333333333333333 0.3333333333333333 0.3333333333333333)
	(0.3333333333333333 0.3333333333333333 0.3333333333333333)
	(0.3333333333333333 0.3333333333333333 0.3333333333333333)
	(0.3333333333333333 0.3333333333333333 0.3333333333333333)
	(0.3333333333333333 0.3333333333333333 0.3333333333333333)
	(0.2 0.2 0.6)
	(0.2 0.2 0.6)
	(0.07692307692307693 0.07692307692307693 0.8461538461538461)
	(0.3333333333333333 0.3333333333333333 0.3333333333333333)
	(0.2 0.6 0.2)
	(0.14285714285714285 0.14285714285714285 0.7142857142857143)
	(0.3333333333333333 0.3333333333333333 0.3333333333333333)
	(0.3333333333333333 0.3333333333333333 0.3333333333333333)
	(0.07692307692307693 0.5384615384615384 0.38461538461538464)
	(0.14285714285714285 0.42857142857142855 0.42857142857142855)
	(0.3333333333333333 0.3333333333333333 0.3333333333333333)
	(0.03225806451612903 0.03225806451612903 0.9354838709677419)
	(0.14285714285714285 0.7142857142857143 0.14285714285714285)
	(0.3333333333333333 0.3333333333333333 0.3333333333333333)
	(0.02564102564102564 0.1282051282051282 0.8461538461538461)
	(0.14285714285714285 0.14285714285714285 0.7142857142857143)
	(0.3333333333333333 0.3333333333333333 0.3333333333333333)
	(0.9130434782608695 0.043478260869565216 0.043478260869565216)
	(0.8461538461538461 0.1282051282051282 0.02564102564102564)
	(0.9588159588159588 0.032175032175032175 0.009009009009009009)
	(0.7142857142857143 0.14285714285714285 0.14285714285714285)
	(0.3333333333333333 0.3333333333333333 0.3333333333333333)
	(0.7358490566037735 0.1320754716981132 0.1320754716981132)
	(0.14285714285714285 0.14285714285714285 0.7142857142857143)
	(0.3333333333333333 0.3333333333333333 0.3333333333333333)
	(0.9130434782608695 0.043478260869565216 0.043478260869565216)
	(0.3333333333333333 0.3333333333333333 0.3333333333333333)
	(0.3333333333333333 0.3333333333333333 0.3333333333333333)
	(0.6 0.2 0.2)
	(0.6 0.2 0.2)
	(0.7142857142857143 0.14285714285714285 0.14285714285714285)
	(0.8620689655172413 0.10344827586206896 0.034482758620689655)
	(0.3333333333333333 0.3333333333333333 0.3333333333333333)
	(0.6 0.2 0.2)
	(0.3333333333333333 0.3333333333333333 0.3333333333333333)
	(0.3333333333333333 0.3333333333333333 0.3333333333333333)
	(0.2 0.2 0.6)
	(0.3333333333333333 0.3333333333333333 0.3333333333333333)
	(0.3333333333333333 0.3333333333333333 0.3333333333333333)
	(0.3333333333333333 0.3333333333333333 0.3333333333333333)
	(0.3333333333333333 0.3333333333333333 0.3333333333333333));
}

potential (ARRDC3 | class CA4 LEPR PGM5 STARD9)
{
	data = ((0.3333333333333333 0.3333333333333333 0.3333333333333333)
	(0.3333333333333333 0.3333333333333333 0.3333333333333333)
	(0.3333333333333333 0.3333333333333333 0.3333333333333333)
	(0.3333333333333333 0.3333333333333333 0.3333333333333333)
	(0.3333333333333333 0.3333333333333333 0.3333333333333333)
	(0.3333333333333333 0.3333333333333333 0.3333333333333333)
	(0.3333333333333333 0.3333333333333333 0.3333333333333333)
	(0.3333333333333333 0.3333333333333333 0.3333333333333333)
	(0.3333333333333333 0.3333333333333333 0.3333333333333333)
	(0.3333333333333333 0.3333333333333333 0.3333333333333333)
	(0.3333333333333333 0.3333333333333333 0.3333333333333333)
	(0.3333333333333333 0.3333333333333333 0.3333333333333333)
	(0.3333333333333333 0.3333333333333333 0.3333333333333333)
	(0.3333333333333333 0.3333333333333333 0.3333333333333333)
	(0.3333333333333333 0.3333333333333333 0.3333333333333333)
	(0.3333333333333333 0.3333333333333333 0.3333333333333333)
	(0.3333333333333333 0.3333333333333333 0.3333333333333333)
	(0.3333333333333333 0.3333333333333333 0.3333333333333333)
	(0.3333333333333333 0.3333333333333333 0.3333333333333333)
	(0.3333333333333333 0.3333333333333333 0.3333333333333333)
	(0.3333333333333333 0.3333333333333333 0.3333333333333333)
	(0.3333333333333333 0.3333333333333333 0.3333333333333333)
	(0.3333333333333333 0.3333333333333333 0.3333333333333333)
	(0.3333333333333333 0.3333333333333333 0.3333333333333333)
	(0.3333333333333333 0.3333333333333333 0.3333333333333333)
	(0.3333333333333333 0.3333333333333333 0.3333333333333333)
	(0.3333333333333333 0.3333333333333333 0.3333333333333333)
	(0.3333333333333333 0.3333333333333333 0.3333333333333333)
	(0.3333333333333333 0.3333333333333333 0.3333333333333333)
	(0.3333333333333333 0.3333333333333333 0.3333333333333333)
	(0.3333333333333333 0.3333333333333333 0.3333333333333333)
	(0.3333333333333333 0.3333333333333333 0.3333333333333333)
	(0.3333333333333333 0.3333333333333333 0.3333333333333333)
	(0.3333333333333333 0.3333333333333333 0.3333333333333333)
	(0.3333333333333333 0.3333333333333333 0.3333333333333333)
	(0.3333333333333333 0.3333333333333333 0.3333333333333333)
	(0.3333333333333333 0.3333333333333333 0.3333333333333333)
	(0.3333333333333333 0.3333333333333333 0.3333333333333333)
	(0.3333333333333333 0.3333333333333333 0.3333333333333333)
	(0.3333333333333333 0.3333333333333333 0.3333333333333333)
	(0.3333333333333333 0.3333333333333333 0.3333333333333333)
	(0.3333333333333333 0.3333333333333333 0.3333333333333333)
	(0.3333333333333333 0.3333333333333333 0.3333333333333333)
	(0.3333333333333333 0.3333333333333333 0.3333333333333333)
	(0.3333333333333333 0.3333333333333333 0.3333333333333333)
	(0.3333333333333333 0.3333333333333333 0.3333333333333333)
	(0.3333333333333333 0.3333333333333333 0.3333333333333333)
	(0.3333333333333333 0.3333333333333333 0.3333333333333333)
	(0.3333333333333333 0.3333333333333333 0.3333333333333333)
	(0.3333333333333333 0.3333333333333333 0.3333333333333333)
	(0.3333333333333333 0.3333333333333333 0.3333333333333333)
	(0.3333333333333333 0.3333333333333333 0.3333333333333333)
	(0.3333333333333333 0.3333333333333333 0.3333333333333333)
	(0.14285714285714285 0.14285714285714285 0.7142857142857143)
	(0.2 0.2 0.6)
	(0.3333333333333333 0.3333333333333333 0.3333333333333333)
	(0.3333333333333333 0.3333333333333333 0.3333333333333333)
	(0.2 0.6 0.2)
	(0.2 0.2 0.6)
	(0.2 0.2 0.6)
	(0.3333333333333333 0.3333333333333333 0.3333333333333333)
	(0.3333333333333333 0.3333333333333333 0.3333333333333333)
	(0.3333333333333333 0.3333333333333333 0.3333333333333333)
	(0.3333333333333333 0.3333333333333333 0.3333333333333333)
	(0.3333333333333333 0.3333333333333333 0.3333333333333333)
	(0.14285714285714285 0.14285714285714285 0.7142857142857143)
	(0.2 0.2 0.6)
	(0.3333333333333333 0.3333333333333333 0.3333333333333333)
	(0.3333333333333333 0.3333333333333333 0.3333333333333333)
	(0.2 0.2 0.6)
	(0.2 0.6 0.2)
	(0.09090909090909091 0.09090909090909091 0.8181818181818182)
	(0.3333333333333333 0.3333333333333333 0.3333333333333333)
	(0.3333333333333333 0.3333333333333333 0.3333333333333333)
	(0.3333333333333333 0.3333333333333333 0.3333333333333333)
	(0.3333333333333333 0.3333333333333333 0.3333333333333333)
	(0.3333333333333333 0.3333333333333333 0.3333333333333333)
	(0.3333333333333333 0.3333333333333333 0.3333333333333333)
	(0.3333333333333333 0.3333333333333333 0.3333333333333333)
	(0.3333333333333333 0.3333333333333333 0.3333333333333333)
	(0.3333333333333333 0.3333333333333333 0.3333333333333333)
	(0.3333333333333333 0.3333333333333333 0.3333333333333333)
	(0.3333333333333333 0.3333333333333333 0.3333333333333333)
	(0.3333333333333333 0.3333333333333333 0.3333333333333333)
	(0.3333333333333333 0.3333333333333333 0.3333333333333333)
	(0.3333333333333333 0.3333333333333333 0.3333333333333333)
	(0.3333333333333333 0.3333333333333333 0.3333333333333333)
	(0.3333333333333333 0.3333333333333333 0.3333333333333333)
	(0.3333333333333333 0.3333333333333333 0.3333333333333333)
	(0.3333333333333333 0.3333333333333333 0.3333333333333333)
	(0.3333333333333333 0.3333333333333333 0.3333333333333333)
	(0.3333333333333333 0.3333333333333333 0.3333333333333333)
	(0.3333333333333333 0.3333333333333333 0.3333333333333333)
	(0.3333333333333333 0.3333333333333333 0.3333333333333333)
	(0.2 0.2 0.6)
	(0.3333333333333333 0.3333333333333333 0.3333333333333333)
	(0.3333333333333333 0.3333333333333333 0.3333333333333333)
	(0.2 0.6 0.2)
	(0.3333333333333333 0.3333333333333333 0.3333333333333333)
	(0.2 0.6 0.2)
	(0.3333333333333333 0.3333333333333333 0.3333333333333333)
	(0.2 0.2 0.6)
	(0.2 0.2 0.6)
	(0.2 0.2 0.6)
	(0.3333333333333333 0.3333333333333333 0.3333333333333333)
	(0.14285714285714285 0.14285714285714285 0.7142857142857143)
	(0.09090909090909091 0.2727272727272727 0.6363636363636364)
	(0.2631578947368421 0.2982456140350877 0.43859649122807015)
	(0.9450072358900145 0.04486251808972504 0.010130246020260492)
	(0.8222222222222222 0.15555555555555556 0.022222222222222223)
	(0.6 0.2 0.2)
	(0.3333333333333333 0.3333333333333333 0.3333333333333333)
	(0.813953488372093 0.11627906976744186 0.06976744186046512)
	(0.7333333333333333 0.2 0.06666666666666667)
	(0.3333333333333333 0.3333333333333333 0.3333333333333333)
	(0.3333333333333333 0.3333333333333333 0.3333333333333333)
	(0.7142857142857143 0.14285714285714285 0.14285714285714285)
	(0.7142857142857143 0.14285714285714285 0.14285714285714285)
	(0.3333333333333333 0.3333333333333333 0.3333333333333333)
	(0.3333333333333333 0.3333333333333333 0.3333333333333333)
	(0.8787878787878788 0.09090909090909091 0.030303030303030304)
	(0.8461538461538461 0.07692307692307693 0.07692307692307693)
	(0.3333333333333333 0.3333333333333333 0.3333333333333333)
	(0.3333333333333333 0.3333333333333333 0.3333333333333333)
	(0.6842105263157895 0.05263157894736842 0.2631578947368421)
	(0.8181818181818182 0.09090909090909091 0.09090909090909091)
	(0.3333333333333333 0.3333333333333333 0.3333333333333333)
	(0.3333333333333333 0.3333333333333333 0.3333333333333333)
	(0.6 0.2 0.2)
	(0.6 0.2 0.2)
	(0.6 0.2 0.2)
	(0.3333333333333333 0.3333333333333333 0.3333333333333333)
	(0.6 0.2 0.2)
	(0.6 0.2 0.2)
	(0.3333333333333333 0.3333333333333333 0.3333333333333333)
	(0.3333333333333333 0.3333333333333333 0.3333333333333333)
	(0.42857142857142855 0.42857142857142855 0.14285714285714285)
	(0.6363636363636364 0.2727272727272727 0.09090909090909091)
	(0.3333333333333333 0.3333333333333333 0.3333333333333333)
	(0.3333333333333333 0.3333333333333333 0.3333333333333333)
	(0.3333333333333333 0.3333333333333333 0.3333333333333333)
	(0.3333333333333333 0.3333333333333333 0.3333333333333333)
	(0.3333333333333333 0.3333333333333333 0.3333333333333333)
	(0.3333333333333333 0.3333333333333333 0.3333333333333333)
	(0.9259259259259259 0.037037037037037035 0.037037037037037035)
	(0.6 0.2 0.2)
	(0.3333333333333333 0.3333333333333333 0.3333333333333333)
	(0.3333333333333333 0.3333333333333333 0.3333333333333333)
	(0.6 0.2 0.2)
	(0.6 0.2 0.2)
	(0.3333333333333333 0.3333333333333333 0.3333333333333333)
	(0.3333333333333333 0.3333333333333333 0.3333333333333333)
	(0.3333333333333333 0.3333333333333333 0.3333333333333333)
	(0.2 0.6 0.2)
	(0.6 0.2 0.2)
	(0.3333333333333333 0.3333333333333333 0.3333333333333333)
	(0.42857142857142855 0.42857142857142855 0.14285714285714285)
	(0.2 0.6 0.2)
	(0.3333333333333333 0.3333333333333333 0.3333333333333333)
	(0.3333333333333333 0.3333333333333333 0.3333333333333333)
	(0.5555555555555556 0.1111111111111111 0.3333333333333333)
	(0.8181818181818182 0.09090909090909091 0.09090909090909091)
	(0.3333333333333333 0.3333333333333333 0.3333333333333333)
	(0.3333333333333333 0.3333333333333333 0.3333333333333333)
	(0.3333333333333333 0.3333333333333333 0.3333333333333333)
	(0.3333333333333333 0.3333333333333333 0.3333333333333333)
	(0.3333333333333333 0.3333333333333333 0.3333333333333333)
	(0.3333333333333333 0.3333333333333333 0.3333333333333333)
	(0.6 0.2 0.2)
	(0.3333333333333333 0.3333333333333333 0.3333333333333333)
	(0.3333333333333333 0.3333333333333333 0.3333333333333333)
	(0.3333333333333333 0.3333333333333333 0.3333333333333333)
	(0.2 0.6 0.2)
	(0.42857142857142855 0.42857142857142855 0.14285714285714285)
	(0.6 0.2 0.2)
	(0.3333333333333333 0.3333333333333333 0.3333333333333333)
	(0.3333333333333333 0.3333333333333333 0.3333333333333333)
	(0.3333333333333333 0.3333333333333333 0.3333333333333333)
	(0.3333333333333333 0.3333333333333333 0.3333333333333333)
	(0.3333333333333333 0.3333333333333333 0.3333333333333333)
	(0.6 0.2 0.2)
	(0.3333333333333333 0.3333333333333333 0.3333333333333333)
	(0.3333333333333333 0.3333333333333333 0.3333333333333333)
	(0.3333333333333333 0.3333333333333333 0.3333333333333333)
	(0.3333333333333333 0.3333333333333333 0.3333333333333333)
	(0.3333333333333333 0.3333333333333333 0.3333333333333333)
	(0.3333333333333333 0.3333333333333333 0.3333333333333333)
	(0.3333333333333333 0.3333333333333333 0.3333333333333333)
	(0.3333333333333333 0.3333333333333333 0.3333333333333333)
	(0.3333333333333333 0.3333333333333333 0.3333333333333333)
	(0.3333333333333333 0.3333333333333333 0.3333333333333333)
	(0.3333333333333333 0.3333333333333333 0.3333333333333333)
	(0.3333333333333333 0.3333333333333333 0.3333333333333333)
	(0.3333333333333333 0.3333333333333333 0.3333333333333333)
	(0.3333333333333333 0.3333333333333333 0.3333333333333333)
	(0.3333333333333333 0.3333333333333333 0.3333333333333333)
	(0.3333333333333333 0.3333333333333333 0.3333333333333333)
	(0.3333333333333333 0.3333333333333333 0.3333333333333333)
	(0.3333333333333333 0.3333333333333333 0.3333333333333333)
	(0.3333333333333333 0.3333333333333333 0.3333333333333333)
	(0.3333333333333333 0.3333333333333333 0.3333333333333333)
	(0.3333333333333333 0.3333333333333333 0.3333333333333333)
	(0.3333333333333333 0.3333333333333333 0.3333333333333333)
	(0.3333333333333333 0.3333333333333333 0.3333333333333333)
	(0.3333333333333333 0.3333333333333333 0.3333333333333333)
	(0.3333333333333333 0.3333333333333333 0.3333333333333333)
	(0.3333333333333333 0.3333333333333333 0.3333333333333333)
	(0.3333333333333333 0.3333333333333333 0.3333333333333333)
	(0.3333333333333333 0.3333333333333333 0.3333333333333333)
	(0.3333333333333333 0.3333333333333333 0.3333333333333333)
	(0.6 0.2 0.2)
	(0.3333333333333333 0.3333333333333333 0.3333333333333333)
	(0.3333333333333333 0.3333333333333333 0.3333333333333333)
	(0.3333333333333333 0.3333333333333333 0.3333333333333333)
	(0.3333333333333333 0.3333333333333333 0.3333333333333333)
	(0.3333333333333333 0.3333333333333333 0.3333333333333333));
}

potential (C10orf90 | class)
{
	data = ((0.045454545454545456 0.9545454545454546)
	(0.9187763713080169 0.08122362869198312));
}

potential (GJB2 | class)
{
	data = ((0.9545454545454546 0.045454545454545456)
	(0.07489451476793249 0.9251054852320675));
}

potential (CXCL3 | class CA4 TRIM59 LEPR USP44)
{
	data = ((0.3333333333333333 0.3333333333333333 0.3333333333333333)
	(0.3333333333333333 0.3333333333333333 0.3333333333333333)
	(0.3333333333333333 0.3333333333333333 0.3333333333333333)
	(0.3333333333333333 0.3333333333333333 0.3333333333333333)
	(0.3333333333333333 0.3333333333333333 0.3333333333333333)
	(0.3333333333333333 0.3333333333333333 0.3333333333333333)
	(0.3333333333333333 0.3333333333333333 0.3333333333333333)
	(0.3333333333333333 0.3333333333333333 0.3333333333333333)
	(0.3333333333333333 0.3333333333333333 0.3333333333333333)
	(0.3333333333333333 0.3333333333333333 0.3333333333333333)
	(0.3333333333333333 0.3333333333333333 0.3333333333333333)
	(0.3333333333333333 0.3333333333333333 0.3333333333333333)
	(0.3333333333333333 0.3333333333333333 0.3333333333333333)
	(0.3333333333333333 0.3333333333333333 0.3333333333333333)
	(0.3333333333333333 0.3333333333333333 0.3333333333333333)
	(0.3333333333333333 0.3333333333333333 0.3333333333333333)
	(0.3333333333333333 0.3333333333333333 0.3333333333333333)
	(0.3333333333333333 0.3333333333333333 0.3333333333333333)
	(0.3333333333333333 0.3333333333333333 0.3333333333333333)
	(0.3333333333333333 0.3333333333333333 0.3333333333333333)
	(0.3333333333333333 0.3333333333333333 0.3333333333333333)
	(0.3333333333333333 0.3333333333333333 0.3333333333333333)
	(0.3333333333333333 0.3333333333333333 0.3333333333333333)
	(0.3333333333333333 0.3333333333333333 0.3333333333333333)
	(0.3333333333333333 0.3333333333333333 0.3333333333333333)
	(0.3333333333333333 0.3333333333333333 0.3333333333333333)
	(0.3333333333333333 0.3333333333333333 0.3333333333333333)
	(0.3333333333333333 0.3333333333333333 0.3333333333333333)
	(0.3333333333333333 0.3333333333333333 0.3333333333333333)
	(0.3333333333333333 0.3333333333333333 0.3333333333333333)
	(0.3333333333333333 0.3333333333333333 0.3333333333333333)
	(0.2 0.2 0.6)
	(0.14285714285714285 0.14285714285714285 0.7142857142857143)
	(0.3333333333333333 0.3333333333333333 0.3333333333333333)
	(0.2 0.2 0.6)
	(0.09090909090909091 0.2727272727272727 0.6363636363636364)
	(0.3333333333333333 0.3333333333333333 0.3333333333333333)
	(0.3333333333333333 0.3333333333333333 0.3333333333333333)
	(0.3333333333333333 0.3333333333333333 0.3333333333333333)
	(0.3333333333333333 0.3333333333333333 0.3333333333333333)
	(0.2 0.2 0.6)
	(0.2 0.6 0.2)
	(0.3333333333333333 0.3333333333333333 0.3333333333333333)
	(0.2 0.6 0.2)
	(0.1111111111111111 0.1111111111111111 0.7777777777777778)
	(0.3333333333333333 0.3333333333333333 0.3333333333333333)
	(0.3333333333333333 0.3333333333333333 0.3333333333333333)
	(0.3333333333333333 0.3333333333333333 0.3333333333333333)
	(0.3333333333333333 0.3333333333333333 0.3333333333333333)
	(0.3333333333333333 0.3333333333333333 0.3333333333333333)
	(0.2 0.6 0.2)
	(0.3333333333333333 0.3333333333333333 0.3333333333333333)
	(0.3333333333333333 0.3333333333333333 0.3333333333333333)
	(0.3333333333333333 0.3333333333333333 0.3333333333333333)
	(0.3333333333333333 0.3333333333333333 0.3333333333333333)
	(0.3333333333333333 0.3333333333333333 0.3333333333333333)
	(0.3333333333333333 0.3333333333333333 0.3333333333333333)
	(0.3333333333333333 0.3333333333333333 0.3333333333333333)
	(0.3333333333333333 0.3333333333333333 0.3333333333333333)
	(0.2 0.2 0.6)
	(0.2 0.2 0.6)
	(0.0967741935483871 0.0967741935483871 0.8064516129032258)
	(0.02857142857142857 0.08571428571428572 0.8857142857142857)
	(0.3333333333333333 0.3333333333333333 0.3333333333333333)
	(0.3333333333333333 0.3333333333333333 0.3333333333333333)
	(0.3333333333333333 0.3333333333333333 0.3333333333333333)
	(0.3333333333333333 0.3333333333333333 0.3333333333333333)
	(0.3333333333333333 0.3333333333333333 0.3333333333333333)
	(0.3333333333333333 0.3333333333333333 0.3333333333333333)
	(0.3333333333333333 0.3333333333333333 0.3333333333333333)
	(0.2 0.2 0.6)
	(0.2727272727272727 0.2727272727272727 0.45454545454545453)
	(0.3333333333333333 0.3333333333333333 0.3333333333333333)
	(0.3333333333333333 0.3333333333333333 0.3333333333333333)
	(0.3333333333333333 0.3333333333333333 0.3333333333333333)
	(0.3333333333333333 0.3333333333333333 0.3333333333333333)
	(0.3333333333333333 0.3333333333333333 0.3333333333333333)
	(0.3333333333333333 0.3333333333333333 0.3333333333333333)
	(0.2 0.2 0.6)
	(0.3333333333333333 0.3333333333333333 0.3333333333333333)
	(0.2 0.2 0.6)
	(0.8518518518518519 0.037037037037037035 0.1111111111111111)
	(0.6 0.2 0.2)
	(0.3333333333333333 0.3333333333333333 0.3333333333333333)
	(0.3333333333333333 0.3333333333333333 0.3333333333333333)
	(0.3333333333333333 0.3333333333333333 0.3333333333333333)
	(0.3333333333333333 0.3333333333333333 0.3333333333333333)
	(0.6 0.2 0.2)
	(0.3333333333333333 0.3333333333333333 0.3333333333333333)
	(0.3333333333333333 0.3333333333333333 0.3333333333333333)
	(0.9148936170212766 0.06382978723404255 0.02127659574468085)
	(0.6 0.2 0.2)
	(0.6 0.2 0.2)
	(0.7142857142857143 0.14285714285714285 0.14285714285714285)
	(0.3333333333333333 0.3333333333333333 0.3333333333333333)
	(0.3333333333333333 0.3333333333333333 0.3333333333333333)
	(0.3333333333333333 0.3333333333333333 0.3333333333333333)
	(0.6 0.2 0.2)
	(0.3333333333333333 0.3333333333333333 0.3333333333333333)
	(0.9215686274509803 0.04072398190045249 0.03770739064856712)
	(0.8367346938775511 0.02040816326530612 0.14285714285714285)
	(0.6 0.2 0.2)
	(0.864406779661017 0.0847457627118644 0.05084745762711865)
	(0.8181818181818182 0.09090909090909091 0.09090909090909091)
	(0.2 0.6 0.2)
	(0.5555555555555556 0.3333333333333333 0.1111111111111111)
	(0.7777777777777778 0.1111111111111111 0.1111111111111111)
	(0.3333333333333333 0.3333333333333333 0.3333333333333333)
	(0.6 0.2 0.2)
	(0.3333333333333333 0.3333333333333333 0.3333333333333333)
	(0.3333333333333333 0.3333333333333333 0.3333333333333333)
	(0.3333333333333333 0.3333333333333333 0.3333333333333333)
	(0.3333333333333333 0.3333333333333333 0.3333333333333333)
	(0.3333333333333333 0.3333333333333333 0.3333333333333333)
	(0.14285714285714285 0.42857142857142855 0.42857142857142855)
	(0.3333333333333333 0.3333333333333333 0.3333333333333333)
	(0.3333333333333333 0.3333333333333333 0.3333333333333333)
	(0.6 0.2 0.2)
	(0.3333333333333333 0.3333333333333333 0.3333333333333333)
	(0.3333333333333333 0.3333333333333333 0.3333333333333333)
	(0.2 0.2 0.6)
	(0.3333333333333333 0.3333333333333333 0.3333333333333333)
	(0.3333333333333333 0.3333333333333333 0.3333333333333333)
	(0.3333333333333333 0.3333333333333333 0.3333333333333333)
	(0.3333333333333333 0.3333333333333333 0.3333333333333333)
	(0.3333333333333333 0.3333333333333333 0.3333333333333333)
	(0.8620689655172413 0.10344827586206896 0.034482758620689655)
	(0.7142857142857143 0.14285714285714285 0.14285714285714285)
	(0.3333333333333333 0.3333333333333333 0.3333333333333333)
	(0.6842105263157895 0.15789473684210525 0.15789473684210525)
	(0.3333333333333333 0.3333333333333333 0.3333333333333333)
	(0.6 0.2 0.2)
	(0.7142857142857143 0.14285714285714285 0.14285714285714285)
	(0.3333333333333333 0.3333333333333333 0.3333333333333333)
	(0.6 0.2 0.2)
	(0.3333333333333333 0.3333333333333333 0.3333333333333333)
	(0.3333333333333333 0.3333333333333333 0.3333333333333333)
	(0.3333333333333333 0.3333333333333333 0.3333333333333333)
	(0.3333333333333333 0.3333333333333333 0.3333333333333333)
	(0.3333333333333333 0.3333333333333333 0.3333333333333333)
	(0.3333333333333333 0.3333333333333333 0.3333333333333333)
	(0.3333333333333333 0.3333333333333333 0.3333333333333333)
	(0.3333333333333333 0.3333333333333333 0.3333333333333333)
	(0.3333333333333333 0.3333333333333333 0.3333333333333333)
	(0.6 0.2 0.2)
	(0.3333333333333333 0.3333333333333333 0.3333333333333333)
	(0.3333333333333333 0.3333333333333333 0.3333333333333333)
	(0.3333333333333333 0.3333333333333333 0.3333333333333333)
	(0.3333333333333333 0.3333333333333333 0.3333333333333333)
	(0.3333333333333333 0.3333333333333333 0.3333333333333333)
	(0.6 0.2 0.2)
	(0.3333333333333333 0.3333333333333333 0.3333333333333333)
	(0.3333333333333333 0.3333333333333333 0.3333333333333333)
	(0.3333333333333333 0.3333333333333333 0.3333333333333333)
	(0.3333333333333333 0.3333333333333333 0.3333333333333333)
	(0.3333333333333333 0.3333333333333333 0.3333333333333333)
	(0.3333333333333333 0.3333333333333333 0.3333333333333333)
	(0.3333333333333333 0.3333333333333333 0.3333333333333333)
	(0.3333333333333333 0.3333333333333333 0.3333333333333333)
	(0.3333333333333333 0.3333333333333333 0.3333333333333333)
	(0.3333333333333333 0.3333333333333333 0.3333333333333333)
	(0.3333333333333333 0.3333333333333333 0.3333333333333333));
}

potential (TPM3 | class)
{
	data = ((0.5675675675675675 0.42342342342342343 0.009009009009009009)
	(0.001053740779768177 0.07903055848261328 0.9199157007376185));
}

potential (USP44 | class CA4 GJB2 LEPR PGM5)
{
	data = ((0.3333333333333333 0.3333333333333333 0.3333333333333333)
	(0.3333333333333333 0.3333333333333333 0.3333333333333333)
	(0.3333333333333333 0.3333333333333333 0.3333333333333333)
	(0.3333333333333333 0.3333333333333333 0.3333333333333333)
	(0.3333333333333333 0.3333333333333333 0.3333333333333333)
	(0.3333333333333333 0.3333333333333333 0.3333333333333333)
	(0.3333333333333333 0.3333333333333333 0.3333333333333333)
	(0.3333333333333333 0.3333333333333333 0.3333333333333333)
	(0.3333333333333333 0.3333333333333333 0.3333333333333333)
	(0.3333333333333333 0.3333333333333333 0.3333333333333333)
	(0.3333333333333333 0.3333333333333333 0.3333333333333333)
	(0.3333333333333333 0.3333333333333333 0.3333333333333333)
	(0.3333333333333333 0.3333333333333333 0.3333333333333333)
	(0.3333333333333333 0.3333333333333333 0.3333333333333333)
	(0.3333333333333333 0.3333333333333333 0.3333333333333333)
	(0.3333333333333333 0.3333333333333333 0.3333333333333333)
	(0.3333333333333333 0.3333333333333333 0.3333333333333333)
	(0.3333333333333333 0.3333333333333333 0.3333333333333333)
	(0.3333333333333333 0.3333333333333333 0.3333333333333333)
	(0.3333333333333333 0.3333333333333333 0.3333333333333333)
	(0.3333333333333333 0.3333333333333333 0.3333333333333333)
	(0.3333333333333333 0.3333333333333333 0.3333333333333333)
	(0.1111111111111111 0.1111111111111111 0.7777777777777778)
	(0.1111111111111111 0.5555555555555556 0.3333333333333333)
	(0.3333333333333333 0.3333333333333333 0.3333333333333333)
	(0.1111111111111111 0.3333333333333333 0.5555555555555556)
	(0.06666666666666667 0.2 0.7333333333333333)
	(0.3333333333333333 0.3333333333333333 0.3333333333333333)
	(0.3333333333333333 0.3333333333333333 0.3333333333333333)
	(0.3333333333333333 0.3333333333333333 0.3333333333333333)
	(0.3333333333333333 0.3333333333333333 0.3333333333333333)
	(0.3333333333333333 0.3333333333333333 0.3333333333333333)
	(0.3333333333333333 0.3333333333333333 0.3333333333333333)
	(0.3333333333333333 0.3333333333333333 0.3333333333333333)
	(0.3333333333333333 0.3333333333333333 0.3333333333333333)
	(0.3333333333333333 0.3333333333333333 0.3333333333333333)
	(0.3333333333333333 0.3333333333333333 0.3333333333333333)
	(0.3333333333333333 0.3333333333333333 0.3333333333333333)
	(0.3333333333333333 0.3333333333333333 0.3333333333333333)
	(0.3333333333333333 0.3333333333333333 0.3333333333333333)
	(0.3333333333333333 0.3333333333333333 0.3333333333333333)
	(0.2 0.2 0.6)
	(0.14285714285714285 0.14285714285714285 0.7142857142857143)
	(0.1111111111111111 0.3333333333333333 0.5555555555555556)
	(0.046153846153846156 0.4153846153846154 0.5384615384615384)
	(0.3333333333333333 0.3333333333333333 0.3333333333333333)
	(0.3333333333333333 0.3333333333333333 0.3333333333333333)
	(0.3333333333333333 0.3333333333333333 0.3333333333333333)
	(0.3333333333333333 0.3333333333333333 0.3333333333333333)
	(0.3333333333333333 0.3333333333333333 0.3333333333333333)
	(0.3333333333333333 0.3333333333333333 0.3333333333333333)
	(0.3333333333333333 0.3333333333333333 0.3333333333333333)
	(0.3333333333333333 0.3333333333333333 0.3333333333333333)
	(0.42857142857142855 0.42857142857142855 0.14285714285714285)
	(0.8775510204081632 0.061224489795918366 0.061224489795918366)
	(0.7142857142857143 0.14285714285714285 0.14285714285714285)
	(0.2 0.6 0.2)
	(0.42857142857142855 0.14285714285714285 0.42857142857142855)
	(0.2 0.6 0.2)
	(0.3333333333333333 0.3333333333333333 0.3333333333333333)
	(0.3333333333333333 0.3333333333333333 0.3333333333333333)
	(0.6 0.2 0.2)
	(0.3333333333333333 0.3333333333333333 0.3333333333333333)
	(0.9274310595065312 0.05370101596516691 0.018867924528301886)
	(0.7647058823529411 0.21568627450980393 0.0196078431372549)
	(0.7777777777777778 0.1111111111111111 0.1111111111111111)
	(0.9487179487179487 0.02564102564102564 0.02564102564102564)
	(0.92 0.04 0.04)
	(0.1111111111111111 0.7777777777777778 0.1111111111111111)
	(0.7142857142857143 0.14285714285714285 0.14285714285714285)
	(0.23076923076923078 0.6923076923076923 0.07692307692307693)
	(0.3333333333333333 0.3333333333333333 0.3333333333333333)
	(0.7142857142857143 0.14285714285714285 0.14285714285714285)
	(0.7142857142857143 0.14285714285714285 0.14285714285714285)
	(0.3333333333333333 0.3333333333333333 0.3333333333333333)
	(0.3333333333333333 0.3333333333333333 0.3333333333333333)
	(0.3333333333333333 0.3333333333333333 0.3333333333333333)
	(0.3333333333333333 0.3333333333333333 0.3333333333333333)
	(0.3333333333333333 0.3333333333333333 0.3333333333333333)
	(0.3333333333333333 0.3333333333333333 0.3333333333333333)
	(0.3333333333333333 0.3333333333333333 0.3333333333333333)
	(0.84 0.12 0.04)
	(0.3333333333333333 0.3333333333333333 0.3333333333333333)
	(0.42857142857142855 0.42857142857142855 0.14285714285714285)
	(0.7777777777777778 0.1111111111111111 0.1111111111111111)
	(0.7647058823529411 0.058823529411764705 0.17647058823529413)
	(0.3333333333333333 0.3333333333333333 0.3333333333333333)
	(0.2 0.2 0.6)
	(0.8181818181818182 0.09090909090909091 0.09090909090909091)
	(0.3333333333333333 0.3333333333333333 0.3333333333333333)
	(0.6 0.2 0.2)
	(0.3333333333333333 0.3333333333333333 0.3333333333333333)
	(0.3333333333333333 0.3333333333333333 0.3333333333333333)
	(0.3333333333333333 0.3333333333333333 0.3333333333333333)
	(0.3333333333333333 0.3333333333333333 0.3333333333333333)
	(0.3333333333333333 0.3333333333333333 0.3333333333333333)
	(0.3333333333333333 0.3333333333333333 0.3333333333333333)
	(0.3333333333333333 0.3333333333333333 0.3333333333333333)
	(0.3333333333333333 0.3333333333333333 0.3333333333333333)
	(0.3333333333333333 0.3333333333333333 0.3333333333333333)
	(0.3333333333333333 0.3333333333333333 0.3333333333333333)
	(0.3333333333333333 0.3333333333333333 0.3333333333333333)
	(0.3333333333333333 0.3333333333333333 0.3333333333333333)
	(0.3333333333333333 0.3333333333333333 0.3333333333333333)
	(0.3333333333333333 0.3333333333333333 0.3333333333333333)
	(0.3333333333333333 0.3333333333333333 0.3333333333333333)
	(0.6 0.2 0.2)
	(0.3333333333333333 0.3333333333333333 0.3333333333333333));
}

potential (CKS2 | class)
{
	data = ((0.5982142857142857 0.2767857142857143 0.09821428571428571 0.026785714285714284)
	(0.0010526315789473684 0.02631578947368421 0.09789473684210526 0.8747368421052631));
}

potential (P4HA3 | class KCNE1)
{
	data = ((0.14285714285714285 0.6190476190476191 0.23809523809523808)
	(0.30434782608695654 0.5652173913043478 0.13043478260869565)
	(0.5068493150684932 0.4246575342465753 0.0684931506849315)
	(0.00778642936596218 0.12347052280311457 0.8687430478309233)
	(0.022222222222222223 0.022222222222222223 0.9555555555555556)
	(0.09090909090909091 0.09090909090909091 0.8181818181818182));
}

potential (STARD9 | class CA4 GJB2 TRIM59 LEPR PGM5)
{
	data = ((0.25 0.25 0.25 0.25)
	(0.25 0.25 0.25 0.25)
	(0.25 0.25 0.25 0.25)
	(0.25 0.25 0.25 0.25)
	(0.25 0.25 0.25 0.25)
	(0.25 0.25 0.25 0.25)
	(0.25 0.25 0.25 0.25)
	(0.25 0.25 0.25 0.25)
	(0.25 0.25 0.25 0.25)
	(0.25 0.25 0.25 0.25)
	(0.25 0.25 0.25 0.25)
	(0.25 0.25 0.25 0.25)
	(0.25 0.25 0.25 0.25)
	(0.25 0.25 0.25 0.25)
	(0.25 0.25 0.25 0.25)
	(0.25 0.25 0.25 0.25)
	(0.25 0.25 0.25 0.25)
	(0.25 0.25 0.25 0.25)
	(0.25 0.25 0.25 0.25)
	(0.25 0.25 0.25 0.25)
	(0.25 0.25 0.25 0.25)
	(0.25 0.25 0.25 0.25)
	(0.25 0.25 0.25 0.25)
	(0.25 0.25 0.25 0.25)
	(0.25 0.25 0.25 0.25)
	(0.25 0.25 0.25 0.25)
	(0.25 0.25 0.25 0.25)
	(0.25 0.25 0.25 0.25)
	(0.25 0.25 0.25 0.25)
	(0.25 0.25 0.25 0.25)
	(0.25 0.25 0.25 0.25)
	(0.25 0.25 0.25 0.25)
	(0.25 0.25 0.25 0.25)
	(0.25 0.25 0.25 0.25)
	(0.25 0.25 0.25 0.25)
	(0.25 0.25 0.25 0.25)
	(0.25 0.25 0.25 0.25)
	(0.25 0.25 0.25 0.25)
	(0.25 0.25 0.25 0.25)
	(0.25 0.25 0.25 0.25)
	(0.25 0.25 0.25 0.25)
	(0.25 0.25 0.25 0.25)
	(0.25 0.25 0.25 0.25)
	(0.25 0.25 0.25 0.25)
	(0.25 0.25 0.25 0.25)
	(0.25 0.25 0.25 0.25)
	(0.25 0.25 0.25 0.25)
	(0.25 0.25 0.25 0.25)
	(0.25 0.25 0.25 0.25)
	(0.25 0.25 0.25 0.25)
	(0.25 0.25 0.25 0.25)
	(0.25 0.25 0.25 0.25)
	(0.25 0.25 0.25 0.25)
	(0.25 0.25 0.25 0.25)
	(0.25 0.25 0.25 0.25)
	(0.25 0.25 0.25 0.25)
	(0.25 0.25 0.25 0.25)
	(0.25 0.25 0.25 0.25)
	(0.16666666666666666 0.16666666666666666 0.5 0.16666666666666666)
	(0.125 0.375 0.125 0.375)
	(0.25 0.25 0.25 0.25)
	(0.125 0.375 0.375 0.125)
	(0.1 0.1 0.1 0.7)
	(0.25 0.25 0.25 0.25)
	(0.25 0.25 0.25 0.25)
	(0.25 0.25 0.25 0.25)
	(0.25 0.25 0.25 0.25)
	(0.16666666666666666 0.5 0.16666666666666666 0.16666666666666666)
	(0.16666666666666666 0.16666666666666666 0.5 0.16666666666666666)
	(0.25 0.25 0.25 0.25)
	(0.16666666666666666 0.5 0.16666666666666666 0.16666666666666666)
	(0.1 0.3 0.3 0.3)
	(0.25 0.25 0.25 0.25)
	(0.25 0.25 0.25 0.25)
	(0.25 0.25 0.25 0.25)
	(0.25 0.25 0.25 0.25)
	(0.16666666666666666 0.5 0.16666666666666666 0.16666666666666666)
	(0.25 0.25 0.25 0.25)
	(0.25 0.25 0.25 0.25)
	(0.25 0.25 0.25 0.25)
	(0.25 0.25 0.25 0.25)
	(0.25 0.25 0.25 0.25)
	(0.25 0.25 0.25 0.25)
	(0.25 0.25 0.25 0.25)
	(0.25 0.25 0.25 0.25)
	(0.25 0.25 0.25 0.25)
	(0.25 0.25 0.25 0.25)
	(0.25 0.25 0.25 0.25)
	(0.25 0.25 0.25 0.25)
	(0.25 0.25 0.25 0.25)
	(0.25 0.25 0.25 0.25)
	(0.25 0.25 0.25 0.25)
	(0.25 0.25 0.25 0.25)
	(0.25 0.25 0.25 0.25)
	(0.25 0.25 0.25 0.25)
	(0.25 0.25 0.25 0.25)
	(0.25 0.25 0.25 0.25)
	(0.25 0.25 0.25 0.25)
	(0.25 0.25 0.25 0.25)
	(0.25 0.25 0.25 0.25)
	(0.25 0.25 0.25 0.25)
	(0.25 0.25 0.25 0.25)
	(0.25 0.25 0.25 0.25)
	(0.25 0.25 0.25 0.25)
	(0.25 0.25 0.25 0.25)
	(0.25 0.25 0.25 0.25)
	(0.25 0.25 0.25 0.25)
	(0.25 0.25 0.25 0.25)
	(0.25 0.25 0.25 0.25)
	(0.25 0.25 0.25 0.25)
	(0.25 0.25 0.25 0.25)
	(0.25 0.25 0.25 0.25)
	(0.25 0.25 0.25 0.25)
	(0.16666666666666666 0.16666666666666666 0.5 0.16666666666666666)
	(0.16666666666666666 0.16666666666666666 0.16666666666666666 0.5)
	(0.16666666666666666 0.5 0.16666666666666666 0.16666666666666666)
	(0.016666666666666666 0.08333333333333333 0.08333333333333333 0.8166666666666667)
	(0.25 0.25 0.25 0.25)
	(0.25 0.25 0.25 0.25)
	(0.25 0.25 0.25 0.25)
	(0.25 0.25 0.25 0.25)
	(0.25 0.25 0.25 0.25)
	(0.25 0.25 0.25 0.25)
	(0.16666666666666666 0.5 0.16666666666666666 0.16666666666666666)
	(0.16666666666666666 0.16666666666666666 0.16666666666666666 0.5)
	(0.1 0.1 0.3 0.5)
	(0.25 0.25 0.25 0.25)
	(0.25 0.25 0.25 0.25)
	(0.25 0.25 0.25 0.25)
	(0.25 0.25 0.25 0.25)
	(0.25 0.25 0.25 0.25)
	(0.25 0.25 0.25 0.25)
	(0.25 0.25 0.25 0.25)
	(0.16666666666666666 0.16666666666666666 0.5 0.16666666666666666)
	(0.25 0.25 0.25 0.25)
	(0.25 0.25 0.25 0.25)
	(0.25 0.25 0.25 0.25)
	(0.25 0.25 0.25 0.25)
	(0.25 0.25 0.25 0.25)
	(0.25 0.25 0.25 0.25)
	(0.25 0.25 0.25 0.25)
	(0.25 0.25 0.25 0.25)
	(0.25 0.25 0.25 0.25)
	(0.16666666666666666 0.16666666666666666 0.16666666666666666 0.5)
	(0.25 0.25 0.25 0.25)
	(0.25 0.25 0.25 0.25)
	(0.25 0.25 0.25 0.25)
	(0.25 0.25 0.25 0.25)
	(0.25 0.25 0.25 0.25)
	(0.25 0.25 0.25 0.25)
	(0.25 0.25 0.25 0.25)
	(0.25 0.25 0.25 0.25)
	(0.25 0.25 0.25 0.25)
	(0.25 0.25 0.25 0.25)
	(0.25 0.25 0.25 0.25)
	(0.25 0.25 0.25 0.25)
	(0.25 0.25 0.25 0.25)
	(0.25 0.25 0.25 0.25)
	(0.25 0.25 0.25 0.25)
	(0.25 0.25 0.25 0.25)
	(0.25 0.25 0.25 0.25)
	(0.16666666666666666 0.16666666666666666 0.5 0.16666666666666666)
	(0.625 0.125 0.125 0.125)
	(0.25 0.25 0.25 0.25)
	(0.25 0.25 0.25 0.25)
	(0.25 0.25 0.25 0.25)
	(0.25 0.25 0.25 0.25)
	(0.25 0.25 0.25 0.25)
	(0.25 0.25 0.25 0.25)
	(0.25 0.25 0.25 0.25)
	(0.25 0.25 0.25 0.25)
	(0.7222222222222222 0.16666666666666666 0.05555555555555555 0.05555555555555555)
	(0.25 0.25 0.25 0.25)
	(0.16666666666666666 0.5 0.16666666666666666 0.16666666666666666)
	(0.25 0.25 0.25 0.25)
	(0.25 0.25 0.25 0.25)
	(0.25 0.25 0.25 0.25)
	(0.25 0.25 0.25 0.25)
	(0.25 0.25 0.25 0.25)
	(0.25 0.25 0.25 0.25)
	(0.90625 0.03125 0.03125 0.03125)
	(0.625 0.125 0.125 0.125)
	(0.25 0.25 0.25 0.25)
	(0.375 0.375 0.125 0.125)
	(0.16666666666666666 0.5 0.16666666666666666 0.16666666666666666)
	(0.25 0.25 0.25 0.25)
	(0.25 0.25 0.25 0.25)
	(0.5 0.16666666666666666 0.16666666666666666 0.16666666666666666)
	(0.25 0.25 0.25 0.25)
	(0.875 0.041666666666666664 0.041666666666666664 0.041666666666666664)
	(0.5 0.16666666666666666 0.16666666666666666 0.16666666666666666)
	(0.25 0.25 0.25 0.25)
	(0.25 0.25 0.25 0.25)
	(0.25 0.25 0.25 0.25)
	(0.25 0.25 0.25 0.25)
	(0.25 0.25 0.25 0.25)
	(0.16666666666666666 0.5 0.16666666666666666 0.16666666666666666)
	(0.25 0.25 0.25 0.25)
	(0.9166666666666666 0.027777777777777776 0.027777777777777776 0.027777777777777776)
	(0.25 0.25 0.25 0.25)
	(0.25 0.25 0.25 0.25)
	(0.625 0.125 0.125 0.125)
	(0.25 0.25 0.25 0.25)
	(0.25 0.25 0.25 0.25)
	(0.25 0.25 0.25 0.25)
	(0.16666666666666666 0.5 0.16666666666666666 0.16666666666666666)
	(0.25 0.25 0.25 0.25)
	(0.9294670846394985 0.06426332288401254 0.004702194357366771 0.001567398119122257)
	(0.7 0.26 0.02 0.02)
	(0.5 0.3 0.1 0.1)
	(0.6944444444444444 0.25 0.027777777777777776 0.027777777777777776)
	(0.6538461538461539 0.2692307692307692 0.038461538461538464 0.038461538461538464)
	(0.3 0.3 0.3 0.1)
	(0.375 0.375 0.125 0.125)
	(0.3 0.5 0.1 0.1)
	(0.25 0.25 0.25 0.25)
	(0.5 0.16666666666666666 0.16666666666666666 0.16666666666666666)
	(0.25 0.25 0.25 0.25)
	(0.25 0.25 0.25 0.25)
	(0.25 0.25 0.25 0.25)
	(0.25 0.25 0.25 0.25)
	(0.25 0.25 0.25 0.25)
	(0.25 0.25 0.25 0.25)
	(0.25 0.25 0.25 0.25)
	(0.25 0.25 0.25 0.25)
	(0.5 0.16666666666666666 0.16666666666666666 0.16666666666666666)
	(0.25 0.25 0.25 0.25)
	(0.25 0.25 0.25 0.25)
	(0.25 0.25 0.25 0.25)
	(0.25 0.25 0.25 0.25)
	(0.25 0.25 0.25 0.25)
	(0.25 0.25 0.25 0.25)
	(0.25 0.25 0.25 0.25)
	(0.25 0.25 0.25 0.25)
	(0.25 0.25 0.25 0.25)
	(0.375 0.375 0.125 0.125)
	(0.25 0.25 0.25 0.25)
	(0.25 0.25 0.25 0.25)
	(0.25 0.25 0.25 0.25)
	(0.25 0.25 0.25 0.25)
	(0.25 0.25 0.25 0.25)
	(0.25 0.25 0.25 0.25)
	(0.25 0.25 0.25 0.25)
	(0.25 0.25 0.25 0.25)
	(0.25 0.25 0.25 0.25)
	(0.25 0.25 0.25 0.25)
	(0.25 0.25 0.25 0.25)
	(0.25 0.25 0.25 0.25)
	(0.25 0.25 0.25 0.25)
	(0.25 0.25 0.25 0.25)
	(0.125 0.375 0.375 0.125)
	(0.25 0.25 0.25 0.25)
	(0.25 0.25 0.25 0.25)
	(0.25 0.25 0.25 0.25)
	(0.25 0.25 0.25 0.25)
	(0.25 0.25 0.25 0.25)
	(0.16666666666666666 0.5 0.16666666666666666 0.16666666666666666)
	(0.25 0.25 0.25 0.25)
	(0.25 0.25 0.25 0.25)
	(0.25 0.25 0.25 0.25)
	(0.25 0.25 0.25 0.25)
	(0.8076923076923077 0.11538461538461539 0.038461538461538464 0.038461538461538464)
	(0.25 0.25 0.25 0.25)
	(0.125 0.375 0.375 0.125)
	(0.5 0.3 0.1 0.1)
	(0.4375 0.4375 0.0625 0.0625)
	(0.25 0.25 0.25 0.25)
	(0.5 0.16666666666666666 0.16666666666666666 0.16666666666666666)
	(0.375 0.375 0.125 0.125)
	(0.25 0.25 0.25 0.25)
	(0.25 0.25 0.25 0.25)
	(0.25 0.25 0.25 0.25)
	(0.25 0.25 0.25 0.25)
	(0.25 0.25 0.25 0.25)
	(0.25 0.25 0.25 0.25)
	(0.25 0.25 0.25 0.25)
	(0.25 0.25 0.25 0.25)
	(0.25 0.25 0.25 0.25)
	(0.25 0.25 0.25 0.25)
	(0.5 0.16666666666666666 0.16666666666666666 0.16666666666666666)
	(0.25 0.25 0.25 0.25)
	(0.25 0.25 0.25 0.25)
	(0.25 0.25 0.25 0.25)
	(0.25 0.25 0.25 0.25)
	(0.25 0.25 0.25 0.25)
	(0.25 0.25 0.25 0.25)
	(0.25 0.25 0.25 0.25)
	(0.25 0.25 0.25 0.25)
	(0.25 0.25 0.25 0.25)
	(0.25 0.25 0.25 0.25)
	(0.25 0.25 0.25 0.25)
	(0.25 0.25 0.25 0.25)
	(0.25 0.25 0.25 0.25)
	(0.25 0.25 0.25 0.25)
	(0.25 0.25 0.25 0.25)
	(0.25 0.25 0.25 0.25)
	(0.25 0.25 0.25 0.25)
	(0.25 0.25 0.25 0.25)
	(0.25 0.25 0.25 0.25)
	(0.25 0.25 0.25 0.25)
	(0.25 0.25 0.25 0.25)
	(0.25 0.25 0.25 0.25)
	(0.25 0.25 0.25 0.25)
	(0.25 0.25 0.25 0.25)
	(0.25 0.25 0.25 0.25)
	(0.25 0.25 0.25 0.25)
	(0.25 0.25 0.25 0.25)
	(0.25 0.25 0.25 0.25)
	(0.25 0.25 0.25 0.25)
	(0.25 0.25 0.25 0.25)
	(0.25 0.25 0.25 0.25)
	(0.25 0.25 0.25 0.25)
	(0.25 0.25 0.25 0.25)
	(0.16666666666666666 0.16666666666666666 0.5 0.16666666666666666)
	(0.25 0.25 0.25 0.25)
	(0.25 0.25 0.25 0.25)
	(0.25 0.25 0.25 0.25)
	(0.25 0.25 0.25 0.25)
	(0.25 0.25 0.25 0.25)
	(0.25 0.25 0.25 0.25)
	(0.25 0.25 0.25 0.25)
	(0.25 0.25 0.25 0.25)
	(0.25 0.25 0.25 0.25)
	(0.25 0.25 0.25 0.25));
}

potential (SNCA | class TPM3)
{
	data = ((0.234375 0.765625)
	(0.10416666666666667 0.8958333333333334)
	(0.5 0.5)
	(0.5 0.5)
	(0.9868421052631579 0.013157894736842105)
	(0.9576659038901602 0.04233409610983982));
}

potential (ANXA1 | class USP44 CXCL3)
{
	data = ((0.5 0.5)
	(0.5 0.5)
	(0.16666666666666666 0.8333333333333334)
	(0.25 0.75)
	(0.16666666666666666 0.8333333333333334)
	(0.029411764705882353 0.9705882352941176)
	(0.25 0.75)
	(0.08333333333333333 0.9166666666666666)
	(0.017857142857142856 0.9821428571428571)
	(0.9604591836734694 0.039540816326530615)
	(0.5952380952380952 0.40476190476190477)
	(0.4166666666666667 0.5833333333333334)
	(0.9242424242424242 0.07575757575757576)
	(0.5 0.5)
	(0.875 0.125)
	(0.6875 0.3125)
	(0.8333333333333334 0.16666666666666666)
	(0.25 0.75));
}

potential (LEPR | class CA4 GJB2 TRIM59)
{
	data = ((0.3333333333333333 0.3333333333333333 0.3333333333333333)
	(0.3333333333333333 0.3333333333333333 0.3333333333333333)
	(0.3333333333333333 0.3333333333333333 0.3333333333333333)
	(0.3333333333333333 0.3333333333333333 0.3333333333333333)
	(0.3333333333333333 0.3333333333333333 0.3333333333333333)
	(0.3333333333333333 0.3333333333333333 0.3333333333333333)
	(0.05263157894736842 0.3684210526315789 0.5789473684210527)
	(0.06666666666666667 0.3333333333333333 0.6)
	(0.2 0.6 0.2)
	(0.3333333333333333 0.3333333333333333 0.3333333333333333)
	(0.3333333333333333 0.3333333333333333 0.3333333333333333)
	(0.3333333333333333 0.3333333333333333 0.3333333333333333)
	(0.015384615384615385 0.046153846153846156 0.9384615384615385)
	(0.07692307692307693 0.07692307692307693 0.8461538461538461)
	(0.2 0.2 0.6)
	(0.2 0.2 0.6)
	(0.3333333333333333 0.3333333333333333 0.3333333333333333)
	(0.2 0.2 0.6)
	(0.7142857142857143 0.14285714285714285 0.14285714285714285)
	(0.8947368421052632 0.05263157894736842 0.05263157894736842)
	(0.7674418604651163 0.16279069767441862 0.06976744186046512)
	(0.8518518518518519 0.037037037037037035 0.1111111111111111)
	(0.8048780487804879 0.12195121951219512 0.07317073170731707)
	(0.9051383399209486 0.08036890645586298 0.014492753623188406)
	(0.6 0.2 0.2)
	(0.6 0.2 0.2)
	(0.7142857142857143 0.14285714285714285 0.14285714285714285)
	(0.14285714285714285 0.14285714285714285 0.7142857142857143)
	(0.2 0.6 0.2)
	(0.5094339622641509 0.3584905660377358 0.1320754716981132)
	(0.3333333333333333 0.3333333333333333 0.3333333333333333)
	(0.6 0.2 0.2)
	(0.3333333333333333 0.3333333333333333 0.3333333333333333)
	(0.3333333333333333 0.3333333333333333 0.3333333333333333)
	(0.2 0.2 0.6)
	(0.3333333333333333 0.3333333333333333 0.3333333333333333));
}

potential (CORO2B | class TPM3 C10orf90 CKS2)
{
	data = ((0.16666666666666666 0.16666666666666666 0.16666666666666666 0.5)
	(0.25 0.25 0.25 0.25)
	(0.16666666666666666 0.16666666666666666 0.16666666666666666 0.5)
	(0.25 0.25 0.25 0.25)
	(0.023809523809523808 0.11904761904761904 0.21428571428571427 0.6428571428571429)
	(0.15 0.35 0.35 0.15)
	(0.375 0.125 0.125 0.375)
	(0.25 0.25 0.25 0.25)
	(0.25 0.25 0.25 0.25)
	(0.25 0.25 0.25 0.25)
	(0.25 0.25 0.25 0.25)
	(0.25 0.25 0.25 0.25)
	(0.03333333333333333 0.1 0.36666666666666664 0.5)
	(0.05555555555555555 0.16666666666666666 0.5 0.2777777777777778)
	(0.125 0.125 0.625 0.125)
	(0.5 0.16666666666666666 0.16666666666666666 0.16666666666666666)
	(0.25 0.25 0.25 0.25)
	(0.25 0.25 0.25 0.25)
	(0.25 0.25 0.25 0.25)
	(0.25 0.25 0.25 0.25)
	(0.25 0.25 0.25 0.25)
	(0.25 0.25 0.25 0.25)
	(0.25 0.25 0.25 0.25)
	(0.25 0.25 0.25 0.25)
	(0.25 0.25 0.25 0.25)
	(0.25 0.25 0.25 0.25)
	(0.25 0.25 0.25 0.25)
	(0.25 0.25 0.25 0.25)
	(0.25 0.25 0.25 0.25)
	(0.25 0.25 0.25 0.25)
	(0.25 0.25 0.25 0.25)
	(0.25 0.25 0.25 0.25)
	(0.25 0.25 0.25 0.25)
	(0.3 0.1 0.5 0.1)
	(0.375 0.125 0.375 0.125)
	(0.8392857142857143 0.125 0.017857142857142856 0.017857142857142856)
	(0.25 0.25 0.25 0.25)
	(0.25 0.25 0.25 0.25)
	(0.5 0.16666666666666666 0.16666666666666666 0.16666666666666666)
	(0.7857142857142857 0.07142857142857142 0.07142857142857142 0.07142857142857142)
	(0.25 0.25 0.25 0.25)
	(0.5909090909090909 0.13636363636363635 0.22727272727272727 0.045454545454545456)
	(0.7558139534883721 0.1744186046511628 0.03488372093023256 0.03488372093023256)
	(0.9424157303370787 0.04353932584269663 0.012640449438202247 0.0014044943820224719)
	(0.25 0.25 0.25 0.25)
	(0.25 0.25 0.25 0.25)
	(0.375 0.125 0.375 0.125)
	(0.828125 0.078125 0.078125 0.015625));
}

potential (DPP6 | class MMP11 CAV1 HS3ST4)
{
	data = ((0.25 0.25 0.25 0.25)
	(0.25 0.25 0.25 0.25)
	(0.25 0.25 0.25 0.25)
	(0.25 0.25 0.25 0.25)
	(0.1388888888888889 0.08333333333333333 0.75 0.027777777777777776)
	(0.25 0.25 0.25 0.25)
	(0.041666666666666664 0.125 0.7916666666666666 0.041666666666666664)
	(0.019230769230769232 0.28846153846153844 0.6346153846153846 0.057692307692307696)
	(0.25 0.25 0.25 0.25)
	(0.25 0.25 0.25 0.25)
	(0.25 0.25 0.25 0.25)
	(0.25 0.25 0.25 0.25)
	(0.25 0.25 0.25 0.25)
	(0.1 0.1 0.7 0.1)
	(0.25 0.25 0.25 0.25)
	(0.16666666666666666 0.16666666666666666 0.5 0.16666666666666666)
	(0.25 0.25 0.25 0.25)
	(0.25 0.25 0.25 0.25)
	(0.25 0.25 0.25 0.25)
	(0.25 0.25 0.25 0.25)
	(0.25 0.25 0.25 0.25)
	(0.25 0.25 0.25 0.25)
	(0.25 0.25 0.25 0.25)
	(0.25 0.25 0.25 0.25)
	(0.25 0.25 0.25 0.25)
	(0.25 0.25 0.25 0.25)
	(0.25 0.25 0.25 0.25)
	(0.5 0.16666666666666666 0.16666666666666666 0.16666666666666666)
	(0.25 0.25 0.25 0.25)
	(0.25 0.25 0.25 0.25)
	(0.25 0.25 0.25 0.25)
	(0.25 0.25 0.25 0.25)
	(0.25 0.25 0.25 0.25)
	(0.25 0.25 0.25 0.25)
	(0.25 0.25 0.25 0.25)
	(0.25 0.25 0.25 0.25)
	(0.9078947368421053 0.013157894736842105 0.06578947368421052 0.013157894736842105)
	(0.125 0.625 0.125 0.125)
	(0.5 0.16666666666666666 0.16666666666666666 0.16666666666666666)
	(0.375 0.125 0.375 0.125)
	(0.25 0.25 0.25 0.25)
	(0.25 0.25 0.25 0.25)
	(0.25 0.25 0.25 0.25)
	(0.25 0.25 0.25 0.25)
	(0.25 0.25 0.25 0.25)
	(0.9156171284634761 0.05919395465994962 0.008816120906801008 0.0163727959697733)
	(0.7916666666666666 0.041666666666666664 0.125 0.041666666666666664)
	(0.75 0.08333333333333333 0.08333333333333333 0.08333333333333333)
	(0.8478260869565217 0.10869565217391304 0.021739130434782608 0.021739130434782608)
	(0.16666666666666666 0.16666666666666666 0.5 0.16666666666666666)
	(0.25 0.25 0.25 0.25)
	(0.25 0.25 0.25 0.25)
	(0.25 0.25 0.25 0.25)
	(0.25 0.25 0.25 0.25));
}

potential (IGSF10 | class)
{
	data = ((0.009009009009009009 0.0990990990990991 0.8918918918918919)
	(0.8314014752370916 0.1464699683877766 0.022128556375131718));
}

potential (TRIM59 | class CA4 GJB2)
{
	data = ((0.3333333333333333 0.3333333333333333 0.3333333333333333)
	(0.3333333333333333 0.3333333333333333 0.3333333333333333)
	(0.5151515151515151 0.3939393939393939 0.09090909090909091)
	(0.3333333333333333 0.3333333333333333 0.3333333333333333)
	(0.8181818181818182 0.14285714285714285 0.03896103896103896)
	(0.42857142857142855 0.14285714285714285 0.42857142857142855)
	(0.07936507936507936 0.2698412698412698 0.6507936507936508)
	(0.030450669914738125 0.047503045066991476 0.9220462850182704)
	(0.2727272727272727 0.2727272727272727 0.45454545454545453)
	(0.0847457627118644 0.05084745762711865 0.864406779661017)
	(0.2 0.6 0.2)
	(0.2 0.6 0.2));
}

potential (CACHD1 | class TPM3 SNCA C10orf90 COL10A1)
{
	data = ((0.25 0.75)
	(0.5 0.5)
	(0.5 0.5)
	(0.25 0.75)
	(0.75 0.25)
	(0.5 0.5)
	(0.75 0.25)
	(0.5 0.5)
	(0.5 0.5)
	(0.0625 0.9375)
	(0.5 0.5)
	(0.5 0.5)
	(0.5 0.5)
	(0.5 0.5)
	(0.5 0.5)
	(0.75 0.25)
	(0.25 0.75)
	(0.5 0.5)
	(0.5 0.5)
	(0.5 0.5)
	(0.5 0.5)
	(0.025 0.975)
	(0.16666666666666666 0.8333333333333334)
	(0.5 0.5)
	(0.5 0.5)
	(0.5 0.5)
	(0.5 0.5)
	(0.5 0.5)
	(0.5 0.5)
	(0.5 0.5)
	(0.5 0.5)
	(0.5 0.5)
	(0.5 0.5)
	(0.5 0.5)
	(0.5 0.5)
	(0.5 0.5)
	(0.5 0.5)
	(0.5 0.5)
	(0.5 0.5)
	(0.5 0.5)
	(0.5 0.5)
	(0.5 0.5)
	(0.5 0.5)
	(0.5 0.5)
	(0.5 0.5)
	(0.5 0.5)
	(0.5 0.5)
	(0.5 0.5)
	(0.75 0.25)
	(0.75 0.25)
	(0.9833333333333333 0.016666666666666666)
	(0.25 0.75)
	(0.5 0.5)
	(0.75 0.25)
	(0.5 0.5)
	(0.5 0.5)
	(0.5 0.5)
	(0.5 0.5)
	(0.5 0.5)
	(0.5 0.5)
	(0.8333333333333334 0.16666666666666666)
	(0.9242424242424242 0.07575757575757576)
	(0.9815864022662889 0.018413597733711047)
	(0.5 0.5)
	(0.9 0.1)
	(0.8793103448275862 0.1206896551724138)
	(0.5 0.5)
	(0.25 0.75)
	(0.8055555555555556 0.19444444444444445)
	(0.5 0.5)
	(0.5 0.5)
	(0.5 0.5));
}

potential (TPPP2 | class TPM3 SNCA C10orf90)
{
	data = ((0.75 0.25)
	(0.21428571428571427 0.7857142857142857)
	(0.25 0.75)
	(0.14583333333333334 0.8541666666666666)
	(0.5 0.5)
	(0.5 0.5)
	(0.5 0.5)
	(0.1590909090909091 0.8409090909090909)
	(0.5 0.5)
	(0.5 0.5)
	(0.5 0.5)
	(0.5 0.5)
	(0.5 0.5)
	(0.5 0.5)
	(0.5 0.5)
	(0.5 0.5)
	(0.953125 0.046875)
	(0.07142857142857142 0.9285714285714286)
	(0.5 0.5)
	(0.5 0.5)
	(0.9444444444444444 0.05555555555555555)
	(0.3787878787878788 0.6212121212121212)
	(0.7631578947368421 0.23684210526315788)
	(0.5 0.5));
}

potential (UBAP2L | class CACHD1 CKS2 CORO2B)
{
	data = ((0.3333333333333333 0.3333333333333333 0.3333333333333333)
	(0.6 0.2 0.2)
	(0.3333333333333333 0.3333333333333333 0.3333333333333333)
	(0.6 0.2 0.2)
	(0.3333333333333333 0.3333333333333333 0.3333333333333333)
	(0.3333333333333333 0.3333333333333333 0.3333333333333333)
	(0.3333333333333333 0.3333333333333333 0.3333333333333333)
	(0.3333333333333333 0.3333333333333333 0.3333333333333333)
	(0.2 0.6 0.2)
	(0.3333333333333333 0.3333333333333333 0.3333333333333333)
	(0.3333333333333333 0.3333333333333333 0.3333333333333333)
	(0.42857142857142855 0.14285714285714285 0.42857142857142855)
	(0.3333333333333333 0.3333333333333333 0.3333333333333333)
	(0.3333333333333333 0.3333333333333333 0.3333333333333333)
	(0.3333333333333333 0.3333333333333333 0.3333333333333333)
	(0.3333333333333333 0.3333333333333333 0.3333333333333333)
	(0.3333333333333333 0.3333333333333333 0.3333333333333333)
	(0.7142857142857143 0.14285714285714285 0.14285714285714285)
	(0.8095238095238095 0.047619047619047616 0.14285714285714285)
	(0.9069767441860465 0.06976744186046512 0.023255813953488372)
	(0.6 0.2 0.2)
	(0.45454545454545453 0.45454545454545453 0.09090909090909091)
	(0.6470588235294118 0.29411764705882354 0.058823529411764705)
	(0.5555555555555556 0.3333333333333333 0.1111111111111111)
	(0.3333333333333333 0.3333333333333333 0.3333333333333333)
	(0.3333333333333333 0.3333333333333333 0.3333333333333333)
	(0.42857142857142855 0.42857142857142855 0.14285714285714285)
	(0.3333333333333333 0.3333333333333333 0.3333333333333333)
	(0.6 0.2 0.2)
	(0.3333333333333333 0.3333333333333333 0.3333333333333333)
	(0.3333333333333333 0.3333333333333333 0.3333333333333333)
	(0.3333333333333333 0.3333333333333333 0.3333333333333333)
	(0.3333333333333333 0.3333333333333333 0.3333333333333333)
	(0.3333333333333333 0.3333333333333333 0.3333333333333333)
	(0.3333333333333333 0.3333333333333333 0.3333333333333333)
	(0.3333333333333333 0.3333333333333333 0.3333333333333333)
	(0.06666666666666667 0.2 0.7333333333333333)
	(0.2 0.2 0.6)
	(0.45454545454545453 0.09090909090909091 0.45454545454545453)
	(0.3333333333333333 0.3333333333333333 0.3333333333333333)
	(0.10144927536231885 0.15942028985507245 0.7391304347826086)
	(0.058823529411764705 0.17647058823529413 0.7647058823529411)
	(0.1111111111111111 0.1111111111111111 0.7777777777777778)
	(0.2 0.2 0.6)
	(0.022457067371202115 0.03302509907529723 0.9445178335535006)
	(0.12195121951219512 0.024390243902439025 0.8536585365853658)
	(0.07692307692307693 0.23076923076923078 0.6923076923076923)
	(0.3333333333333333 0.3333333333333333 0.3333333333333333)
	(0.3333333333333333 0.3333333333333333 0.3333333333333333)
	(0.3333333333333333 0.3333333333333333 0.3333333333333333)
	(0.3333333333333333 0.3333333333333333 0.3333333333333333)
	(0.3333333333333333 0.3333333333333333 0.3333333333333333)
	(0.2 0.6 0.2)
	(0.3333333333333333 0.3333333333333333 0.3333333333333333)
	(0.3333333333333333 0.3333333333333333 0.3333333333333333)
	(0.3333333333333333 0.3333333333333333 0.3333333333333333)
	(0.14285714285714285 0.14285714285714285 0.7142857142857143)
	(0.3333333333333333 0.3333333333333333 0.3333333333333333)
	(0.3333333333333333 0.3333333333333333 0.3333333333333333)
	(0.3333333333333333 0.3333333333333333 0.3333333333333333)
	(0.037037037037037035 0.1111111111111111 0.8518518518518519)
	(0.2 0.2 0.6)
	(0.2 0.2 0.6)
	(0.3333333333333333 0.3333333333333333 0.3333333333333333));
}

potential (PGM5 | class LEPR)
{
	data = ((0.3333333333333333 0.3333333333333333 0.3333333333333333)
	(0.058823529411764705 0.4117647058823529 0.5294117647058824)
	(0.05154639175257732 0.13402061855670103 0.8144329896907216)
	(0.9157641395908543 0.06859205776173286 0.015643802647412757)
	(0.5053763440860215 0.41935483870967744 0.07526881720430108)
	(0.22580645161290322 0.7419354838709677 0.03225806451612903));
}

potential (class | )
{
	data = ((0.10321969696969698 0.896780303030303));
}


