net 
{
	node_size = (76 36);
}

node cg03602500
{
	label = "cg03602500";
	position = (74 278);
	states = ("(-inf-0.666878]" "(0.666878-0.744411]" "(0.744411-inf)");
}

node cg24625388
{
	label = "cg24625388";
	position = (74 278);
	states = ("(-inf-0.378846]" "(0.378846-0.486924]" "(0.486924-0.569803]" "(0.569803-0.815336]" "(0.815336-inf)");
}

node cg07084163
{
	label = "cg07084163";
	position = (74 278);
	states = ("(-inf-0.149333]" "(0.149333-0.251814]" "(0.251814-inf)");
}

node cg02723533
{
	label = "cg02723533";
	position = (74 278);
	states = ("(-inf-0.695914]" "(0.695914-0.774216]" "(0.774216-0.96226]" "(0.96226-inf)");
}

node cg08047907
{
	label = "cg08047907";
	position = (74 278);
	states = ("(-inf-0.043265]" "(0.043265-0.184793]" "(0.184793-0.253465]" "(0.253465-0.38213]" "(0.38213-inf)");
}

node cg00619207
{
	label = "cg00619207";
	position = (74 278);
	states = ("(-inf-0.46934]" "(0.46934-0.535415]" "(0.535415-0.792044]" "(0.792044-inf)");
}

node cg04057858
{
	label = "cg04057858";
	position = (74 278);
	states = ("(-inf-0.55858]" "(0.55858-inf)");
}

node cg10266490
{
	label = "cg10266490";
	position = (74 278);
	states = ("(-inf-0.098507]" "(0.098507-0.303734]" "(0.303734-0.372807]" "(0.372807-0.498189]" "(0.498189-inf)");
}

node cg13434842
{
	label = "cg13434842";
	position = (74 278);
	states = ("(-inf-0.226035]" "(0.226035-0.422259]" "(0.422259-inf)");
}

node cg25902889
{
	label = "cg25902889";
	position = (74 278);
	states = ("(-inf-0.165623]" "(0.165623-0.482177]" "(0.482177-0.634861]" "(0.634861-0.702136]" "(0.702136-inf)");
}

node cg27015047
{
	label = "cg27015047";
	position = (74 278);
	states = ("(-inf-0.733245]" "(0.733245-0.795174]" "(0.795174-inf)");
}

node cg14652095
{
	label = "cg14652095";
	position = (74 278);
	states = ("(-inf-0.145216]" "(0.145216-0.485082]" "(0.485082-0.602928]" "(0.602928-inf)");
}

node cg25691167
{
	label = "cg25691167";
	position = (74 278);
	states = ("(-inf-0.116721]" "(0.116721-0.232593]" "(0.232593-inf)");
}

node cg11802013
{
	label = "cg11802013";
	position = (74 278);
	states = ("(-inf-0.63118]" "(0.63118-0.711874]" "(0.711874-inf)");
}

node cg08109815
{
	label = "cg08109815";
	position = (74 278);
	states = ("(-inf-0.096421]" "(0.096421-0.227166]" "(0.227166-0.281158]" "(0.281158-inf)");
}

node cg19264571
{
	label = "cg19264571";
	position = (74 278);
	states = ("(-inf-0.602847]" "(0.602847-inf)");
}

node cg23290344
{
	label = "cg23290344";
	position = (74 278);
	states = ("(-inf-0.117515]" "(0.117515-0.241662]" "(0.241662-0.402012]" "(0.402012-inf)");
}

node cg04456238
{
	label = "cg04456238";
	position = (74 278);
	states = ("(-inf-0.420609]" "(0.420609-0.491829]" "(0.491829-inf)");
}

node cg14023451
{
	label = "cg14023451";
	position = (74 278);
	states = ("(-inf-0.591477]" "(0.591477-0.700405]" "(0.700405-0.85902]" "(0.85902-inf)");
}

node cg20279283
{
	label = "cg20279283";
	position = (74 278);
	states = ("(-inf-0.263559]" "(0.263559-0.309267]" "(0.309267-inf)");
}

node class
{
	label = "class";
	position = (74 278);
	states = ("normal" "tumor");
}

potential (cg03602500 | class)
{
	data = ((0.013333333333333334 0.21777777777777776 0.7688888888888888)
	(0.939614783966684 0.034877667881311816 0.025507548152004164));
}

potential (cg24625388 | class)
{
	data = ((0.004405286343612335 0.11013215859030837 0.2422907488986784 0.6299559471365639 0.013215859030837005)
	(0.8460738429537181 0.11908476339053563 0.024440977639105563 0.005720228809152366 0.0046801872074883));
}

potential (cg07084163 | class cg03602500 cg08109815 cg27015047 cg14652095)
{
	data = ((0.3333333333333333 0.3333333333333333 0.3333333333333333)
	(0.3333333333333333 0.3333333333333333 0.3333333333333333)
	(0.3333333333333333 0.3333333333333333 0.3333333333333333)
	(0.3333333333333333 0.3333333333333333 0.3333333333333333)
	(0.3333333333333333 0.3333333333333333 0.3333333333333333)
	(0.3333333333333333 0.3333333333333333 0.3333333333333333)
	(0.3333333333333333 0.3333333333333333 0.3333333333333333)
	(0.3333333333333333 0.3333333333333333 0.3333333333333333)
	(0.3333333333333333 0.3333333333333333 0.3333333333333333)
	(0.3333333333333333 0.3333333333333333 0.3333333333333333)
	(0.3333333333333333 0.3333333333333333 0.3333333333333333)
	(0.3333333333333333 0.3333333333333333 0.3333333333333333)
	(0.3333333333333333 0.3333333333333333 0.3333333333333333)
	(0.3333333333333333 0.3333333333333333 0.3333333333333333)
	(0.3333333333333333 0.3333333333333333 0.3333333333333333)
	(0.3333333333333333 0.3333333333333333 0.3333333333333333)
	(0.3333333333333333 0.3333333333333333 0.3333333333333333)
	(0.3333333333333333 0.3333333333333333 0.3333333333333333)
	(0.3333333333333333 0.3333333333333333 0.3333333333333333)
	(0.3333333333333333 0.3333333333333333 0.3333333333333333)
	(0.3333333333333333 0.3333333333333333 0.3333333333333333)
	(0.6 0.2 0.2)
	(0.3333333333333333 0.3333333333333333 0.3333333333333333)
	(0.3333333333333333 0.3333333333333333 0.3333333333333333)
	(0.3333333333333333 0.3333333333333333 0.3333333333333333)
	(0.3333333333333333 0.3333333333333333 0.3333333333333333)
	(0.3333333333333333 0.3333333333333333 0.3333333333333333)
	(0.3333333333333333 0.3333333333333333 0.3333333333333333)
	(0.3333333333333333 0.3333333333333333 0.3333333333333333)
	(0.3333333333333333 0.3333333333333333 0.3333333333333333)
	(0.3333333333333333 0.3333333333333333 0.3333333333333333)
	(0.3333333333333333 0.3333333333333333 0.3333333333333333)
	(0.3333333333333333 0.3333333333333333 0.3333333333333333)
	(0.3333333333333333 0.3333333333333333 0.3333333333333333)
	(0.3333333333333333 0.3333333333333333 0.3333333333333333)
	(0.3333333333333333 0.3333333333333333 0.3333333333333333)
	(0.3333333333333333 0.3333333333333333 0.3333333333333333)
	(0.3333333333333333 0.3333333333333333 0.3333333333333333)
	(0.3333333333333333 0.3333333333333333 0.3333333333333333)
	(0.3333333333333333 0.3333333333333333 0.3333333333333333)
	(0.3333333333333333 0.3333333333333333 0.3333333333333333)
	(0.3333333333333333 0.3333333333333333 0.3333333333333333)
	(0.3333333333333333 0.3333333333333333 0.3333333333333333)
	(0.3333333333333333 0.3333333333333333 0.3333333333333333)
	(0.3333333333333333 0.3333333333333333 0.3333333333333333)
	(0.3333333333333333 0.3333333333333333 0.3333333333333333)
	(0.3333333333333333 0.3333333333333333 0.3333333333333333)
	(0.3333333333333333 0.3333333333333333 0.3333333333333333)
	(0.3333333333333333 0.3333333333333333 0.3333333333333333)
	(0.3333333333333333 0.3333333333333333 0.3333333333333333)
	(0.3333333333333333 0.3333333333333333 0.3333333333333333)
	(0.3333333333333333 0.3333333333333333 0.3333333333333333)
	(0.3333333333333333 0.3333333333333333 0.3333333333333333)
	(0.3333333333333333 0.3333333333333333 0.3333333333333333)
	(0.3333333333333333 0.3333333333333333 0.3333333333333333)
	(0.3333333333333333 0.3333333333333333 0.3333333333333333)
	(0.3333333333333333 0.3333333333333333 0.3333333333333333)
	(0.3333333333333333 0.3333333333333333 0.3333333333333333)
	(0.3333333333333333 0.3333333333333333 0.3333333333333333)
	(0.3333333333333333 0.3333333333333333 0.3333333333333333)
	(0.3333333333333333 0.3333333333333333 0.3333333333333333)
	(0.3333333333333333 0.3333333333333333 0.3333333333333333)
	(0.3333333333333333 0.3333333333333333 0.3333333333333333)
	(0.3333333333333333 0.3333333333333333 0.3333333333333333)
	(0.3333333333333333 0.3333333333333333 0.3333333333333333)
	(0.2 0.6 0.2)
	(0.3333333333333333 0.3333333333333333 0.3333333333333333)
	(0.3333333333333333 0.3333333333333333 0.3333333333333333)
	(0.3333333333333333 0.3333333333333333 0.3333333333333333)
	(0.7948717948717948 0.1794871794871795 0.02564102564102564)
	(0.3333333333333333 0.3333333333333333 0.3333333333333333)
	(0.3333333333333333 0.3333333333333333 0.3333333333333333)
	(0.3333333333333333 0.3333333333333333 0.3333333333333333)
	(0.3333333333333333 0.3333333333333333 0.3333333333333333)
	(0.3333333333333333 0.3333333333333333 0.3333333333333333)
	(0.3333333333333333 0.3333333333333333 0.3333333333333333)
	(0.3333333333333333 0.3333333333333333 0.3333333333333333)
	(0.3333333333333333 0.3333333333333333 0.3333333333333333)
	(0.2 0.6 0.2)
	(0.3333333333333333 0.3333333333333333 0.3333333333333333)
	(0.3333333333333333 0.3333333333333333 0.3333333333333333)
	(0.3333333333333333 0.3333333333333333 0.3333333333333333)
	(0.1111111111111111 0.7777777777777778 0.1111111111111111)
	(0.3333333333333333 0.3333333333333333 0.3333333333333333)
	(0.3333333333333333 0.3333333333333333 0.3333333333333333)
	(0.3333333333333333 0.3333333333333333 0.3333333333333333)
	(0.3333333333333333 0.3333333333333333 0.3333333333333333)
	(0.3333333333333333 0.3333333333333333 0.3333333333333333)
	(0.3333333333333333 0.3333333333333333 0.3333333333333333)
	(0.3333333333333333 0.3333333333333333 0.3333333333333333)
	(0.3333333333333333 0.3333333333333333 0.3333333333333333)
	(0.3333333333333333 0.3333333333333333 0.3333333333333333)
	(0.3333333333333333 0.3333333333333333 0.3333333333333333)
	(0.3333333333333333 0.3333333333333333 0.3333333333333333)
	(0.6 0.2 0.2)
	(0.3333333333333333 0.3333333333333333 0.3333333333333333)
	(0.3333333333333333 0.3333333333333333 0.3333333333333333)
	(0.3333333333333333 0.3333333333333333 0.3333333333333333)
	(0.3333333333333333 0.3333333333333333 0.3333333333333333)
	(0.3333333333333333 0.3333333333333333 0.3333333333333333)
	(0.3333333333333333 0.3333333333333333 0.3333333333333333)
	(0.3333333333333333 0.3333333333333333 0.3333333333333333)
	(0.3333333333333333 0.3333333333333333 0.3333333333333333)
	(0.3333333333333333 0.3333333333333333 0.3333333333333333)
	(0.3333333333333333 0.3333333333333333 0.3333333333333333)
	(0.3333333333333333 0.3333333333333333 0.3333333333333333)
	(0.3333333333333333 0.3333333333333333 0.3333333333333333)
	(0.3333333333333333 0.3333333333333333 0.3333333333333333)
	(0.3333333333333333 0.3333333333333333 0.3333333333333333)
	(0.3333333333333333 0.3333333333333333 0.3333333333333333)
	(0.3333333333333333 0.3333333333333333 0.3333333333333333)
	(0.3333333333333333 0.3333333333333333 0.3333333333333333)
	(0.3333333333333333 0.3333333333333333 0.3333333333333333)
	(0.7142857142857143 0.14285714285714285 0.14285714285714285)
	(0.3333333333333333 0.3333333333333333 0.3333333333333333)
	(0.3333333333333333 0.3333333333333333 0.3333333333333333)
	(0.3333333333333333 0.3333333333333333 0.3333333333333333)
	(0.9148936170212766 0.07801418439716312 0.0070921985815602835)
	(0.6 0.2 0.2)
	(0.3333333333333333 0.3333333333333333 0.3333333333333333)
	(0.3333333333333333 0.3333333333333333 0.3333333333333333)
	(0.3333333333333333 0.3333333333333333 0.3333333333333333)
	(0.3333333333333333 0.3333333333333333 0.3333333333333333)
	(0.3333333333333333 0.3333333333333333 0.3333333333333333)
	(0.3333333333333333 0.3333333333333333 0.3333333333333333)
	(0.3333333333333333 0.3333333333333333 0.3333333333333333)
	(0.3333333333333333 0.3333333333333333 0.3333333333333333)
	(0.3333333333333333 0.3333333333333333 0.3333333333333333)
	(0.3333333333333333 0.3333333333333333 0.3333333333333333)
	(0.38461538461538464 0.5384615384615384 0.07692307692307693)
	(0.2 0.6 0.2)
	(0.3333333333333333 0.3333333333333333 0.3333333333333333)
	(0.3333333333333333 0.3333333333333333 0.3333333333333333)
	(0.3333333333333333 0.3333333333333333 0.3333333333333333)
	(0.3333333333333333 0.3333333333333333 0.3333333333333333)
	(0.3333333333333333 0.3333333333333333 0.3333333333333333)
	(0.3333333333333333 0.3333333333333333 0.3333333333333333)
	(0.3333333333333333 0.3333333333333333 0.3333333333333333)
	(0.3333333333333333 0.3333333333333333 0.3333333333333333)
	(0.3333333333333333 0.3333333333333333 0.3333333333333333)
	(0.3333333333333333 0.3333333333333333 0.3333333333333333)
	(0.1111111111111111 0.7777777777777778 0.1111111111111111)
	(0.07692307692307693 0.8461538461538461 0.07692307692307693)
	(0.3333333333333333 0.3333333333333333 0.3333333333333333)
	(0.6 0.2 0.2)
	(0.3333333333333333 0.3333333333333333 0.3333333333333333)
	(0.2 0.2 0.6)
	(0.23076923076923078 0.07692307692307693 0.6923076923076923)
	(0.2 0.2 0.6)
	(0.3333333333333333 0.3333333333333333 0.3333333333333333)
	(0.3333333333333333 0.3333333333333333 0.3333333333333333)
	(0.3333333333333333 0.3333333333333333 0.3333333333333333)
	(0.3333333333333333 0.3333333333333333 0.3333333333333333)
	(0.2 0.2 0.6)
	(0.3333333333333333 0.3333333333333333 0.3333333333333333)
	(0.6 0.2 0.2)
	(0.45454545454545453 0.09090909090909091 0.45454545454545453)
	(0.5555555555555556 0.1111111111111111 0.3333333333333333)
	(0.14285714285714285 0.14285714285714285 0.7142857142857143)
	(0.046153846153846156 0.16923076923076924 0.7846153846153846)
	(0.3333333333333333 0.3333333333333333 0.3333333333333333)
	(0.14285714285714285 0.42857142857142855 0.42857142857142855)
	(0.6 0.2 0.2)
	(0.2 0.2 0.6)
	(0.3333333333333333 0.3333333333333333 0.3333333333333333)
	(0.6 0.2 0.2)
	(0.2 0.6 0.2)
	(0.2 0.2 0.6)
	(0.3333333333333333 0.3333333333333333 0.3333333333333333)
	(0.09090909090909091 0.09090909090909091 0.8181818181818182)
	(0.6 0.2 0.2)
	(0.030303030303030304 0.030303030303030304 0.9393939393939394)
	(0.2 0.2 0.6)
	(0.3333333333333333 0.3333333333333333 0.3333333333333333)
	(0.14285714285714285 0.14285714285714285 0.7142857142857143)
	(0.2 0.6 0.2)
	(0.2 0.2 0.6)
	(0.3333333333333333 0.3333333333333333 0.3333333333333333)
	(0.3333333333333333 0.5555555555555556 0.1111111111111111)
	(0.2 0.2 0.6)
	(0.2765957446808511 0.14893617021276595 0.574468085106383)
	(0.1111111111111111 0.25925925925925924 0.6296296296296297)
	(0.1282051282051282 0.23076923076923078 0.6410256410256411)
	(0.009098428453267164 0.04052936311000827 0.9503722084367245)
	(0.3333333333333333 0.3333333333333333 0.3333333333333333)
	(0.14285714285714285 0.23809523809523808 0.6190476190476191)
	(0.09090909090909091 0.15151515151515152 0.7575757575757576)
	(0.05084745762711865 0.01694915254237288 0.9322033898305084)
	(0.058823529411764705 0.058823529411764705 0.8823529411764706)
	(0.06666666666666667 0.30666666666666664 0.6266666666666667)
	(0.03225806451612903 0.16129032258064516 0.8064516129032258)
	(0.02127659574468085 0.06382978723404255 0.9148936170212766)
	(0.3333333333333333 0.3333333333333333 0.3333333333333333)
	(0.3333333333333333 0.3333333333333333 0.3333333333333333)
	(0.3333333333333333 0.3333333333333333 0.3333333333333333)
	(0.3333333333333333 0.3333333333333333 0.3333333333333333)
	(0.3333333333333333 0.3333333333333333 0.3333333333333333)
	(0.3333333333333333 0.3333333333333333 0.3333333333333333)
	(0.3333333333333333 0.3333333333333333 0.3333333333333333)
	(0.3333333333333333 0.3333333333333333 0.3333333333333333)
	(0.2 0.6 0.2)
	(0.3333333333333333 0.3333333333333333 0.3333333333333333)
	(0.3333333333333333 0.3333333333333333 0.3333333333333333)
	(0.3333333333333333 0.3333333333333333 0.3333333333333333)
	(0.3333333333333333 0.3333333333333333 0.3333333333333333)
	(0.2 0.6 0.2)
	(0.3333333333333333 0.3333333333333333 0.3333333333333333)
	(0.3333333333333333 0.3333333333333333 0.3333333333333333)
	(0.3333333333333333 0.3333333333333333 0.3333333333333333)
	(0.3333333333333333 0.3333333333333333 0.3333333333333333)
	(0.3333333333333333 0.3333333333333333 0.3333333333333333)
	(0.3333333333333333 0.3333333333333333 0.3333333333333333)
	(0.3333333333333333 0.3333333333333333 0.3333333333333333)
	(0.3333333333333333 0.3333333333333333 0.3333333333333333)
	(0.3333333333333333 0.3333333333333333 0.3333333333333333)
	(0.3333333333333333 0.3333333333333333 0.3333333333333333)
	(0.3333333333333333 0.3333333333333333 0.3333333333333333)
	(0.3333333333333333 0.3333333333333333 0.3333333333333333)
	(0.2 0.6 0.2)
	(0.3333333333333333 0.3333333333333333 0.3333333333333333)
	(0.3333333333333333 0.3333333333333333 0.3333333333333333)
	(0.3333333333333333 0.3333333333333333 0.3333333333333333)
	(0.3333333333333333 0.3333333333333333 0.3333333333333333)
	(0.3333333333333333 0.3333333333333333 0.3333333333333333)
	(0.3333333333333333 0.3333333333333333 0.3333333333333333)
	(0.3333333333333333 0.3333333333333333 0.3333333333333333)
	(0.3333333333333333 0.3333333333333333 0.3333333333333333)
	(0.3333333333333333 0.3333333333333333 0.3333333333333333)
	(0.3333333333333333 0.3333333333333333 0.3333333333333333)
	(0.2 0.2 0.6)
	(0.2 0.2 0.6)
	(0.034482758620689655 0.10344827586206896 0.8620689655172413)
	(0.3333333333333333 0.3333333333333333 0.3333333333333333)
	(0.14285714285714285 0.42857142857142855 0.42857142857142855)
	(0.3333333333333333 0.3333333333333333 0.3333333333333333)
	(0.14285714285714285 0.14285714285714285 0.7142857142857143)
	(0.3333333333333333 0.3333333333333333 0.3333333333333333)
	(0.2727272727272727 0.45454545454545453 0.2727272727272727)
	(0.07692307692307693 0.38461538461538464 0.5384615384615384)
	(0.14285714285714285 0.14285714285714285 0.7142857142857143)
	(0.3333333333333333 0.3333333333333333 0.3333333333333333)
	(0.3333333333333333 0.3333333333333333 0.3333333333333333)
	(0.3333333333333333 0.3333333333333333 0.3333333333333333)
	(0.3333333333333333 0.3333333333333333 0.3333333333333333)
	(0.3333333333333333 0.3333333333333333 0.3333333333333333)
	(0.3333333333333333 0.3333333333333333 0.3333333333333333)
	(0.3333333333333333 0.3333333333333333 0.3333333333333333)
	(0.3333333333333333 0.3333333333333333 0.3333333333333333)
	(0.3333333333333333 0.3333333333333333 0.3333333333333333)
	(0.3333333333333333 0.3333333333333333 0.3333333333333333)
	(0.3333333333333333 0.3333333333333333 0.3333333333333333)
	(0.3333333333333333 0.3333333333333333 0.3333333333333333)
	(0.3333333333333333 0.3333333333333333 0.3333333333333333)
	(0.3333333333333333 0.3333333333333333 0.3333333333333333)
	(0.3333333333333333 0.3333333333333333 0.3333333333333333)
	(0.3333333333333333 0.3333333333333333 0.3333333333333333)
	(0.6 0.2 0.2)
	(0.6 0.2 0.2)
	(0.3333333333333333 0.3333333333333333 0.3333333333333333)
	(0.3333333333333333 0.3333333333333333 0.3333333333333333)
	(0.3333333333333333 0.3333333333333333 0.3333333333333333)
	(0.2 0.6 0.2)
	(0.3333333333333333 0.3333333333333333 0.3333333333333333)
	(0.3333333333333333 0.3333333333333333 0.3333333333333333)
	(0.3333333333333333 0.3333333333333333 0.3333333333333333)
	(0.3333333333333333 0.3333333333333333 0.3333333333333333)
	(0.3333333333333333 0.3333333333333333 0.3333333333333333)
	(0.3333333333333333 0.3333333333333333 0.3333333333333333)
	(0.3333333333333333 0.3333333333333333 0.3333333333333333)
	(0.3333333333333333 0.3333333333333333 0.3333333333333333)
	(0.3333333333333333 0.3333333333333333 0.3333333333333333)
	(0.3333333333333333 0.3333333333333333 0.3333333333333333)
	(0.3333333333333333 0.3333333333333333 0.3333333333333333)
	(0.3333333333333333 0.3333333333333333 0.3333333333333333)
	(0.3333333333333333 0.3333333333333333 0.3333333333333333)
	(0.3333333333333333 0.3333333333333333 0.3333333333333333)
	(0.3333333333333333 0.3333333333333333 0.3333333333333333)
	(0.3333333333333333 0.3333333333333333 0.3333333333333333)
	(0.2 0.2 0.6)
	(0.15789473684210525 0.05263157894736842 0.7894736842105263)
	(0.3333333333333333 0.3333333333333333 0.3333333333333333)
	(0.3333333333333333 0.3333333333333333 0.3333333333333333)
	(0.3333333333333333 0.3333333333333333 0.3333333333333333)
	(0.2 0.2 0.6)
	(0.14285714285714285 0.14285714285714285 0.7142857142857143)
	(0.09090909090909091 0.09090909090909091 0.8181818181818182)
	(0.14285714285714285 0.14285714285714285 0.7142857142857143)
	(0.1111111111111111 0.3333333333333333 0.5555555555555556));
}

potential (cg02723533 | class cg13434842)
{
	data = ((0.006329113924050633 0.0189873417721519 0.8164556962025317 0.15822784810126583)
	(0.013888888888888888 0.125 0.8472222222222222 0.013888888888888888)
	(0.25 0.25 0.25 0.25)
	(0.8295454545454546 0.03409090909090909 0.056818181818181816 0.07954545454545454)
	(0.7318181818181818 0.10454545454545454 0.09545454545454546 0.06818181818181818)
	(0.7836004932182491 0.05240443896424168 0.06966707768187423 0.09432799013563502));
}

potential (cg08047907 | class cg24625388 cg03602500 cg08109815)
{
	data = ((0.2 0.2 0.2 0.2 0.2)
	(0.2 0.2 0.2 0.2 0.2)
	(0.2 0.2 0.2 0.2 0.2)
	(0.2 0.2 0.2 0.2 0.2)
	(0.2 0.2 0.2 0.2 0.2)
	(0.2 0.2 0.2 0.2 0.2)
	(0.2 0.2 0.2 0.2 0.2)
	(0.2 0.2 0.2 0.2 0.2)
	(0.2 0.2 0.2 0.2 0.2)
	(0.2 0.2 0.2 0.2 0.2)
	(0.2 0.2 0.2 0.2 0.2)
	(0.2 0.2 0.2 0.2 0.2)
	(0.2 0.2 0.2 0.2 0.2)
	(0.2 0.2 0.2 0.2 0.2)
	(0.2 0.2 0.2 0.2 0.2)
	(0.2 0.2 0.2 0.2 0.2)
	(0.2 0.2 0.2 0.2 0.2)
	(0.09090909090909091 0.45454545454545453 0.09090909090909091 0.2727272727272727 0.09090909090909091)
	(0.2 0.2 0.2 0.2 0.2)
	(0.2 0.2 0.2 0.2 0.2)
	(0.2 0.2 0.2 0.2 0.2)
	(0.17647058823529413 0.6470588235294118 0.058823529411764705 0.058823529411764705 0.058823529411764705)
	(0.09090909090909091 0.6363636363636364 0.09090909090909091 0.09090909090909091 0.09090909090909091)
	(0.2 0.2 0.2 0.2 0.2)
	(0.2 0.2 0.2 0.2 0.2)
	(0.2 0.2 0.2 0.2 0.2)
	(0.2 0.2 0.2 0.2 0.2)
	(0.2 0.2 0.2 0.2 0.2)
	(0.2 0.2 0.2 0.2 0.2)
	(0.06666666666666667 0.6 0.2 0.06666666666666667 0.06666666666666667)
	(0.1111111111111111 0.1111111111111111 0.1111111111111111 0.5555555555555556 0.1111111111111111)
	(0.2 0.2 0.2 0.2 0.2)
	(0.2 0.2 0.2 0.2 0.2)
	(0.024390243902439025 0.9024390243902439 0.024390243902439025 0.024390243902439025 0.024390243902439025)
	(0.1111111111111111 0.5555555555555556 0.1111111111111111 0.1111111111111111 0.1111111111111111)
	(0.2 0.2 0.2 0.2 0.2)
	(0.2 0.2 0.2 0.2 0.2)
	(0.14285714285714285 0.42857142857142855 0.14285714285714285 0.14285714285714285 0.14285714285714285)
	(0.2 0.2 0.2 0.2 0.2)
	(0.2 0.2 0.2 0.2 0.2)
	(0.2 0.2 0.2 0.2 0.2)
	(0.037037037037037035 0.7777777777777778 0.1111111111111111 0.037037037037037035 0.037037037037037035)
	(0.1111111111111111 0.1111111111111111 0.5555555555555556 0.1111111111111111 0.1111111111111111)
	(0.14285714285714285 0.42857142857142855 0.14285714285714285 0.14285714285714285 0.14285714285714285)
	(0.2 0.2 0.2 0.2 0.2)
	(0.0707070707070707 0.898989898989899 0.010101010101010102 0.010101010101010102 0.010101010101010102)
	(0.14285714285714285 0.14285714285714285 0.14285714285714285 0.42857142857142855 0.14285714285714285)
	(0.047619047619047616 0.5238095238095238 0.3333333333333333 0.047619047619047616 0.047619047619047616)
	(0.2 0.2 0.2 0.2 0.2)
	(0.2 0.2 0.2 0.2 0.2)
	(0.2 0.2 0.2 0.2 0.2)
	(0.2 0.2 0.2 0.2 0.2)
	(0.2 0.2 0.2 0.2 0.2)
	(0.2 0.2 0.2 0.2 0.2)
	(0.2 0.2 0.2 0.2 0.2)
	(0.2 0.2 0.2 0.2 0.2)
	(0.2 0.2 0.2 0.2 0.2)
	(0.42857142857142855 0.14285714285714285 0.14285714285714285 0.14285714285714285 0.14285714285714285)
	(0.2 0.2 0.2 0.2 0.2)
	(0.2 0.2 0.2 0.2 0.2)
	(0.47368421052631576 0.05263157894736842 0.05263157894736842 0.05263157894736842 0.3684210526315789)
	(0.05747126436781609 0.12643678160919541 0.011494252873563218 0.08045977011494253 0.7241379310344828)
	(0.09433962264150944 0.1320754716981132 0.05660377358490566 0.05660377358490566 0.660377358490566)
	(0.026222537207654145 0.020552799433026223 0.010630758327427357 0.057406094968107724 0.8851878100637846)
	(0.42857142857142855 0.14285714285714285 0.14285714285714285 0.14285714285714285 0.14285714285714285)
	(0.2 0.2 0.2 0.2 0.2)
	(0.2 0.2 0.2 0.2 0.2)
	(0.023255813953488372 0.11627906976744186 0.06976744186046512 0.023255813953488372 0.7674418604651163)
	(0.2 0.2 0.2 0.2 0.2)
	(0.14285714285714285 0.14285714285714285 0.14285714285714285 0.14285714285714285 0.42857142857142855)
	(0.2 0.2 0.2 0.2 0.2)
	(0.02564102564102564 0.07692307692307693 0.02564102564102564 0.07692307692307693 0.7948717948717948)
	(0.14285714285714285 0.14285714285714285 0.14285714285714285 0.14285714285714285 0.42857142857142855)
	(0.06666666666666667 0.2 0.06666666666666667 0.06666666666666667 0.6)
	(0.07692307692307693 0.38461538461538464 0.07692307692307693 0.23076923076923078 0.23076923076923078)
	(0.00546448087431694 0.00546448087431694 0.08196721311475409 0.11475409836065574 0.7923497267759563)
	(0.2 0.2 0.2 0.2 0.2)
	(0.2 0.2 0.2 0.2 0.2)
	(0.14285714285714285 0.14285714285714285 0.14285714285714285 0.42857142857142855 0.14285714285714285)
	(0.04 0.2 0.12 0.12 0.52)
	(0.2 0.2 0.2 0.2 0.2)
	(0.14285714285714285 0.14285714285714285 0.42857142857142855 0.14285714285714285 0.14285714285714285)
	(0.2 0.2 0.2 0.2 0.2)
	(0.09090909090909091 0.09090909090909091 0.09090909090909091 0.2727272727272727 0.45454545454545453)
	(0.2 0.2 0.2 0.2 0.2)
	(0.2 0.2 0.2 0.2 0.2)
	(0.09090909090909091 0.2727272727272727 0.2727272727272727 0.2727272727272727 0.09090909090909091)
	(0.07692307692307693 0.02564102564102564 0.07692307692307693 0.23076923076923078 0.5897435897435898)
	(0.2 0.2 0.2 0.2 0.2)
	(0.14285714285714285 0.42857142857142855 0.14285714285714285 0.14285714285714285 0.14285714285714285)
	(0.2 0.2 0.2 0.2 0.2)
	(0.14285714285714285 0.14285714285714285 0.14285714285714285 0.14285714285714285 0.42857142857142855)
	(0.2 0.2 0.2 0.2 0.2)
	(0.2 0.2 0.2 0.2 0.2)
	(0.2 0.2 0.2 0.2 0.2)
	(0.14285714285714285 0.14285714285714285 0.42857142857142855 0.14285714285714285 0.14285714285714285)
	(0.2 0.2 0.2 0.2 0.2)
	(0.14285714285714285 0.14285714285714285 0.14285714285714285 0.42857142857142855 0.14285714285714285)
	(0.2 0.2 0.2 0.2 0.2)
	(0.09090909090909091 0.2727272727272727 0.09090909090909091 0.09090909090909091 0.45454545454545453)
	(0.2 0.2 0.2 0.2 0.2)
	(0.2 0.2 0.2 0.2 0.2)
	(0.2 0.2 0.2 0.2 0.2)
	(0.2 0.2 0.2 0.2 0.2)
	(0.2 0.2 0.2 0.2 0.2)
	(0.42857142857142855 0.14285714285714285 0.14285714285714285 0.14285714285714285 0.14285714285714285)
	(0.2 0.2 0.2 0.2 0.2)
	(0.2 0.2 0.2 0.2 0.2)
	(0.5555555555555556 0.1111111111111111 0.1111111111111111 0.1111111111111111 0.1111111111111111)
	(0.2 0.2 0.2 0.2 0.2)
	(0.14285714285714285 0.14285714285714285 0.42857142857142855 0.14285714285714285 0.14285714285714285)
	(0.42857142857142855 0.14285714285714285 0.14285714285714285 0.14285714285714285 0.14285714285714285)
	(0.2 0.2 0.2 0.2 0.2)
	(0.2 0.2 0.2 0.2 0.2)
	(0.2 0.2 0.2 0.2 0.2)
	(0.2 0.2 0.2 0.2 0.2)
	(0.2 0.2 0.2 0.2 0.2)
	(0.2 0.2 0.2 0.2 0.2)
	(0.2 0.2 0.2 0.2 0.2)
	(0.2 0.2 0.2 0.2 0.2));
}

potential (cg00619207 | class cg24625388 cg08109815 cg27015047)
{
	data = ((0.25 0.25 0.25 0.25)
	(0.25 0.25 0.25 0.25)
	(0.25 0.25 0.25 0.25)
	(0.25 0.25 0.25 0.25)
	(0.25 0.25 0.25 0.25)
	(0.25 0.25 0.25 0.25)
	(0.25 0.25 0.25 0.25)
	(0.25 0.25 0.25 0.25)
	(0.25 0.25 0.25 0.25)
	(0.25 0.25 0.25 0.25)
	(0.25 0.25 0.25 0.25)
	(0.25 0.25 0.25 0.25)
	(0.25 0.25 0.25 0.25)
	(0.25 0.25 0.25 0.25)
	(0.25 0.25 0.25 0.25)
	(0.25 0.25 0.25 0.25)
	(0.16666666666666666 0.16666666666666666 0.5 0.16666666666666666)
	(0.05 0.35 0.55 0.05)
	(0.25 0.25 0.25 0.25)
	(0.25 0.25 0.25 0.25)
	(0.3 0.3 0.3 0.1)
	(0.25 0.25 0.25 0.25)
	(0.25 0.25 0.25 0.25)
	(0.25 0.25 0.25 0.25)
	(0.25 0.25 0.25 0.25)
	(0.25 0.25 0.25 0.25)
	(0.25 0.25 0.25 0.25)
	(0.25 0.25 0.25 0.25)
	(0.16666666666666666 0.5 0.16666666666666666 0.16666666666666666)
	(0.020833333333333332 0.14583333333333334 0.8125 0.020833333333333332)
	(0.25 0.25 0.25 0.25)
	(0.16666666666666666 0.5 0.16666666666666666 0.16666666666666666)
	(0.1 0.3 0.5 0.1)
	(0.25 0.25 0.25 0.25)
	(0.25 0.25 0.25 0.25)
	(0.25 0.25 0.25 0.25)
	(0.25 0.25 0.25 0.25)
	(0.25 0.25 0.25 0.25)
	(0.25 0.25 0.25 0.25)
	(0.25 0.25 0.25 0.25)
	(0.16666666666666666 0.16666666666666666 0.5 0.16666666666666666)
	(0.008333333333333333 0.10833333333333334 0.875 0.008333333333333333)
	(0.25 0.25 0.25 0.25)
	(0.25 0.25 0.25 0.25)
	(0.1 0.1 0.7 0.1)
	(0.25 0.25 0.25 0.25)
	(0.25 0.25 0.25 0.25)
	(0.045454545454545456 0.045454545454545456 0.8636363636363636 0.045454545454545456)
	(0.25 0.25 0.25 0.25)
	(0.25 0.25 0.25 0.25)
	(0.25 0.25 0.25 0.25)
	(0.25 0.25 0.25 0.25)
	(0.25 0.25 0.25 0.25)
	(0.16666666666666666 0.16666666666666666 0.5 0.16666666666666666)
	(0.25 0.25 0.25 0.25)
	(0.25 0.25 0.25 0.25)
	(0.25 0.25 0.25 0.25)
	(0.25 0.25 0.25 0.25)
	(0.25 0.25 0.25 0.25)
	(0.25 0.25 0.25 0.25)
	(0.6428571428571429 0.07142857142857142 0.07142857142857142 0.21428571428571427)
	(0.25 0.25 0.25 0.25)
	(0.3 0.1 0.3 0.3)
	(0.8589743589743589 0.038461538461538464 0.0641025641025641 0.038461538461538464)
	(0.5 0.1 0.1 0.3)
	(0.375 0.375 0.125 0.125)
	(0.875 0.025 0.075 0.025)
	(0.375 0.125 0.125 0.375)
	(0.4166666666666667 0.08333333333333333 0.25 0.25)
	(0.91484375 0.01953125 0.05546875 0.01015625)
	(0.6818181818181818 0.16666666666666666 0.13636363636363635 0.015151515151515152)
	(0.4513888888888889 0.14583333333333334 0.3402777777777778 0.0625)
	(0.25 0.25 0.25 0.25)
	(0.5 0.16666666666666666 0.16666666666666666 0.16666666666666666)
	(0.25 0.25 0.25 0.25)
	(0.7 0.1 0.1 0.1)
	(0.125 0.375 0.375 0.125)
	(0.16666666666666666 0.5 0.16666666666666666 0.16666666666666666)
	(0.375 0.125 0.375 0.125)
	(0.375 0.375 0.125 0.125)
	(0.16666666666666666 0.5 0.16666666666666666 0.16666666666666666)
	(0.9112903225806451 0.056451612903225805 0.024193548387096774 0.008064516129032258)
	(0.725 0.125 0.125 0.025)
	(0.5576923076923077 0.21153846153846154 0.21153846153846154 0.019230769230769232)
	(0.25 0.25 0.25 0.25)
	(0.25 0.25 0.25 0.25)
	(0.25 0.25 0.25 0.25)
	(0.16666666666666666 0.5 0.16666666666666666 0.16666666666666666)
	(0.25 0.25 0.25 0.25)
	(0.25 0.25 0.25 0.25)
	(0.16666666666666666 0.5 0.16666666666666666 0.16666666666666666)
	(0.25 0.25 0.25 0.25)
	(0.375 0.375 0.125 0.125)
	(0.7222222222222222 0.05555555555555555 0.16666666666666666 0.05555555555555555)
	(0.75 0.15 0.05 0.05)
	(0.25 0.4166666666666667 0.25 0.08333333333333333)
	(0.25 0.25 0.25 0.25)
	(0.25 0.25 0.25 0.25)
	(0.25 0.25 0.25 0.25)
	(0.25 0.25 0.25 0.25)
	(0.16666666666666666 0.16666666666666666 0.5 0.16666666666666666)
	(0.5 0.16666666666666666 0.16666666666666666 0.16666666666666666)
	(0.25 0.25 0.25 0.25)
	(0.25 0.25 0.25 0.25)
	(0.25 0.25 0.25 0.25)
	(0.25 0.25 0.25 0.25)
	(0.25 0.25 0.25 0.25)
	(0.5 0.3 0.1 0.1)
	(0.125 0.125 0.625 0.125)
	(0.25 0.25 0.25 0.25)
	(0.25 0.25 0.25 0.25)
	(0.25 0.25 0.25 0.25)
	(0.25 0.25 0.25 0.25)
	(0.25 0.25 0.25 0.25)
	(0.25 0.25 0.25 0.25)
	(0.25 0.25 0.25 0.25)
	(0.16666666666666666 0.5 0.16666666666666666 0.16666666666666666)
	(0.16666666666666666 0.16666666666666666 0.5 0.16666666666666666)
	(0.25 0.25 0.25 0.25)
	(0.25 0.25 0.25 0.25));
}

potential (cg04057858 | class cg02723533 cg10266490 cg14023451 cg23290344 cg19264571)
{
	data = ((0.5 0.5)
	(0.5 0.5)
	(0.5 0.5)
	(0.5 0.5)
	(0.5 0.5)
	(0.5 0.5)
	(0.5 0.5)
	(0.5 0.5)
	(0.5 0.5)
	(0.5 0.5)
	(0.5 0.5)
	(0.5 0.5)
	(0.5 0.5)
	(0.5 0.5)
	(0.5 0.5)
	(0.5 0.5)
	(0.5 0.5)
	(0.5 0.5)
	(0.5 0.5)
	(0.5 0.5)
	(0.5 0.5)
	(0.5 0.5)
	(0.5 0.5)
	(0.5 0.5)
	(0.5 0.5)
	(0.5 0.5)
	(0.5 0.5)
	(0.5 0.5)
	(0.5 0.5)
	(0.5 0.5)
	(0.5 0.5)
	(0.5 0.5)
	(0.5 0.5)
	(0.5 0.5)
	(0.5 0.5)
	(0.5 0.5)
	(0.5 0.5)
	(0.5 0.5)
	(0.5 0.5)
	(0.5 0.5)
	(0.5 0.5)
	(0.5 0.5)
	(0.5 0.5)
	(0.5 0.5)
	(0.5 0.5)
	(0.5 0.5)
	(0.5 0.5)
	(0.5 0.5)
	(0.5 0.5)
	(0.5 0.5)
	(0.5 0.5)
	(0.5 0.5)
	(0.5 0.5)
	(0.5 0.5)
	(0.5 0.5)
	(0.5 0.5)
	(0.5 0.5)
	(0.5 0.5)
	(0.5 0.5)
	(0.5 0.5)
	(0.5 0.5)
	(0.5 0.5)
	(0.5 0.5)
	(0.5 0.5)
	(0.5 0.5)
	(0.5 0.5)
	(0.5 0.5)
	(0.5 0.5)
	(0.5 0.5)
	(0.5 0.5)
	(0.5 0.5)
	(0.5 0.5)
	(0.5 0.5)
	(0.5 0.5)
	(0.5 0.5)
	(0.5 0.5)
	(0.5 0.5)
	(0.5 0.5)
	(0.5 0.5)
	(0.5 0.5)
	(0.5 0.5)
	(0.5 0.5)
	(0.5 0.5)
	(0.5 0.5)
	(0.5 0.5)
	(0.5 0.5)
	(0.5 0.5)
	(0.5 0.5)
	(0.5 0.5)
	(0.5 0.5)
	(0.5 0.5)
	(0.5 0.5)
	(0.5 0.5)
	(0.5 0.5)
	(0.5 0.5)
	(0.5 0.5)
	(0.5 0.5)
	(0.5 0.5)
	(0.5 0.5)
	(0.5 0.5)
	(0.5 0.5)
	(0.5 0.5)
	(0.5 0.5)
	(0.5 0.5)
	(0.5 0.5)
	(0.5 0.5)
	(0.5 0.5)
	(0.5 0.5)
	(0.5 0.5)
	(0.5 0.5)
	(0.5 0.5)
	(0.5 0.5)
	(0.5 0.5)
	(0.5 0.5)
	(0.5 0.5)
	(0.5 0.5)
	(0.5 0.5)
	(0.5 0.5)
	(0.5 0.5)
	(0.5 0.5)
	(0.5 0.5)
	(0.5 0.5)
	(0.5 0.5)
	(0.5 0.5)
	(0.5 0.5)
	(0.5 0.5)
	(0.5 0.5)
	(0.5 0.5)
	(0.5 0.5)
	(0.5 0.5)
	(0.5 0.5)
	(0.5 0.5)
	(0.5 0.5)
	(0.5 0.5)
	(0.5 0.5)
	(0.5 0.5)
	(0.5 0.5)
	(0.5 0.5)
	(0.5 0.5)
	(0.5 0.5)
	(0.5 0.5)
	(0.5 0.5)
	(0.5 0.5)
	(0.5 0.5)
	(0.5 0.5)
	(0.5 0.5)
	(0.5 0.5)
	(0.5 0.5)
	(0.5 0.5)
	(0.5 0.5)
	(0.5 0.5)
	(0.5 0.5)
	(0.5 0.5)
	(0.5 0.5)
	(0.5 0.5)
	(0.5 0.5)
	(0.5 0.5)
	(0.5 0.5)
	(0.5 0.5)
	(0.5 0.5)
	(0.5 0.5)
	(0.5 0.5)
	(0.5 0.5)
	(0.5 0.5)
	(0.5 0.5)
	(0.5 0.5)
	(0.5 0.5)
	(0.5 0.5)
	(0.5 0.5)
	(0.5 0.5)
	(0.5 0.5)
	(0.5 0.5)
	(0.5 0.5)
	(0.5 0.5)
	(0.5 0.5)
	(0.5 0.5)
	(0.5 0.5)
	(0.5 0.5)
	(0.5 0.5)
	(0.5 0.5)
	(0.5 0.5)
	(0.5 0.5)
	(0.5 0.5)
	(0.5 0.5)
	(0.5 0.5)
	(0.5 0.5)
	(0.5 0.5)
	(0.5 0.5)
	(0.5 0.5)
	(0.5 0.5)
	(0.5 0.5)
	(0.5 0.5)
	(0.5 0.5)
	(0.5 0.5)
	(0.5 0.5)
	(0.5 0.5)
	(0.5 0.5)
	(0.5 0.5)
	(0.5 0.5)
	(0.5 0.5)
	(0.25 0.75)
	(0.5 0.5)
	(0.5 0.5)
	(0.5 0.5)
	(0.5 0.5)
	(0.5 0.5)
	(0.5 0.5)
	(0.5 0.5)
	(0.5 0.5)
	(0.5 0.5)
	(0.5 0.5)
	(0.5 0.5)
	(0.5 0.5)
	(0.5 0.5)
	(0.5 0.5)
	(0.5 0.5)
	(0.5 0.5)
	(0.5 0.5)
	(0.5 0.5)
	(0.5 0.5)
	(0.5 0.5)
	(0.5 0.5)
	(0.5 0.5)
	(0.5 0.5)
	(0.5 0.5)
	(0.5 0.5)
	(0.5 0.5)
	(0.5 0.5)
	(0.5 0.5)
	(0.5 0.5)
	(0.5 0.5)
	(0.5 0.5)
	(0.5 0.5)
	(0.5 0.5)
	(0.25 0.75)
	(0.5 0.5)
	(0.125 0.875)
	(0.5 0.5)
	(0.5 0.5)
	(0.5 0.5)
	(0.5 0.5)
	(0.5 0.5)
	(0.5 0.5)
	(0.5 0.5)
	(0.5 0.5)
	(0.5 0.5)
	(0.5 0.5)
	(0.5 0.5)
	(0.5 0.5)
	(0.5 0.5)
	(0.5 0.5)
	(0.5 0.5)
	(0.5 0.5)
	(0.5 0.5)
	(0.5 0.5)
	(0.5 0.5)
	(0.5 0.5)
	(0.5 0.5)
	(0.5 0.5)
	(0.5 0.5)
	(0.5 0.5)
	(0.5 0.5)
	(0.5 0.5)
	(0.5 0.5)
	(0.5 0.5)
	(0.5 0.5)
	(0.5 0.5)
	(0.5 0.5)
	(0.5 0.5)
	(0.5 0.5)
	(0.5 0.5)
	(0.5 0.5)
	(0.5 0.5)
	(0.5 0.5)
	(0.5 0.5)
	(0.5 0.5)
	(0.5 0.5)
	(0.5 0.5)
	(0.5 0.5)
	(0.5 0.5)
	(0.5 0.5)
	(0.5 0.5)
	(0.5 0.5)
	(0.5 0.5)
	(0.5 0.5)
	(0.5 0.5)
	(0.5 0.5)
	(0.5 0.5)
	(0.5 0.5)
	(0.5 0.5)
	(0.5 0.5)
	(0.5 0.5)
	(0.5 0.5)
	(0.5 0.5)
	(0.5 0.5)
	(0.5 0.5)
	(0.5 0.5)
	(0.5 0.5)
	(0.5 0.5)
	(0.5 0.5)
	(0.5 0.5)
	(0.5 0.5)
	(0.5 0.5)
	(0.5 0.5)
	(0.5 0.5)
	(0.5 0.5)
	(0.5 0.5)
	(0.5 0.5)
	(0.5 0.5)
	(0.5 0.5)
	(0.5 0.5)
	(0.5 0.5)
	(0.5 0.5)
	(0.5 0.5)
	(0.5 0.5)
	(0.5 0.5)
	(0.5 0.5)
	(0.5 0.5)
	(0.5 0.5)
	(0.5 0.5)
	(0.5 0.5)
	(0.5 0.5)
	(0.5 0.5)
	(0.5 0.5)
	(0.5 0.5)
	(0.5 0.5)
	(0.5 0.5)
	(0.5 0.5)
	(0.5 0.5)
	(0.5 0.5)
	(0.5 0.5)
	(0.5 0.5)
	(0.5 0.5)
	(0.5 0.5)
	(0.5 0.5)
	(0.5 0.5)
	(0.5 0.5)
	(0.5 0.5)
	(0.5 0.5)
	(0.5 0.5)
	(0.5 0.5)
	(0.5 0.5)
	(0.5 0.5)
	(0.5 0.5)
	(0.5 0.5)
	(0.5 0.5)
	(0.5 0.5)
	(0.5 0.5)
	(0.5 0.5)
	(0.5 0.5)
	(0.5 0.5)
	(0.5 0.5)
	(0.5 0.5)
	(0.5 0.5)
	(0.5 0.5)
	(0.5 0.5)
	(0.5 0.5)
	(0.5 0.5)
	(0.5 0.5)
	(0.5 0.5)
	(0.125 0.875)
	(0.5 0.5)
	(0.16666666666666666 0.8333333333333334)
	(0.5 0.5)
	(0.5 0.5)
	(0.5 0.5)
	(0.5 0.5)
	(0.5 0.5)
	(0.0078125 0.9921875)
	(0.5 0.5)
	(0.041666666666666664 0.9583333333333334)
	(0.5 0.5)
	(0.25 0.75)
	(0.5 0.5)
	(0.5 0.5)
	(0.5 0.5)
	(0.25 0.75)
	(0.5 0.5)
	(0.25 0.75)
	(0.5 0.5)
	(0.5 0.5)
	(0.5 0.5)
	(0.5 0.5)
	(0.5 0.5)
	(0.5 0.5)
	(0.5 0.5)
	(0.5 0.5)
	(0.5 0.5)
	(0.5 0.5)
	(0.5 0.5)
	(0.5 0.5)
	(0.5 0.5)
	(0.16666666666666666 0.8333333333333334)
	(0.5 0.5)
	(0.5 0.5)
	(0.5 0.5)
	(0.5 0.5)
	(0.5 0.5)
	(0.5 0.5)
	(0.5 0.5)
	(0.25 0.75)
	(0.5 0.5)
	(0.125 0.875)
	(0.5 0.5)
	(0.5 0.5)
	(0.5 0.5)
	(0.5 0.5)
	(0.5 0.5)
	(0.25 0.75)
	(0.5 0.5)
	(0.5 0.5)
	(0.5 0.5)
	(0.5 0.5)
	(0.5 0.5)
	(0.5 0.5)
	(0.5 0.5)
	(0.5 0.5)
	(0.5 0.5)
	(0.5 0.5)
	(0.5 0.5)
	(0.5 0.5)
	(0.5 0.5)
	(0.5 0.5)
	(0.5 0.5)
	(0.25 0.75)
	(0.5 0.5)
	(0.5 0.5)
	(0.5 0.5)
	(0.25 0.75)
	(0.25 0.75)
	(0.5 0.5)
	(0.5 0.5)
	(0.5 0.5)
	(0.5 0.5)
	(0.25 0.75)
	(0.5 0.5)
	(0.5 0.5)
	(0.5 0.5)
	(0.5 0.5)
	(0.5 0.5)
	(0.25 0.75)
	(0.5 0.5)
	(0.5 0.5)
	(0.5 0.5)
	(0.5 0.5)
	(0.5 0.5)
	(0.5 0.5)
	(0.5 0.5)
	(0.5 0.5)
	(0.5 0.5)
	(0.5 0.5)
	(0.5 0.5)
	(0.5 0.5)
	(0.5 0.5)
	(0.5 0.5)
	(0.5 0.5)
	(0.5 0.5)
	(0.5 0.5)
	(0.5 0.5)
	(0.5 0.5)
	(0.5 0.5)
	(0.5 0.5)
	(0.5 0.5)
	(0.5 0.5)
	(0.5 0.5)
	(0.5 0.5)
	(0.5 0.5)
	(0.5 0.5)
	(0.5 0.5)
	(0.5 0.5)
	(0.5 0.5)
	(0.5 0.5)
	(0.5 0.5)
	(0.5 0.5)
	(0.5 0.5)
	(0.5 0.5)
	(0.5 0.5)
	(0.5 0.5)
	(0.5 0.5)
	(0.5 0.5)
	(0.5 0.5)
	(0.5 0.5)
	(0.5 0.5)
	(0.5 0.5)
	(0.5 0.5)
	(0.5 0.5)
	(0.5 0.5)
	(0.5 0.5)
	(0.5 0.5)
	(0.5 0.5)
	(0.5 0.5)
	(0.5 0.5)
	(0.5 0.5)
	(0.5 0.5)
	(0.5 0.5)
	(0.5 0.5)
	(0.5 0.5)
	(0.25 0.75)
	(0.5 0.5)
	(0.5 0.5)
	(0.5 0.5)
	(0.5 0.5)
	(0.5 0.5)
	(0.5 0.5)
	(0.5 0.5)
	(0.5 0.5)
	(0.5 0.5)
	(0.5 0.5)
	(0.5 0.5)
	(0.5 0.5)
	(0.5 0.5)
	(0.5 0.5)
	(0.5 0.5)
	(0.5 0.5)
	(0.5 0.5)
	(0.5 0.5)
	(0.5 0.5)
	(0.5 0.5)
	(0.5 0.5)
	(0.5 0.5)
	(0.5 0.5)
	(0.5 0.5)
	(0.5 0.5)
	(0.5 0.5)
	(0.5 0.5)
	(0.5 0.5)
	(0.5 0.5)
	(0.5 0.5)
	(0.05555555555555555 0.9444444444444444)
	(0.5 0.5)
	(0.5 0.5)
	(0.5 0.5)
	(0.5 0.5)
	(0.5 0.5)
	(0.5 0.5)
	(0.5 0.5)
	(0.5 0.5)
	(0.5 0.5)
	(0.5 0.5)
	(0.5 0.5)
	(0.5 0.5)
	(0.5 0.5)
	(0.5 0.5)
	(0.5 0.5)
	(0.5 0.5)
	(0.5 0.5)
	(0.5 0.5)
	(0.5 0.5)
	(0.5 0.5)
	(0.5 0.5)
	(0.5 0.5)
	(0.5 0.5)
	(0.5 0.5)
	(0.5 0.5)
	(0.5 0.5)
	(0.5 0.5)
	(0.5 0.5)
	(0.5 0.5)
	(0.5 0.5)
	(0.5 0.5)
	(0.125 0.875)
	(0.5 0.5)
	(0.5 0.5)
	(0.5 0.5)
	(0.5 0.5)
	(0.5 0.5)
	(0.5 0.5)
	(0.5 0.5)
	(0.5 0.5)
	(0.5 0.5)
	(0.5 0.5)
	(0.5 0.5)
	(0.5 0.5)
	(0.5 0.5)
	(0.5 0.5)
	(0.5 0.5)
	(0.5 0.5)
	(0.5 0.5)
	(0.5 0.5)
	(0.5 0.5)
	(0.5 0.5)
	(0.5 0.5)
	(0.5 0.5)
	(0.5 0.5)
	(0.5 0.5)
	(0.5 0.5)
	(0.5 0.5)
	(0.5 0.5)
	(0.5 0.5)
	(0.5 0.5)
	(0.5 0.5)
	(0.5 0.5)
	(0.5 0.5)
	(0.5 0.5)
	(0.5 0.5)
	(0.5 0.5)
	(0.5 0.5)
	(0.5 0.5)
	(0.5 0.5)
	(0.5 0.5)
	(0.5 0.5)
	(0.5 0.5)
	(0.5 0.5)
	(0.5 0.5)
	(0.5 0.5)
	(0.5 0.5)
	(0.5 0.5)
	(0.5 0.5)
	(0.5 0.5)
	(0.5 0.5)
	(0.5 0.5)
	(0.5 0.5)
	(0.5 0.5)
	(0.5 0.5)
	(0.5 0.5)
	(0.5 0.5)
	(0.5 0.5)
	(0.5 0.5)
	(0.5 0.5)
	(0.5 0.5)
	(0.5 0.5)
	(0.5 0.5)
	(0.5 0.5)
	(0.5 0.5)
	(0.5 0.5)
	(0.5 0.5)
	(0.5 0.5)
	(0.5 0.5)
	(0.5 0.5)
	(0.5 0.5)
	(0.5 0.5)
	(0.5 0.5)
	(0.5 0.5)
	(0.5 0.5)
	(0.5 0.5)
	(0.5 0.5)
	(0.5 0.5)
	(0.5 0.5)
	(0.5 0.5)
	(0.5 0.5)
	(0.5 0.5)
	(0.5 0.5)
	(0.5 0.5)
	(0.5 0.5)
	(0.75 0.25)
	(0.5 0.5)
	(0.75 0.25)
	(0.75 0.25)
	(0.5 0.5)
	(0.5 0.5)
	(0.5 0.5)
	(0.5 0.5)
	(0.5 0.5)
	(0.5 0.5)
	(0.5 0.5)
	(0.5 0.5)
	(0.5 0.5)
	(0.5 0.5)
	(0.5 0.5)
	(0.5 0.5)
	(0.5 0.5)
	(0.5 0.5)
	(0.5 0.5)
	(0.5 0.5)
	(0.5 0.5)
	(0.5 0.5)
	(0.5 0.5)
	(0.5 0.5)
	(0.5 0.5)
	(0.5 0.5)
	(0.5 0.5)
	(0.16666666666666666 0.8333333333333334)
	(0.75 0.25)
	(0.5 0.5)
	(0.5 0.5)
	(0.5 0.5)
	(0.625 0.375)
	(0.5 0.5)
	(0.875 0.125)
	(0.8333333333333334 0.16666666666666666)
	(0.5 0.5)
	(0.5 0.5)
	(0.5 0.5)
	(0.5 0.5)
	(0.5 0.5)
	(0.5 0.5)
	(0.5 0.5)
	(0.5 0.5)
	(0.5 0.5)
	(0.25 0.75)
	(0.5 0.5)
	(0.5 0.5)
	(0.5 0.5)
	(0.5 0.5)
	(0.625 0.375)
	(0.75 0.25)
	(0.5 0.5)
	(0.5 0.5)
	(0.5 0.5)
	(0.5 0.5)
	(0.5 0.5)
	(0.5 0.5)
	(0.25 0.75)
	(0.75 0.25)
	(0.5 0.5)
	(0.5 0.5)
	(0.8333333333333334 0.16666666666666666)
	(0.5 0.5)
	(0.5 0.5)
	(0.875 0.125)
	(0.75 0.25)
	(0.875 0.125)
	(0.16666666666666666 0.8333333333333334)
	(0.5 0.5)
	(0.5 0.5)
	(0.25 0.75)
	(0.75 0.25)
	(0.5 0.5)
	(0.5 0.5)
	(0.25 0.75)
	(0.5 0.5)
	(0.5 0.5)
	(0.5 0.5)
	(0.5 0.5)
	(0.5 0.5)
	(0.5 0.5)
	(0.375 0.625)
	(0.75 0.25)
	(0.5 0.5)
	(0.5 0.5)
	(0.5 0.5)
	(0.5 0.5)
	(0.5 0.5)
	(0.5 0.5)
	(0.5 0.5)
	(0.5 0.5)
	(0.8333333333333334 0.16666666666666666)
	(0.8333333333333334 0.16666666666666666)
	(0.25 0.75)
	(0.8333333333333334 0.16666666666666666)
	(0.25 0.75)
	(0.7857142857142857 0.21428571428571427)
	(0.9 0.1)
	(0.8703703703703703 0.12962962962962962)
	(0.5 0.5)
	(0.5 0.5)
	(0.25 0.75)
	(0.5 0.5)
	(0.25 0.75)
	(0.8333333333333334 0.16666666666666666)
	(0.5 0.5)
	(0.8333333333333334 0.16666666666666666)
	(0.75 0.25)
	(0.5 0.5)
	(0.5 0.5)
	(0.75 0.25)
	(0.75 0.25)
	(0.75 0.25)
	(0.75 0.25)
	(0.375 0.625)
	(0.75 0.25)
	(0.16666666666666666 0.8333333333333334)
	(0.5 0.5)
	(0.5 0.5)
	(0.5 0.5)
	(0.5 0.5)
	(0.5 0.5)
	(0.75 0.25)
	(0.9 0.1)
	(0.9285714285714286 0.07142857142857142)
	(0.8333333333333334 0.16666666666666666)
	(0.8125 0.1875)
	(0.8333333333333334 0.16666666666666666)
	(0.9605263157894737 0.039473684210526314)
	(0.9166666666666666 0.08333333333333333)
	(0.9392430278884463 0.060756972111553786)
	(0.5 0.5)
	(0.5 0.5)
	(0.5 0.5)
	(0.25 0.75)
	(0.5 0.5)
	(0.5 0.5)
	(0.5 0.5)
	(0.8863636363636364 0.11363636363636363)
	(0.5 0.5)
	(0.5 0.5)
	(0.5 0.5)
	(0.5 0.5)
	(0.75 0.25)
	(0.75 0.25)
	(0.5 0.5)
	(0.7 0.3)
	(0.5 0.5)
	(0.5 0.5)
	(0.5 0.5)
	(0.5 0.5)
	(0.5 0.5)
	(0.5 0.5)
	(0.25 0.75)
	(0.1875 0.8125)
	(0.5 0.5)
	(0.5 0.5)
	(0.5 0.5)
	(0.5 0.5)
	(0.5 0.5)
	(0.5 0.5)
	(0.5 0.5)
	(0.5 0.5)
	(0.5 0.5)
	(0.5 0.5)
	(0.5 0.5)
	(0.5 0.5)
	(0.5 0.5)
	(0.5 0.5)
	(0.5 0.5)
	(0.5 0.5)
	(0.5 0.5)
	(0.5 0.5)
	(0.5 0.5)
	(0.5 0.5)
	(0.5 0.5)
	(0.5 0.5)
	(0.5 0.5)
	(0.5 0.5)
	(0.5 0.5)
	(0.5 0.5)
	(0.5 0.5)
	(0.5 0.5)
	(0.5 0.5)
	(0.5 0.5)
	(0.5 0.5)
	(0.5 0.5)
	(0.5 0.5)
	(0.5 0.5)
	(0.25 0.75)
	(0.5 0.5)
	(0.5 0.5)
	(0.5 0.5)
	(0.5 0.5)
	(0.5 0.5)
	(0.5 0.5)
	(0.5 0.5)
	(0.25 0.75)
	(0.5 0.5)
	(0.5 0.5)
	(0.5 0.5)
	(0.5 0.5)
	(0.5 0.5)
	(0.5 0.5)
	(0.5 0.5)
	(0.5 0.5)
	(0.5 0.5)
	(0.25 0.75)
	(0.5 0.5)
	(0.75 0.25)
	(0.5 0.5)
	(0.5 0.5)
	(0.5 0.5)
	(0.5 0.5)
	(0.5 0.5)
	(0.5 0.5)
	(0.5 0.5)
	(0.5 0.5)
	(0.5 0.5)
	(0.5 0.5)
	(0.5 0.5)
	(0.5 0.5)
	(0.5 0.5)
	(0.5 0.5)
	(0.5 0.5)
	(0.5 0.5)
	(0.5 0.5)
	(0.5 0.5)
	(0.5 0.5)
	(0.5 0.5)
	(0.5 0.5)
	(0.5 0.5)
	(0.5 0.5)
	(0.5 0.5)
	(0.5 0.5)
	(0.5 0.5)
	(0.5 0.5)
	(0.5 0.5)
	(0.5 0.5)
	(0.5 0.5)
	(0.5 0.5)
	(0.5 0.5)
	(0.75 0.25)
	(0.5 0.5)
	(0.5 0.5)
	(0.5 0.5)
	(0.5 0.5)
	(0.5 0.5)
	(0.5 0.5)
	(0.5 0.5)
	(0.5 0.5)
	(0.5 0.5)
	(0.5 0.5)
	(0.5 0.5)
	(0.8333333333333334 0.16666666666666666)
	(0.5 0.5)
	(0.5 0.5)
	(0.5 0.5)
	(0.8333333333333334 0.16666666666666666)
	(0.5 0.5)
	(0.5 0.5)
	(0.5 0.5)
	(0.8333333333333334 0.16666666666666666)
	(0.5 0.5)
	(0.8333333333333334 0.16666666666666666)
	(0.75 0.25)
	(0.8125 0.1875)
	(0.5 0.5)
	(0.5 0.5)
	(0.5 0.5)
	(0.5 0.5)
	(0.5 0.5)
	(0.8333333333333334 0.16666666666666666)
	(0.5 0.5)
	(0.5 0.5)
	(0.5 0.5)
	(0.5 0.5)
	(0.5 0.5)
	(0.5 0.5)
	(0.5 0.5)
	(0.5 0.5)
	(0.5 0.5)
	(0.75 0.25)
	(0.5 0.5)
	(0.75 0.25)
	(0.5 0.5)
	(0.25 0.75)
	(0.5 0.5)
	(0.75 0.25)
	(0.5 0.5)
	(0.95 0.05)
	(0.5 0.5)
	(0.5 0.5)
	(0.5 0.5)
	(0.75 0.25)
	(0.5 0.5)
	(0.8333333333333334 0.16666666666666666)
	(0.75 0.25)
	(0.75 0.25)
	(0.5 0.5)
	(0.5 0.5)
	(0.5 0.5)
	(0.5 0.5)
	(0.5 0.5)
	(0.5 0.5)
	(0.75 0.25)
	(0.75 0.25)
	(0.5 0.5)
	(0.5 0.5)
	(0.5 0.5)
	(0.5 0.5)
	(0.5 0.5)
	(0.5 0.5)
	(0.75 0.25)
	(0.5 0.5)
	(0.75 0.25)
	(0.5 0.5)
	(0.5 0.5)
	(0.5 0.5)
	(0.5 0.5)
	(0.5 0.5)
	(0.25 0.75)
	(0.5 0.5)
	(0.5 0.5)
	(0.5 0.5)
	(0.5 0.5)
	(0.5 0.5)
	(0.5 0.5)
	(0.5 0.5)
	(0.5 0.5)
	(0.5 0.5)
	(0.25 0.75)
	(0.5 0.5)
	(0.5 0.5)
	(0.5 0.5)
	(0.5 0.5)
	(0.5 0.5)
	(0.5 0.5)
	(0.5 0.5)
	(0.5 0.5)
	(0.5 0.5)
	(0.5 0.5)
	(0.5 0.5)
	(0.5 0.5)
	(0.5 0.5)
	(0.5 0.5)
	(0.5 0.5)
	(0.5 0.5)
	(0.5 0.5)
	(0.5 0.5)
	(0.5 0.5)
	(0.5 0.5)
	(0.5 0.5)
	(0.75 0.25)
	(0.5 0.5)
	(0.25 0.75)
	(0.5 0.5)
	(0.75 0.25)
	(0.5 0.5)
	(0.5 0.5)
	(0.5 0.5)
	(0.5 0.5)
	(0.5 0.5)
	(0.5 0.5)
	(0.5 0.5)
	(0.5 0.5)
	(0.5 0.5)
	(0.25 0.75)
	(0.25 0.75)
	(0.75 0.25)
	(0.5 0.5)
	(0.5 0.5)
	(0.5 0.5)
	(0.5 0.5)
	(0.5 0.5)
	(0.5 0.5)
	(0.5 0.5)
	(0.25 0.75)
	(0.5 0.5)
	(0.5 0.5)
	(0.5 0.5)
	(0.5 0.5)
	(0.5 0.5)
	(0.5 0.5)
	(0.5 0.5)
	(0.5 0.5)
	(0.5 0.5)
	(0.5 0.5)
	(0.5 0.5)
	(0.5 0.5)
	(0.5 0.5)
	(0.25 0.75)
	(0.5 0.5)
	(0.25 0.75)
	(0.5 0.5)
	(0.5 0.5)
	(0.75 0.25)
	(0.25 0.75)
	(0.75 0.25)
	(0.25 0.75)
	(0.16666666666666666 0.8333333333333334)
	(0.75 0.25)
	(0.8333333333333334 0.16666666666666666)
	(0.5 0.5)
	(0.5 0.5)
	(0.5 0.5)
	(0.5 0.5)
	(0.5 0.5)
	(0.5 0.5)
	(0.5 0.5)
	(0.75 0.25)
	(0.5 0.5)
	(0.5 0.5)
	(0.5 0.5)
	(0.5 0.5)
	(0.5 0.5)
	(0.5 0.5)
	(0.5 0.5)
	(0.5 0.5)
	(0.5 0.5)
	(0.5 0.5)
	(0.5 0.5)
	(0.5 0.5)
	(0.5 0.5)
	(0.75 0.25)
	(0.5 0.5)
	(0.5833333333333334 0.4166666666666667)
	(0.5 0.5)
	(0.5 0.5)
	(0.5 0.5)
	(0.5 0.5)
	(0.5 0.5)
	(0.8333333333333334 0.16666666666666666)
	(0.8333333333333334 0.16666666666666666)
	(0.625 0.375)
	(0.5 0.5)
	(0.5 0.5)
	(0.5 0.5)
	(0.75 0.25)
	(0.5 0.5)
	(0.75 0.25)
	(0.5 0.5)
	(0.5 0.5)
	(0.5 0.5)
	(0.75 0.25)
	(0.5 0.5)
	(0.75 0.25)
	(0.5 0.5)
	(0.5 0.5)
	(0.75 0.25)
	(0.7857142857142857 0.21428571428571427)
	(0.5 0.5)
	(0.5 0.5)
	(0.5 0.5)
	(0.5 0.5)
	(0.5 0.5)
	(0.8333333333333334 0.16666666666666666)
	(0.75 0.25)
	(0.5 0.5)
	(0.8333333333333334 0.16666666666666666)
	(0.5 0.5)
	(0.5 0.5)
	(0.75 0.25)
	(0.5 0.5)
	(0.625 0.375)
	(0.16666666666666666 0.8333333333333334)
	(0.9166666666666666 0.08333333333333333)
	(0.5 0.5)
	(0.5 0.5)
	(0.5 0.5)
	(0.5 0.5)
	(0.5 0.5)
	(0.25 0.75)
	(0.75 0.25)
	(0.16666666666666666 0.8333333333333334)
	(0.5 0.5)
	(0.5 0.5)
	(0.5 0.5)
	(0.5 0.5)
	(0.5 0.5)
	(0.5 0.5)
	(0.5 0.5)
	(0.75 0.25)
	(0.5 0.5)
	(0.5 0.5)
	(0.5 0.5)
	(0.5 0.5)
	(0.5 0.5)
	(0.5 0.5)
	(0.75 0.25)
	(0.5 0.5)
	(0.5 0.5)
	(0.5 0.5)
	(0.5 0.5)
	(0.5 0.5)
	(0.5 0.5)
	(0.5 0.5)
	(0.5 0.5)
	(0.5 0.5)
	(0.5 0.5)
	(0.5 0.5)
	(0.5 0.5)
	(0.5 0.5)
	(0.5 0.5)
	(0.5 0.5)
	(0.5 0.5)
	(0.5 0.5)
	(0.5 0.5)
	(0.5 0.5)
	(0.5 0.5)
	(0.5 0.5)
	(0.5 0.5)
	(0.5 0.5)
	(0.5 0.5)
	(0.5 0.5)
	(0.25 0.75)
	(0.5 0.5)
	(0.5 0.5)
	(0.5 0.5)
	(0.5 0.5)
	(0.5 0.5)
	(0.5 0.5)
	(0.75 0.25)
	(0.5 0.5)
	(0.5 0.5)
	(0.5 0.5)
	(0.5 0.5)
	(0.5 0.5)
	(0.5 0.5)
	(0.8333333333333334 0.16666666666666666)
	(0.5 0.5)
	(0.5 0.5)
	(0.25 0.75)
	(0.5 0.5)
	(0.5 0.5)
	(0.5 0.5)
	(0.5 0.5)
	(0.5 0.5)
	(0.5 0.5)
	(0.5 0.5)
	(0.5 0.5)
	(0.5 0.5)
	(0.5 0.5)
	(0.5 0.5)
	(0.5 0.5)
	(0.5 0.5)
	(0.5 0.5)
	(0.5 0.5)
	(0.5 0.5)
	(0.5 0.5)
	(0.5 0.5)
	(0.5 0.5)
	(0.5 0.5)
	(0.8333333333333334 0.16666666666666666)
	(0.25 0.75)
	(0.5 0.5)
	(0.5 0.5)
	(0.75 0.25)
	(0.5 0.5)
	(0.5 0.5)
	(0.5 0.5)
	(0.5 0.5)
	(0.5 0.5)
	(0.5 0.5)
	(0.5 0.5)
	(0.5 0.5)
	(0.5 0.5)
	(0.25 0.75)
	(0.5 0.5)
	(0.5 0.5)
	(0.25 0.75)
	(0.5 0.5)
	(0.5 0.5)
	(0.5 0.5)
	(0.5 0.5)
	(0.5 0.5)
	(0.5 0.5)
	(0.5 0.5)
	(0.5 0.5)
	(0.5 0.5)
	(0.5 0.5)
	(0.5 0.5)
	(0.5 0.5)
	(0.5 0.5)
	(0.5 0.5)
	(0.75 0.25)
	(0.5 0.5)
	(0.5 0.5)
	(0.25 0.75)
	(0.5 0.5)
	(0.75 0.25)
	(0.75 0.25)
	(0.875 0.125)
	(0.75 0.25)
	(0.7 0.3)
	(0.5 0.5)
	(0.5 0.5)
	(0.5 0.5)
	(0.5 0.5)
	(0.5 0.5)
	(0.625 0.375)
	(0.75 0.25)
	(0.6428571428571429 0.35714285714285715)
	(0.75 0.25)
	(0.5 0.5)
	(0.5 0.5)
	(0.5 0.5)
	(0.5 0.5)
	(0.75 0.25)
	(0.5 0.5)
	(0.9166666666666666 0.08333333333333333)
	(0.5 0.5)
	(0.5 0.5)
	(0.5 0.5)
	(0.5 0.5)
	(0.5 0.5)
	(0.5 0.5)
	(0.75 0.25)
	(0.625 0.375)
	(0.5 0.5)
	(0.16666666666666666 0.8333333333333334)
	(0.5 0.5)
	(0.75 0.25)
	(0.5 0.5)
	(0.75 0.25)
	(0.5833333333333334 0.4166666666666667)
	(0.6785714285714286 0.32142857142857145)
	(0.5 0.5)
	(0.5 0.5)
	(0.5 0.5)
	(0.75 0.25)
	(0.5 0.5)
	(0.5 0.5)
	(0.625 0.375)
	(0.2777777777777778 0.7222222222222222));
}

potential (cg10266490 | class cg13434842 cg02723533)
{
	data = ((0.2 0.2 0.2 0.2 0.2)
	(0.14285714285714285 0.42857142857142855 0.14285714285714285 0.14285714285714285 0.14285714285714285)
	(0.007518796992481203 0.8796992481203008 0.06766917293233082 0.03759398496240601 0.007518796992481203)
	(0.10344827586206896 0.5862068965517241 0.2413793103448276 0.034482758620689655 0.034482758620689655)
	(0.2 0.2 0.2 0.2 0.2)
	(0.07692307692307693 0.07692307692307693 0.6923076923076923 0.07692307692307693 0.07692307692307693)
	(0.015384615384615385 0.7538461538461538 0.1076923076923077 0.1076923076923077 0.015384615384615385)
	(0.2 0.2 0.2 0.2 0.2)
	(0.2 0.2 0.2 0.2 0.2)
	(0.2 0.2 0.2 0.2 0.2)
	(0.2 0.2 0.2 0.2 0.2)
	(0.2 0.2 0.2 0.2 0.2)
	(0.012987012987012988 0.06493506493506493 0.06493506493506493 0.09090909090909091 0.7662337662337663)
	(0.14285714285714285 0.14285714285714285 0.14285714285714285 0.14285714285714285 0.42857142857142855)
	(0.3333333333333333 0.1111111111111111 0.3333333333333333 0.1111111111111111 0.1111111111111111)
	(0.09090909090909091 0.45454545454545453 0.09090909090909091 0.09090909090909091 0.2727272727272727)
	(0.01818181818181818 0.030303030303030304 0.06666666666666667 0.1393939393939394 0.7454545454545455)
	(0.037037037037037035 0.18518518518518517 0.037037037037037035 0.48148148148148145 0.25925925925925924)
	(0.12 0.12 0.44 0.12 0.2)
	(0.05263157894736842 0.05263157894736842 0.15789473684210525 0.47368421052631576 0.2631578947368421)
	(0.013333333333333334 0.0196078431372549 0.01803921568627451 0.08549019607843138 0.8635294117647059)
	(0.011235955056179775 0.056179775280898875 0.033707865168539325 0.39325842696629215 0.5056179775280899)
	(0.02564102564102564 0.1111111111111111 0.1111111111111111 0.28205128205128205 0.4700854700854701)
	(0.03184713375796178 0.044585987261146494 0.09554140127388536 0.2611464968152866 0.5668789808917197));
}

potential (cg13434842 | class)
{
	data = ((0.6888888888888889 0.30666666666666664 0.0044444444444444444)
	(0.04424778761061947 0.11296199895887558 0.842790213430505));
}

potential (cg25902889 | cg13434842 cg20279283 cg10266490 cg14023451 cg23290344 cg19264571 cg04057858 cg11802013)
{
	data = ((0.2 0.2 0.2 0.2 0.2)
	(0.14285714285714285 0.42857142857142855 0.14285714285714285 0.14285714285714285 0.14285714285714285)
	(0.2 0.2 0.2 0.2 0.2)
	(0.2 0.2 0.2 0.2 0.2)
	(0.2 0.2 0.2 0.2 0.2)
	(0.2 0.2 0.2 0.2 0.2)
	(0.2 0.2 0.2 0.2 0.2)
	(0.2 0.2 0.2 0.2 0.2)
	(0.2 0.2 0.2 0.2 0.2)
	(0.2 0.2 0.2 0.2 0.2)
	(0.2 0.2 0.2 0.2 0.2)
	(0.2 0.2 0.2 0.2 0.2)
	(0.2 0.2 0.2 0.2 0.2)
	(0.2 0.2 0.2 0.2 0.2)
	(0.2 0.2 0.2 0.2 0.2)
	(0.2 0.2 0.2 0.2 0.2)
	(0.2 0.2 0.2 0.2 0.2)
	(0.2 0.2 0.2 0.2 0.2)
	(0.2 0.2 0.2 0.2 0.2)
	(0.2 0.2 0.2 0.2 0.2)
	(0.2 0.2 0.2 0.2 0.2)
	(0.2 0.2 0.2 0.2 0.2)
	(0.2 0.2 0.2 0.2 0.2)
	(0.2 0.2 0.2 0.2 0.2)
	(0.2 0.2 0.2 0.2 0.2)
	(0.2 0.2 0.2 0.2 0.2)
	(0.2 0.2 0.2 0.2 0.2)
	(0.2 0.2 0.2 0.2 0.2)
	(0.2 0.2 0.2 0.2 0.2)
	(0.2 0.2 0.2 0.2 0.2)
	(0.2 0.2 0.2 0.2 0.2)
	(0.2 0.2 0.2 0.2 0.2)
	(0.2 0.2 0.2 0.2 0.2)
	(0.2 0.2 0.2 0.2 0.2)
	(0.2 0.2 0.2 0.2 0.2)
	(0.2 0.2 0.2 0.2 0.2)
	(0.2 0.2 0.2 0.2 0.2)
	(0.2 0.2 0.2 0.2 0.2)
	(0.2 0.2 0.2 0.2 0.2)
	(0.2 0.2 0.2 0.2 0.2)
	(0.2 0.2 0.2 0.2 0.2)
	(0.2 0.2 0.2 0.2 0.2)
	(0.2 0.2 0.2 0.2 0.2)
	(0.2 0.2 0.2 0.2 0.2)
	(0.2 0.2 0.2 0.2 0.2)
	(0.2 0.2 0.2 0.2 0.2)
	(0.2 0.2 0.2 0.2 0.2)
	(0.2 0.2 0.2 0.2 0.2)
	(0.2 0.2 0.2 0.2 0.2)
	(0.2 0.2 0.2 0.2 0.2)
	(0.2 0.2 0.2 0.2 0.2)
	(0.2 0.2 0.2 0.2 0.2)
	(0.2 0.2 0.2 0.2 0.2)
	(0.2 0.2 0.2 0.2 0.2)
	(0.2 0.2 0.2 0.2 0.2)
	(0.2 0.2 0.2 0.2 0.2)
	(0.2 0.2 0.2 0.2 0.2)
	(0.2 0.2 0.2 0.2 0.2)
	(0.2 0.2 0.2 0.2 0.2)
	(0.2 0.2 0.2 0.2 0.2)
	(0.2 0.2 0.2 0.2 0.2)
	(0.2 0.2 0.2 0.2 0.2)
	(0.2 0.2 0.2 0.2 0.2)
	(0.2 0.2 0.2 0.2 0.2)
	(0.2 0.2 0.2 0.2 0.2)
	(0.2 0.2 0.2 0.2 0.2)
	(0.2 0.2 0.2 0.2 0.2)
	(0.2 0.2 0.2 0.2 0.2)
	(0.2 0.2 0.2 0.2 0.2)
	(0.2 0.2 0.2 0.2 0.2)
	(0.2 0.2 0.2 0.2 0.2)
	(0.2 0.2 0.2 0.2 0.2)
	(0.2 0.2 0.2 0.2 0.2)
	(0.2 0.2 0.2 0.2 0.2)
	(0.2 0.2 0.2 0.2 0.2)
	(0.2 0.2 0.2 0.2 0.2)
	(0.2 0.2 0.2 0.2 0.2)
	(0.2 0.2 0.2 0.2 0.2)
	(0.2 0.2 0.2 0.2 0.2)
	(0.2 0.2 0.2 0.2 0.2)
	(0.2 0.2 0.2 0.2 0.2)
	(0.2 0.2 0.2 0.2 0.2)
	(0.2 0.2 0.2 0.2 0.2)
	(0.2 0.2 0.2 0.2 0.2)
	(0.2 0.2 0.2 0.2 0.2)
	(0.2 0.2 0.2 0.2 0.2)
	(0.2 0.2 0.2 0.2 0.2)
	(0.2 0.2 0.2 0.2 0.2)
	(0.2 0.2 0.2 0.2 0.2)
	(0.2 0.2 0.2 0.2 0.2)
	(0.2 0.2 0.2 0.2 0.2)
	(0.2 0.2 0.2 0.2 0.2)
	(0.2 0.2 0.2 0.2 0.2)
	(0.2 0.2 0.2 0.2 0.2)
	(0.2 0.2 0.2 0.2 0.2)
	(0.2 0.2 0.2 0.2 0.2)
	(0.2 0.2 0.2 0.2 0.2)
	(0.2 0.2 0.2 0.2 0.2)
	(0.2 0.2 0.2 0.2 0.2)
	(0.2 0.2 0.2 0.2 0.2)
	(0.2 0.2 0.2 0.2 0.2)
	(0.2 0.2 0.2 0.2 0.2)
	(0.2 0.2 0.2 0.2 0.2)
	(0.2 0.2 0.2 0.2 0.2)
	(0.2 0.2 0.2 0.2 0.2)
	(0.2 0.2 0.2 0.2 0.2)
	(0.2 0.2 0.2 0.2 0.2)
	(0.14285714285714285 0.42857142857142855 0.14285714285714285 0.14285714285714285 0.14285714285714285)
	(0.2 0.2 0.2 0.2 0.2)
	(0.2 0.2 0.2 0.2 0.2)
	(0.2 0.2 0.2 0.2 0.2)
	(0.2 0.2 0.2 0.2 0.2)
	(0.2 0.2 0.2 0.2 0.2)
	(0.2 0.2 0.2 0.2 0.2)
	(0.2 0.2 0.2 0.2 0.2)
	(0.2 0.2 0.2 0.2 0.2)
	(0.2 0.2 0.2 0.2 0.2)
	(0.2 0.2 0.2 0.2 0.2)
	(0.2 0.2 0.2 0.2 0.2)
	(0.2 0.2 0.2 0.2 0.2)
	(0.2 0.2 0.2 0.2 0.2)
	(0.2 0.2 0.2 0.2 0.2)
	(0.2 0.2 0.2 0.2 0.2)
	(0.2 0.2 0.2 0.2 0.2)
	(0.2 0.2 0.2 0.2 0.2)
	(0.2 0.2 0.2 0.2 0.2)
	(0.2 0.2 0.2 0.2 0.2)
	(0.2 0.2 0.2 0.2 0.2)
	(0.2 0.2 0.2 0.2 0.2)
	(0.2 0.2 0.2 0.2 0.2)
	(0.2 0.2 0.2 0.2 0.2)
	(0.2 0.2 0.2 0.2 0.2)
	(0.2 0.2 0.2 0.2 0.2)
	(0.2 0.2 0.2 0.2 0.2)
	(0.2 0.2 0.2 0.2 0.2)
	(0.2 0.2 0.2 0.2 0.2)
	(0.2 0.2 0.2 0.2 0.2)
	(0.2 0.2 0.2 0.2 0.2)
	(0.2 0.2 0.2 0.2 0.2)
	(0.2 0.2 0.2 0.2 0.2)
	(0.2 0.2 0.2 0.2 0.2)
	(0.2 0.2 0.2 0.2 0.2)
	(0.2 0.2 0.2 0.2 0.2)
	(0.2 0.2 0.2 0.2 0.2)
	(0.2 0.2 0.2 0.2 0.2)
	(0.2 0.2 0.2 0.2 0.2)
	(0.2 0.2 0.2 0.2 0.2)
	(0.2 0.2 0.2 0.2 0.2)
	(0.2 0.2 0.2 0.2 0.2)
	(0.2 0.2 0.2 0.2 0.2)
	(0.2 0.2 0.2 0.2 0.2)
	(0.2 0.2 0.2 0.2 0.2)
	(0.2 0.2 0.2 0.2 0.2)
	(0.2 0.2 0.2 0.2 0.2)
	(0.2 0.2 0.2 0.2 0.2)
	(0.2 0.2 0.2 0.2 0.2)
	(0.2 0.2 0.2 0.2 0.2)
	(0.2 0.2 0.2 0.2 0.2)
	(0.2 0.2 0.2 0.2 0.2)
	(0.2 0.2 0.2 0.2 0.2)
	(0.2 0.2 0.2 0.2 0.2)
	(0.2 0.2 0.2 0.2 0.2)
	(0.2 0.2 0.2 0.2 0.2)
	(0.2 0.2 0.2 0.2 0.2)
	(0.2 0.2 0.2 0.2 0.2)
	(0.2 0.2 0.2 0.2 0.2)
	(0.2 0.2 0.2 0.2 0.2)
	(0.2 0.2 0.2 0.2 0.2)
	(0.2 0.2 0.2 0.2 0.2)
	(0.2 0.2 0.2 0.2 0.2)
	(0.2 0.2 0.2 0.2 0.2)
	(0.2 0.2 0.2 0.2 0.2)
	(0.2 0.2 0.2 0.2 0.2)
	(0.2 0.2 0.2 0.2 0.2)
	(0.2 0.2 0.2 0.2 0.2)
	(0.2 0.2 0.2 0.2 0.2)
	(0.2 0.2 0.2 0.2 0.2)
	(0.2 0.2 0.2 0.2 0.2)
	(0.2 0.2 0.2 0.2 0.2)
	(0.2 0.2 0.2 0.2 0.2)
	(0.2 0.2 0.2 0.2 0.2)
	(0.2 0.2 0.2 0.2 0.2)
	(0.2 0.2 0.2 0.2 0.2)
	(0.2 0.2 0.2 0.2 0.2)
	(0.2 0.2 0.2 0.2 0.2)
	(0.2 0.2 0.2 0.2 0.2)
	(0.2 0.2 0.2 0.2 0.2)
	(0.2 0.2 0.2 0.2 0.2)
	(0.2 0.2 0.2 0.2 0.2)
	(0.2 0.2 0.2 0.2 0.2)
	(0.2 0.2 0.2 0.2 0.2)
	(0.2 0.2 0.2 0.2 0.2)
	(0.2 0.2 0.2 0.2 0.2)
	(0.2 0.2 0.2 0.2 0.2)
	(0.2 0.2 0.2 0.2 0.2)
	(0.2 0.2 0.2 0.2 0.2)
	(0.2 0.2 0.2 0.2 0.2)
	(0.2 0.2 0.2 0.2 0.2)
	(0.2 0.2 0.2 0.2 0.2)
	(0.2 0.2 0.2 0.2 0.2)
	(0.2 0.2 0.2 0.2 0.2)
	(0.2 0.2 0.2 0.2 0.2)
	(0.2 0.2 0.2 0.2 0.2)
	(0.2 0.2 0.2 0.2 0.2)
	(0.2 0.2 0.2 0.2 0.2)
	(0.2 0.2 0.2 0.2 0.2)
	(0.2 0.2 0.2 0.2 0.2)
	(0.2 0.2 0.2 0.2 0.2)
	(0.2 0.2 0.2 0.2 0.2)
	(0.2 0.2 0.2 0.2 0.2)
	(0.2 0.2 0.2 0.2 0.2)
	(0.2 0.2 0.2 0.2 0.2)
	(0.2 0.2 0.2 0.2 0.2)
	(0.2 0.2 0.2 0.2 0.2)
	(0.2 0.2 0.2 0.2 0.2)
	(0.2 0.2 0.2 0.2 0.2)
	(0.14285714285714285 0.14285714285714285 0.14285714285714285 0.14285714285714285 0.42857142857142855)
	(0.2 0.2 0.2 0.2 0.2)
	(0.2 0.2 0.2 0.2 0.2)
	(0.2 0.2 0.2 0.2 0.2)
	(0.2 0.2 0.2 0.2 0.2)
	(0.2 0.2 0.2 0.2 0.2)
	(0.2 0.2 0.2 0.2 0.2)
	(0.2 0.2 0.2 0.2 0.2)
	(0.2 0.2 0.2 0.2 0.2)
	(0.2 0.2 0.2 0.2 0.2)
	(0.2 0.2 0.2 0.2 0.2)
	(0.2 0.2 0.2 0.2 0.2)
	(0.2 0.2 0.2 0.2 0.2)
	(0.2 0.2 0.2 0.2 0.2)
	(0.2 0.2 0.2 0.2 0.2)
	(0.2 0.2 0.2 0.2 0.2)
	(0.2 0.2 0.2 0.2 0.2)
	(0.2 0.2 0.2 0.2 0.2)
	(0.14285714285714285 0.14285714285714285 0.14285714285714285 0.14285714285714285 0.42857142857142855)
	(0.2 0.2 0.2 0.2 0.2)
	(0.2 0.2 0.2 0.2 0.2)
	(0.2 0.2 0.2 0.2 0.2)
	(0.2 0.2 0.2 0.2 0.2)
	(0.2 0.2 0.2 0.2 0.2)
	(0.2 0.2 0.2 0.2 0.2)
	(0.2 0.2 0.2 0.2 0.2)
	(0.2 0.2 0.2 0.2 0.2)
	(0.2 0.2 0.2 0.2 0.2)
	(0.14285714285714285 0.42857142857142855 0.14285714285714285 0.14285714285714285 0.14285714285714285)
	(0.07692307692307693 0.6923076923076923 0.07692307692307693 0.07692307692307693 0.07692307692307693)
	(0.2 0.2 0.2 0.2 0.2)
	(0.2 0.2 0.2 0.2 0.2)
	(0.2 0.2 0.2 0.2 0.2)
	(0.2 0.2 0.2 0.2 0.2)
	(0.2 0.2 0.2 0.2 0.2)
	(0.2 0.2 0.2 0.2 0.2)
	(0.2 0.2 0.2 0.2 0.2)
	(0.2 0.2 0.2 0.2 0.2)
	(0.2 0.2 0.2 0.2 0.2)
	(0.2 0.2 0.2 0.2 0.2)
	(0.14285714285714285 0.42857142857142855 0.14285714285714285 0.14285714285714285 0.14285714285714285)
	(0.14285714285714285 0.42857142857142855 0.14285714285714285 0.14285714285714285 0.14285714285714285)
	(0.2 0.2 0.2 0.2 0.2)
	(0.2 0.2 0.2 0.2 0.2)
	(0.2 0.2 0.2 0.2 0.2)
	(0.2 0.2 0.2 0.2 0.2)
	(0.2 0.2 0.2 0.2 0.2)
	(0.2 0.2 0.2 0.2 0.2)
	(0.2 0.2 0.2 0.2 0.2)
	(0.2 0.2 0.2 0.2 0.2)
	(0.2 0.2 0.2 0.2 0.2)
	(0.2 0.2 0.2 0.2 0.2)
	(0.2 0.2 0.2 0.2 0.2)
	(0.2 0.2 0.2 0.2 0.2)
	(0.2 0.2 0.2 0.2 0.2)
	(0.2 0.2 0.2 0.2 0.2)
	(0.2 0.2 0.2 0.2 0.2)
	(0.2 0.2 0.2 0.2 0.2)
	(0.2 0.2 0.2 0.2 0.2)
	(0.2 0.2 0.2 0.2 0.2)
	(0.2 0.2 0.2 0.2 0.2)
	(0.2 0.2 0.2 0.2 0.2)
	(0.2 0.2 0.2 0.2 0.2)
	(0.2 0.2 0.2 0.2 0.2)
	(0.2 0.2 0.2 0.2 0.2)
	(0.2 0.2 0.2 0.2 0.2)
	(0.2 0.2 0.2 0.2 0.2)
	(0.2 0.2 0.2 0.2 0.2)
	(0.2 0.2 0.2 0.2 0.2)
	(0.2 0.2 0.2 0.2 0.2)
	(0.2 0.2 0.2 0.2 0.2)
	(0.2 0.2 0.2 0.2 0.2)
	(0.2 0.2 0.2 0.2 0.2)
	(0.2 0.2 0.2 0.2 0.2)
	(0.2 0.2 0.2 0.2 0.2)
	(0.2 0.2 0.2 0.2 0.2)
	(0.06666666666666667 0.6 0.2 0.06666666666666667 0.06666666666666667)
	(0.008849557522123894 0.8761061946902655 0.09734513274336283 0.008849557522123894 0.008849557522123894)
	(0.2 0.2 0.2 0.2 0.2)
	(0.2 0.2 0.2 0.2 0.2)
	(0.2 0.2 0.2 0.2 0.2)
	(0.2 0.2 0.2 0.2 0.2)
	(0.2 0.2 0.2 0.2 0.2)
	(0.2 0.2 0.2 0.2 0.2)
	(0.2 0.2 0.2 0.2 0.2)
	(0.2 0.2 0.2 0.2 0.2)
	(0.2 0.2 0.2 0.2 0.2)
	(0.2 0.2 0.2 0.2 0.2)
	(0.2 0.2 0.2 0.2 0.2)
	(0.14285714285714285 0.14285714285714285 0.42857142857142855 0.14285714285714285 0.14285714285714285)
	(0.2 0.2 0.2 0.2 0.2)
	(0.2 0.2 0.2 0.2 0.2)
	(0.2 0.2 0.2 0.2 0.2)
	(0.2 0.2 0.2 0.2 0.2)
	(0.2 0.2 0.2 0.2 0.2)
	(0.2 0.2 0.2 0.2 0.2)
	(0.2 0.2 0.2 0.2 0.2)
	(0.2 0.2 0.2 0.2 0.2)
	(0.2 0.2 0.2 0.2 0.2)
	(0.2 0.2 0.2 0.2 0.2)
	(0.2 0.2 0.2 0.2 0.2)
	(0.2 0.2 0.2 0.2 0.2)
	(0.2 0.2 0.2 0.2 0.2)
	(0.2 0.2 0.2 0.2 0.2)
	(0.2 0.2 0.2 0.2 0.2)
	(0.2 0.2 0.2 0.2 0.2)
	(0.2 0.2 0.2 0.2 0.2)
	(0.2 0.2 0.2 0.2 0.2)
	(0.2 0.2 0.2 0.2 0.2)
	(0.2 0.2 0.2 0.2 0.2)
	(0.2 0.2 0.2 0.2 0.2)
	(0.2 0.2 0.2 0.2 0.2)
	(0.2 0.2 0.2 0.2 0.2)
	(0.2 0.2 0.2 0.2 0.2)
	(0.2 0.2 0.2 0.2 0.2)
	(0.2 0.2 0.2 0.2 0.2)
	(0.2 0.2 0.2 0.2 0.2)
	(0.2 0.2 0.2 0.2 0.2)
	(0.2 0.2 0.2 0.2 0.2)
	(0.2 0.2 0.2 0.2 0.2)
	(0.2 0.2 0.2 0.2 0.2)
	(0.2 0.2 0.2 0.2 0.2)
	(0.2 0.2 0.2 0.2 0.2)
	(0.2 0.2 0.2 0.2 0.2)
	(0.2 0.2 0.2 0.2 0.2)
	(0.14285714285714285 0.42857142857142855 0.14285714285714285 0.14285714285714285 0.14285714285714285)
	(0.2 0.2 0.2 0.2 0.2)
	(0.2 0.2 0.2 0.2 0.2)
	(0.2 0.2 0.2 0.2 0.2)
	(0.2 0.2 0.2 0.2 0.2)
	(0.2 0.2 0.2 0.2 0.2)
	(0.14285714285714285 0.14285714285714285 0.42857142857142855 0.14285714285714285 0.14285714285714285)
	(0.2 0.2 0.2 0.2 0.2)
	(0.2 0.2 0.2 0.2 0.2)
	(0.2 0.2 0.2 0.2 0.2)
	(0.2 0.2 0.2 0.2 0.2)
	(0.2 0.2 0.2 0.2 0.2)
	(0.2 0.2 0.2 0.2 0.2)
	(0.2 0.2 0.2 0.2 0.2)
	(0.2 0.2 0.2 0.2 0.2)
	(0.2 0.2 0.2 0.2 0.2)
	(0.2 0.2 0.2 0.2 0.2)
	(0.2 0.2 0.2 0.2 0.2)
	(0.2 0.2 0.2 0.2 0.2)
	(0.2 0.2 0.2 0.2 0.2)
	(0.2 0.2 0.2 0.2 0.2)
	(0.2 0.2 0.2 0.2 0.2)
	(0.2 0.2 0.2 0.2 0.2)
	(0.2 0.2 0.2 0.2 0.2)
	(0.2 0.2 0.2 0.2 0.2)
	(0.2 0.2 0.2 0.2 0.2)
	(0.2 0.2 0.2 0.2 0.2)
	(0.2 0.2 0.2 0.2 0.2)
	(0.2 0.2 0.2 0.2 0.2)
	(0.2 0.2 0.2 0.2 0.2)
	(0.2 0.2 0.2 0.2 0.2)
	(0.2 0.2 0.2 0.2 0.2)
	(0.2 0.2 0.2 0.2 0.2)
	(0.2 0.2 0.2 0.2 0.2)
	(0.2 0.2 0.2 0.2 0.2)
	(0.2 0.2 0.2 0.2 0.2)
	(0.2 0.2 0.2 0.2 0.2)
	(0.2 0.2 0.2 0.2 0.2)
	(0.2 0.2 0.2 0.2 0.2)
	(0.2 0.2 0.2 0.2 0.2)
	(0.2 0.2 0.2 0.2 0.2)
	(0.2 0.2 0.2 0.2 0.2)
	(0.2 0.2 0.2 0.2 0.2)
	(0.2 0.2 0.2 0.2 0.2)
	(0.2 0.2 0.2 0.2 0.2)
	(0.2 0.2 0.2 0.2 0.2)
	(0.2 0.2 0.2 0.2 0.2)
	(0.2 0.2 0.2 0.2 0.2)
	(0.2 0.2 0.2 0.2 0.2)
	(0.2 0.2 0.2 0.2 0.2)
	(0.2 0.2 0.2 0.2 0.2)
	(0.2 0.2 0.2 0.2 0.2)
	(0.2 0.2 0.2 0.2 0.2)
	(0.2 0.2 0.2 0.2 0.2)
	(0.2 0.2 0.2 0.2 0.2)
	(0.2 0.2 0.2 0.2 0.2)
	(0.2 0.2 0.2 0.2 0.2)
	(0.2 0.2 0.2 0.2 0.2)
	(0.2 0.2 0.2 0.2 0.2)
	(0.2 0.2 0.2 0.2 0.2)
	(0.2 0.2 0.2 0.2 0.2)
	(0.2 0.2 0.2 0.2 0.2)
	(0.2 0.2 0.2 0.2 0.2)
	(0.2 0.2 0.2 0.2 0.2)
	(0.2 0.2 0.2 0.2 0.2)
	(0.2 0.2 0.2 0.2 0.2)
	(0.2 0.2 0.2 0.2 0.2)
	(0.2 0.2 0.2 0.2 0.2)
	(0.2 0.2 0.2 0.2 0.2)
	(0.2 0.2 0.2 0.2 0.2)
	(0.2 0.2 0.2 0.2 0.2)
	(0.2 0.2 0.2 0.2 0.2)
	(0.2 0.2 0.2 0.2 0.2)
	(0.2 0.2 0.2 0.2 0.2)
	(0.2 0.2 0.2 0.2 0.2)
	(0.2 0.2 0.2 0.2 0.2)
	(0.2 0.2 0.2 0.2 0.2)
	(0.2 0.2 0.2 0.2 0.2)
	(0.2 0.2 0.2 0.2 0.2)
	(0.2 0.2 0.2 0.2 0.2)
	(0.2 0.2 0.2 0.2 0.2)
	(0.2 0.2 0.2 0.2 0.2)
	(0.2 0.2 0.2 0.2 0.2)
	(0.2 0.2 0.2 0.2 0.2)
	(0.2 0.2 0.2 0.2 0.2)
	(0.2 0.2 0.2 0.2 0.2)
	(0.2 0.2 0.2 0.2 0.2)
	(0.2 0.2 0.2 0.2 0.2)
	(0.2 0.2 0.2 0.2 0.2)
	(0.2 0.2 0.2 0.2 0.2)
	(0.2 0.2 0.2 0.2 0.2)
	(0.2 0.2 0.2 0.2 0.2)
	(0.2 0.2 0.2 0.2 0.2)
	(0.2 0.2 0.2 0.2 0.2)
	(0.1111111111111111 0.1111111111111111 0.3333333333333333 0.1111111111111111 0.3333333333333333)
	(0.1111111111111111 0.3333333333333333 0.3333333333333333 0.1111111111111111 0.1111111111111111)
	(0.2 0.2 0.2 0.2 0.2)
	(0.2 0.2 0.2 0.2 0.2)
	(0.2 0.2 0.2 0.2 0.2)
	(0.2 0.2 0.2 0.2 0.2)
	(0.2 0.2 0.2 0.2 0.2)
	(0.2 0.2 0.2 0.2 0.2)
	(0.2 0.2 0.2 0.2 0.2)
	(0.2 0.2 0.2 0.2 0.2)
	(0.2 0.2 0.2 0.2 0.2)
	(0.2 0.2 0.2 0.2 0.2)
	(0.2 0.2 0.2 0.2 0.2)
	(0.2 0.2 0.2 0.2 0.2)
	(0.2 0.2 0.2 0.2 0.2)
	(0.2 0.2 0.2 0.2 0.2)
	(0.2 0.2 0.2 0.2 0.2)
	(0.2 0.2 0.2 0.2 0.2)
	(0.2 0.2 0.2 0.2 0.2)
	(0.2 0.2 0.2 0.2 0.2)
	(0.2 0.2 0.2 0.2 0.2)
	(0.2 0.2 0.2 0.2 0.2)
	(0.2 0.2 0.2 0.2 0.2)
	(0.2 0.2 0.2 0.2 0.2)
	(0.2 0.2 0.2 0.2 0.2)
	(0.2 0.2 0.2 0.2 0.2)
	(0.2 0.2 0.2 0.2 0.2)
	(0.2 0.2 0.2 0.2 0.2)
	(0.2 0.2 0.2 0.2 0.2)
	(0.2 0.2 0.2 0.2 0.2)
	(0.2 0.2 0.2 0.2 0.2)
	(0.2 0.2 0.2 0.2 0.2)
	(0.2 0.2 0.2 0.2 0.2)
	(0.2 0.2 0.2 0.2 0.2)
	(0.2 0.2 0.2 0.2 0.2)
	(0.2 0.2 0.2 0.2 0.2)
	(0.14285714285714285 0.14285714285714285 0.14285714285714285 0.14285714285714285 0.42857142857142855)
	(0.2 0.2 0.2 0.2 0.2)
	(0.2 0.2 0.2 0.2 0.2)
	(0.2 0.2 0.2 0.2 0.2)
	(0.2 0.2 0.2 0.2 0.2)
	(0.2 0.2 0.2 0.2 0.2)
	(0.2 0.2 0.2 0.2 0.2)
	(0.2 0.2 0.2 0.2 0.2)
	(0.2 0.2 0.2 0.2 0.2)
	(0.2 0.2 0.2 0.2 0.2)
	(0.2 0.2 0.2 0.2 0.2)
	(0.2 0.2 0.2 0.2 0.2)
	(0.2 0.2 0.2 0.2 0.2)
	(0.2 0.2 0.2 0.2 0.2)
	(0.09090909090909091 0.6363636363636364 0.09090909090909091 0.09090909090909091 0.09090909090909091)
	(0.2 0.2 0.2 0.2 0.2)
	(0.2 0.2 0.2 0.2 0.2)
	(0.2 0.2 0.2 0.2 0.2)
	(0.2 0.2 0.2 0.2 0.2)
	(0.2 0.2 0.2 0.2 0.2)
	(0.2 0.2 0.2 0.2 0.2)
	(0.2 0.2 0.2 0.2 0.2)
	(0.2 0.2 0.2 0.2 0.2)
	(0.2 0.2 0.2 0.2 0.2)
	(0.2 0.2 0.2 0.2 0.2)
	(0.2 0.2 0.2 0.2 0.2)
	(0.2 0.2 0.2 0.2 0.2)
	(0.2 0.2 0.2 0.2 0.2)
	(0.2 0.2 0.2 0.2 0.2)
	(0.2 0.2 0.2 0.2 0.2)
	(0.2 0.2 0.2 0.2 0.2)
	(0.2 0.2 0.2 0.2 0.2)
	(0.2 0.2 0.2 0.2 0.2)
	(0.2 0.2 0.2 0.2 0.2)
	(0.2 0.2 0.2 0.2 0.2)
	(0.2 0.2 0.2 0.2 0.2)
	(0.2 0.2 0.2 0.2 0.2)
	(0.2 0.2 0.2 0.2 0.2)
	(0.2 0.2 0.2 0.2 0.2)
	(0.2 0.2 0.2 0.2 0.2)
	(0.2 0.2 0.2 0.2 0.2)
	(0.2 0.2 0.2 0.2 0.2)
	(0.2 0.2 0.2 0.2 0.2)
	(0.2 0.2 0.2 0.2 0.2)
	(0.2 0.2 0.2 0.2 0.2)
	(0.2 0.2 0.2 0.2 0.2)
	(0.2 0.2 0.2 0.2 0.2)
	(0.2 0.2 0.2 0.2 0.2)
	(0.2 0.2 0.2 0.2 0.2)
	(0.2 0.2 0.2 0.2 0.2)
	(0.2 0.2 0.2 0.2 0.2)
	(0.2 0.2 0.2 0.2 0.2)
	(0.2 0.2 0.2 0.2 0.2)
	(0.2 0.2 0.2 0.2 0.2)
	(0.2 0.2 0.2 0.2 0.2)
	(0.2 0.2 0.2 0.2 0.2)
	(0.2 0.2 0.2 0.2 0.2)
	(0.2 0.2 0.2 0.2 0.2)
	(0.2 0.2 0.2 0.2 0.2)
	(0.2 0.2 0.2 0.2 0.2)
	(0.2 0.2 0.2 0.2 0.2)
	(0.2 0.2 0.2 0.2 0.2)
	(0.14285714285714285 0.42857142857142855 0.14285714285714285 0.14285714285714285 0.14285714285714285)
	(0.2 0.2 0.2 0.2 0.2)
	(0.2 0.2 0.2 0.2 0.2)
	(0.2 0.2 0.2 0.2 0.2)
	(0.2 0.2 0.2 0.2 0.2)
	(0.2 0.2 0.2 0.2 0.2)
	(0.2 0.2 0.2 0.2 0.2)
	(0.2 0.2 0.2 0.2 0.2)
	(0.2 0.2 0.2 0.2 0.2)
	(0.2 0.2 0.2 0.2 0.2)
	(0.2 0.2 0.2 0.2 0.2)
	(0.2 0.2 0.2 0.2 0.2)
	(0.2 0.2 0.2 0.2 0.2)
	(0.2 0.2 0.2 0.2 0.2)
	(0.2 0.2 0.2 0.2 0.2)
	(0.2 0.2 0.2 0.2 0.2)
	(0.2 0.2 0.2 0.2 0.2)
	(0.2 0.2 0.2 0.2 0.2)
	(0.2 0.2 0.2 0.2 0.2)
	(0.2 0.2 0.2 0.2 0.2)
	(0.2 0.2 0.2 0.2 0.2)
	(0.2 0.2 0.2 0.2 0.2)
	(0.2 0.2 0.2 0.2 0.2)
	(0.2 0.2 0.2 0.2 0.2)
	(0.2 0.2 0.2 0.2 0.2)
	(0.2 0.2 0.2 0.2 0.2)
	(0.2 0.2 0.2 0.2 0.2)
	(0.2 0.2 0.2 0.2 0.2)
	(0.2 0.2 0.2 0.2 0.2)
	(0.2 0.2 0.2 0.2 0.2)
	(0.2 0.2 0.2 0.2 0.2)
	(0.2 0.2 0.2 0.2 0.2)
	(0.2 0.2 0.2 0.2 0.2)
	(0.2 0.2 0.2 0.2 0.2)
	(0.2 0.2 0.2 0.2 0.2)
	(0.2 0.2 0.2 0.2 0.2)
	(0.2 0.2 0.2 0.2 0.2)
	(0.2 0.2 0.2 0.2 0.2)
	(0.2 0.2 0.2 0.2 0.2)
	(0.2 0.2 0.2 0.2 0.2)
	(0.2 0.2 0.2 0.2 0.2)
	(0.2 0.2 0.2 0.2 0.2)
	(0.2 0.2 0.2 0.2 0.2)
	(0.2 0.2 0.2 0.2 0.2)
	(0.2 0.2 0.2 0.2 0.2)
	(0.2 0.2 0.2 0.2 0.2)
	(0.2 0.2 0.2 0.2 0.2)
	(0.2 0.2 0.2 0.2 0.2)
	(0.2 0.2 0.2 0.2 0.2)
	(0.2 0.2 0.2 0.2 0.2)
	(0.2 0.2 0.2 0.2 0.2)
	(0.2 0.2 0.2 0.2 0.2)
	(0.2 0.2 0.2 0.2 0.2)
	(0.2 0.2 0.2 0.2 0.2)
	(0.2 0.2 0.2 0.2 0.2)
	(0.2 0.2 0.2 0.2 0.2)
	(0.2 0.2 0.2 0.2 0.2)
	(0.2 0.2 0.2 0.2 0.2)
	(0.2 0.2 0.2 0.2 0.2)
	(0.2 0.2 0.2 0.2 0.2)
	(0.2 0.2 0.2 0.2 0.2)
	(0.2 0.2 0.2 0.2 0.2)
	(0.2 0.2 0.2 0.2 0.2)
	(0.2 0.2 0.2 0.2 0.2)
	(0.2 0.2 0.2 0.2 0.2)
	(0.2 0.2 0.2 0.2 0.2)
	(0.2 0.2 0.2 0.2 0.2)
	(0.2 0.2 0.2 0.2 0.2)
	(0.2 0.2 0.2 0.2 0.2)
	(0.2 0.2 0.2 0.2 0.2)
	(0.2 0.2 0.2 0.2 0.2)
	(0.2 0.2 0.2 0.2 0.2)
	(0.2 0.2 0.2 0.2 0.2)
	(0.2 0.2 0.2 0.2 0.2)
	(0.2 0.2 0.2 0.2 0.2)
	(0.2 0.2 0.2 0.2 0.2)
	(0.2 0.2 0.2 0.2 0.2)
	(0.2 0.2 0.2 0.2 0.2)
	(0.2 0.2 0.2 0.2 0.2)
	(0.2 0.2 0.2 0.2 0.2)
	(0.2 0.2 0.2 0.2 0.2)
	(0.2 0.2 0.2 0.2 0.2)
	(0.2 0.2 0.2 0.2 0.2)
	(0.2 0.2 0.2 0.2 0.2)
	(0.2 0.2 0.2 0.2 0.2)
	(0.14285714285714285 0.14285714285714285 0.14285714285714285 0.14285714285714285 0.42857142857142855)
	(0.2 0.2 0.2 0.2 0.2)
	(0.2 0.2 0.2 0.2 0.2)
	(0.2 0.2 0.2 0.2 0.2)
	(0.2 0.2 0.2 0.2 0.2)
	(0.2 0.2 0.2 0.2 0.2)
	(0.2 0.2 0.2 0.2 0.2)
	(0.2 0.2 0.2 0.2 0.2)
	(0.2 0.2 0.2 0.2 0.2)
	(0.2 0.2 0.2 0.2 0.2)
	(0.2 0.2 0.2 0.2 0.2)
	(0.14285714285714285 0.42857142857142855 0.14285714285714285 0.14285714285714285 0.14285714285714285)
	(0.2 0.2 0.2 0.2 0.2)
	(0.2 0.2 0.2 0.2 0.2)
	(0.2 0.2 0.2 0.2 0.2)
	(0.2 0.2 0.2 0.2 0.2)
	(0.2 0.2 0.2 0.2 0.2)
	(0.2 0.2 0.2 0.2 0.2)
	(0.2 0.2 0.2 0.2 0.2)
	(0.2 0.2 0.2 0.2 0.2)
	(0.2 0.2 0.2 0.2 0.2)
	(0.2 0.2 0.2 0.2 0.2)
	(0.2 0.2 0.2 0.2 0.2)
	(0.2 0.2 0.2 0.2 0.2)
	(0.2 0.2 0.2 0.2 0.2)
	(0.2 0.2 0.2 0.2 0.2)
	(0.2 0.2 0.2 0.2 0.2)
	(0.2 0.2 0.2 0.2 0.2)
	(0.2 0.2 0.2 0.2 0.2)
	(0.2 0.2 0.2 0.2 0.2)
	(0.2 0.2 0.2 0.2 0.2)
	(0.2 0.2 0.2 0.2 0.2)
	(0.2 0.2 0.2 0.2 0.2)
	(0.2 0.2 0.2 0.2 0.2)
	(0.2 0.2 0.2 0.2 0.2)
	(0.2 0.2 0.2 0.2 0.2)
	(0.2 0.2 0.2 0.2 0.2)
	(0.2 0.2 0.2 0.2 0.2)
	(0.2 0.2 0.2 0.2 0.2)
	(0.2 0.2 0.2 0.2 0.2)
	(0.2 0.2 0.2 0.2 0.2)
	(0.2 0.2 0.2 0.2 0.2)
	(0.2 0.2 0.2 0.2 0.2)
	(0.2 0.2 0.2 0.2 0.2)
	(0.2 0.2 0.2 0.2 0.2)
	(0.2 0.2 0.2 0.2 0.2)
	(0.2 0.2 0.2 0.2 0.2)
	(0.2 0.2 0.2 0.2 0.2)
	(0.2 0.2 0.2 0.2 0.2)
	(0.2 0.2 0.2 0.2 0.2)
	(0.2 0.2 0.2 0.2 0.2)
	(0.2 0.2 0.2 0.2 0.2)
	(0.2 0.2 0.2 0.2 0.2)
	(0.2 0.2 0.2 0.2 0.2)
	(0.14285714285714285 0.42857142857142855 0.14285714285714285 0.14285714285714285 0.14285714285714285)
	(0.2 0.2 0.2 0.2 0.2)
	(0.2 0.2 0.2 0.2 0.2)
	(0.2 0.2 0.2 0.2 0.2)
	(0.2 0.2 0.2 0.2 0.2)
	(0.2 0.2 0.2 0.2 0.2)
	(0.2 0.2 0.2 0.2 0.2)
	(0.2 0.2 0.2 0.2 0.2)
	(0.2 0.2 0.2 0.2 0.2)
	(0.2 0.2 0.2 0.2 0.2)
	(0.2 0.2 0.2 0.2 0.2)
	(0.2 0.2 0.2 0.2 0.2)
	(0.2 0.2 0.2 0.2 0.2)
	(0.2 0.2 0.2 0.2 0.2)
	(0.2 0.2 0.2 0.2 0.2)
	(0.2 0.2 0.2 0.2 0.2)
	(0.2 0.2 0.2 0.2 0.2)
	(0.2 0.2 0.2 0.2 0.2)
	(0.2 0.2 0.2 0.2 0.2)
	(0.2 0.2 0.2 0.2 0.2)
	(0.2 0.2 0.2 0.2 0.2)
	(0.2 0.2 0.2 0.2 0.2)
	(0.2 0.2 0.2 0.2 0.2)
	(0.2 0.2 0.2 0.2 0.2)
	(0.2 0.2 0.2 0.2 0.2)
	(0.2 0.2 0.2 0.2 0.2)
	(0.2 0.2 0.2 0.2 0.2)
	(0.2 0.2 0.2 0.2 0.2)
	(0.2 0.2 0.2 0.2 0.2)
	(0.2 0.2 0.2 0.2 0.2)
	(0.2 0.2 0.2 0.2 0.2)
	(0.2 0.2 0.2 0.2 0.2)
	(0.2 0.2 0.2 0.2 0.2)
	(0.2 0.2 0.2 0.2 0.2)
	(0.2 0.2 0.2 0.2 0.2)
	(0.2 0.2 0.2 0.2 0.2)
	(0.2 0.2 0.2 0.2 0.2)
	(0.2 0.2 0.2 0.2 0.2)
	(0.2 0.2 0.2 0.2 0.2)
	(0.2 0.2 0.2 0.2 0.2)
	(0.2 0.2 0.2 0.2 0.2)
	(0.2 0.2 0.2 0.2 0.2)
	(0.2 0.2 0.2 0.2 0.2)
	(0.2 0.2 0.2 0.2 0.2)
	(0.2 0.2 0.2 0.2 0.2)
	(0.2 0.2 0.2 0.2 0.2)
	(0.2 0.2 0.2 0.2 0.2)
	(0.2 0.2 0.2 0.2 0.2)
	(0.2 0.2 0.2 0.2 0.2)
	(0.2 0.2 0.2 0.2 0.2)
	(0.2 0.2 0.2 0.2 0.2)
	(0.2 0.2 0.2 0.2 0.2)
	(0.2 0.2 0.2 0.2 0.2)
	(0.2 0.2 0.2 0.2 0.2)
	(0.2 0.2 0.2 0.2 0.2)
	(0.2 0.2 0.2 0.2 0.2)
	(0.2 0.2 0.2 0.2 0.2)
	(0.2 0.2 0.2 0.2 0.2)
	(0.2 0.2 0.2 0.2 0.2)
	(0.2 0.2 0.2 0.2 0.2)
	(0.2 0.2 0.2 0.2 0.2)
	(0.2 0.2 0.2 0.2 0.2)
	(0.2 0.2 0.2 0.2 0.2)
	(0.2 0.2 0.2 0.2 0.2)
	(0.2 0.2 0.2 0.2 0.2)
	(0.2 0.2 0.2 0.2 0.2)
	(0.2 0.2 0.2 0.2 0.2)
	(0.2 0.2 0.2 0.2 0.2)
	(0.2 0.2 0.2 0.2 0.2)
	(0.2 0.2 0.2 0.2 0.2)
	(0.2 0.2 0.2 0.2 0.2)
	(0.2 0.2 0.2 0.2 0.2)
	(0.2 0.2 0.2 0.2 0.2)
	(0.2 0.2 0.2 0.2 0.2)
	(0.2 0.2 0.2 0.2 0.2)
	(0.2 0.2 0.2 0.2 0.2)
	(0.2 0.2 0.2 0.2 0.2)
	(0.2 0.2 0.2 0.2 0.2)
	(0.2 0.2 0.2 0.2 0.2)
	(0.2 0.2 0.2 0.2 0.2)
	(0.2 0.2 0.2 0.2 0.2)
	(0.2 0.2 0.2 0.2 0.2)
	(0.2 0.2 0.2 0.2 0.2)
	(0.2 0.2 0.2 0.2 0.2)
	(0.2 0.2 0.2 0.2 0.2)
	(0.2 0.2 0.2 0.2 0.2)
	(0.2 0.2 0.2 0.2 0.2)
	(0.2 0.2 0.2 0.2 0.2)
	(0.2 0.2 0.2 0.2 0.2)
	(0.2 0.2 0.2 0.2 0.2)
	(0.2 0.2 0.2 0.2 0.2)
	(0.2 0.2 0.2 0.2 0.2)
	(0.2 0.2 0.2 0.2 0.2)
	(0.2 0.2 0.2 0.2 0.2)
	(0.2 0.2 0.2 0.2 0.2)
	(0.2 0.2 0.2 0.2 0.2)
	(0.14285714285714285 0.14285714285714285 0.14285714285714285 0.42857142857142855 0.14285714285714285)
	(0.2 0.2 0.2 0.2 0.2)
	(0.2 0.2 0.2 0.2 0.2)
	(0.2 0.2 0.2 0.2 0.2)
	(0.2 0.2 0.2 0.2 0.2)
	(0.2 0.2 0.2 0.2 0.2)
	(0.14285714285714285 0.14285714285714285 0.14285714285714285 0.14285714285714285 0.42857142857142855)
	(0.2 0.2 0.2 0.2 0.2)
	(0.2 0.2 0.2 0.2 0.2)
	(0.2 0.2 0.2 0.2 0.2)
	(0.2 0.2 0.2 0.2 0.2)
	(0.2 0.2 0.2 0.2 0.2)
	(0.2 0.2 0.2 0.2 0.2)
	(0.2 0.2 0.2 0.2 0.2)
	(0.2 0.2 0.2 0.2 0.2)
	(0.2 0.2 0.2 0.2 0.2)
	(0.2 0.2 0.2 0.2 0.2)
	(0.2 0.2 0.2 0.2 0.2)
	(0.2 0.2 0.2 0.2 0.2)
	(0.2 0.2 0.2 0.2 0.2)
	(0.2 0.2 0.2 0.2 0.2)
	(0.2 0.2 0.2 0.2 0.2)
	(0.2 0.2 0.2 0.2 0.2)
	(0.2 0.2 0.2 0.2 0.2)
	(0.2 0.2 0.2 0.2 0.2)
	(0.2 0.2 0.2 0.2 0.2)
	(0.2 0.2 0.2 0.2 0.2)
	(0.2 0.2 0.2 0.2 0.2)
	(0.2 0.2 0.2 0.2 0.2)
	(0.2 0.2 0.2 0.2 0.2)
	(0.14285714285714285 0.14285714285714285 0.14285714285714285 0.14285714285714285 0.42857142857142855)
	(0.2 0.2 0.2 0.2 0.2)
	(0.2 0.2 0.2 0.2 0.2)
	(0.2 0.2 0.2 0.2 0.2)
	(0.2 0.2 0.2 0.2 0.2)
	(0.2 0.2 0.2 0.2 0.2)
	(0.2 0.2 0.2 0.2 0.2)
	(0.2 0.2 0.2 0.2 0.2)
	(0.2 0.2 0.2 0.2 0.2)
	(0.2 0.2 0.2 0.2 0.2)
	(0.2 0.2 0.2 0.2 0.2)
	(0.2 0.2 0.2 0.2 0.2)
	(0.05263157894736842 0.05263157894736842 0.05263157894736842 0.05263157894736842 0.7894736842105263)
	(0.2 0.2 0.2 0.2 0.2)
	(0.2 0.2 0.2 0.2 0.2)
	(0.14285714285714285 0.14285714285714285 0.14285714285714285 0.14285714285714285 0.42857142857142855)
	(0.2 0.2 0.2 0.2 0.2)
	(0.2 0.2 0.2 0.2 0.2)
	(0.2 0.2 0.2 0.2 0.2)
	(0.2 0.2 0.2 0.2 0.2)
	(0.2 0.2 0.2 0.2 0.2)
	(0.2 0.2 0.2 0.2 0.2)
	(0.2 0.2 0.2 0.2 0.2)
	(0.2 0.2 0.2 0.2 0.2)
	(0.2 0.2 0.2 0.2 0.2)
	(0.2 0.2 0.2 0.2 0.2)
	(0.2 0.2 0.2 0.2 0.2)
	(0.2 0.2 0.2 0.2 0.2)
	(0.2 0.2 0.2 0.2 0.2)
	(0.2 0.2 0.2 0.2 0.2)
	(0.2 0.2 0.2 0.2 0.2)
	(0.2 0.2 0.2 0.2 0.2)
	(0.2 0.2 0.2 0.2 0.2)
	(0.2 0.2 0.2 0.2 0.2)
	(0.2 0.2 0.2 0.2 0.2)
	(0.2 0.2 0.2 0.2 0.2)
	(0.2 0.2 0.2 0.2 0.2)
	(0.2 0.2 0.2 0.2 0.2)
	(0.2 0.2 0.2 0.2 0.2)
	(0.2 0.2 0.2 0.2 0.2)
	(0.2 0.2 0.2 0.2 0.2)
	(0.2 0.2 0.2 0.2 0.2)
	(0.2 0.2 0.2 0.2 0.2)
	(0.2 0.2 0.2 0.2 0.2)
	(0.2 0.2 0.2 0.2 0.2)
	(0.2 0.2 0.2 0.2 0.2)
	(0.2 0.2 0.2 0.2 0.2)
	(0.2 0.2 0.2 0.2 0.2)
	(0.2 0.2 0.2 0.2 0.2)
	(0.2 0.2 0.2 0.2 0.2)
	(0.2 0.2 0.2 0.2 0.2)
	(0.2 0.2 0.2 0.2 0.2)
	(0.2 0.2 0.2 0.2 0.2)
	(0.2 0.2 0.2 0.2 0.2)
	(0.2 0.2 0.2 0.2 0.2)
	(0.2 0.2 0.2 0.2 0.2)
	(0.2 0.2 0.2 0.2 0.2)
	(0.2 0.2 0.2 0.2 0.2)
	(0.2 0.2 0.2 0.2 0.2)
	(0.2 0.2 0.2 0.2 0.2)
	(0.2 0.2 0.2 0.2 0.2)
	(0.2 0.2 0.2 0.2 0.2)
	(0.2 0.2 0.2 0.2 0.2)
	(0.2 0.2 0.2 0.2 0.2)
	(0.2 0.2 0.2 0.2 0.2)
	(0.2 0.2 0.2 0.2 0.2)
	(0.2 0.2 0.2 0.2 0.2)
	(0.2 0.2 0.2 0.2 0.2)
	(0.2 0.2 0.2 0.2 0.2)
	(0.2 0.2 0.2 0.2 0.2)
	(0.2 0.2 0.2 0.2 0.2)
	(0.2 0.2 0.2 0.2 0.2)
	(0.2 0.2 0.2 0.2 0.2)
	(0.2 0.2 0.2 0.2 0.2)
	(0.2 0.2 0.2 0.2 0.2)
	(0.2 0.2 0.2 0.2 0.2)
	(0.2 0.2 0.2 0.2 0.2)
	(0.2 0.2 0.2 0.2 0.2)
	(0.2 0.2 0.2 0.2 0.2)
	(0.2 0.2 0.2 0.2 0.2)
	(0.2 0.2 0.2 0.2 0.2)
	(0.2 0.2 0.2 0.2 0.2)
	(0.2 0.2 0.2 0.2 0.2)
	(0.2 0.2 0.2 0.2 0.2)
	(0.2 0.2 0.2 0.2 0.2)
	(0.2 0.2 0.2 0.2 0.2)
	(0.2 0.2 0.2 0.2 0.2)
	(0.2 0.2 0.2 0.2 0.2)
	(0.2 0.2 0.2 0.2 0.2)
	(0.2 0.2 0.2 0.2 0.2)
	(0.2 0.2 0.2 0.2 0.2)
	(0.2 0.2 0.2 0.2 0.2)
	(0.2 0.2 0.2 0.2 0.2)
	(0.2 0.2 0.2 0.2 0.2)
	(0.2 0.2 0.2 0.2 0.2)
	(0.2 0.2 0.2 0.2 0.2)
	(0.2 0.2 0.2 0.2 0.2)
	(0.2 0.2 0.2 0.2 0.2)
	(0.2 0.2 0.2 0.2 0.2)
	(0.2 0.2 0.2 0.2 0.2)
	(0.2 0.2 0.2 0.2 0.2)
	(0.2 0.2 0.2 0.2 0.2)
	(0.2 0.2 0.2 0.2 0.2)
	(0.2 0.2 0.2 0.2 0.2)
	(0.2 0.2 0.2 0.2 0.2)
	(0.2 0.2 0.2 0.2 0.2)
	(0.2 0.2 0.2 0.2 0.2)
	(0.2 0.2 0.2 0.2 0.2)
	(0.2 0.2 0.2 0.2 0.2)
	(0.2 0.2 0.2 0.2 0.2)
	(0.2 0.2 0.2 0.2 0.2)
	(0.2 0.2 0.2 0.2 0.2)
	(0.2 0.2 0.2 0.2 0.2)
	(0.2 0.2 0.2 0.2 0.2)
	(0.2 0.2 0.2 0.2 0.2)
	(0.2 0.2 0.2 0.2 0.2)
	(0.2 0.2 0.2 0.2 0.2)
	(0.2 0.2 0.2 0.2 0.2)
	(0.2 0.2 0.2 0.2 0.2)
	(0.2 0.2 0.2 0.2 0.2)
	(0.2 0.2 0.2 0.2 0.2)
	(0.2 0.2 0.2 0.2 0.2)
	(0.2 0.2 0.2 0.2 0.2)
	(0.2 0.2 0.2 0.2 0.2)
	(0.2 0.2 0.2 0.2 0.2)
	(0.2 0.2 0.2 0.2 0.2)
	(0.2 0.2 0.2 0.2 0.2)
	(0.2 0.2 0.2 0.2 0.2)
	(0.2 0.2 0.2 0.2 0.2)
	(0.2 0.2 0.2 0.2 0.2)
	(0.2 0.2 0.2 0.2 0.2)
	(0.2 0.2 0.2 0.2 0.2)
	(0.2 0.2 0.2 0.2 0.2)
	(0.2 0.2 0.2 0.2 0.2)
	(0.2 0.2 0.2 0.2 0.2)
	(0.2 0.2 0.2 0.2 0.2)
	(0.2 0.2 0.2 0.2 0.2)
	(0.2 0.2 0.2 0.2 0.2)
	(0.2 0.2 0.2 0.2 0.2)
	(0.2 0.2 0.2 0.2 0.2)
	(0.2 0.2 0.2 0.2 0.2)
	(0.2 0.2 0.2 0.2 0.2)
	(0.2 0.2 0.2 0.2 0.2)
	(0.2 0.2 0.2 0.2 0.2)
	(0.2 0.2 0.2 0.2 0.2)
	(0.2 0.2 0.2 0.2 0.2)
	(0.2 0.2 0.2 0.2 0.2)
	(0.2 0.2 0.2 0.2 0.2)
	(0.2 0.2 0.2 0.2 0.2)
	(0.2 0.2 0.2 0.2 0.2)
	(0.2 0.2 0.2 0.2 0.2)
	(0.2 0.2 0.2 0.2 0.2)
	(0.2 0.2 0.2 0.2 0.2)
	(0.2 0.2 0.2 0.2 0.2)
	(0.2 0.2 0.2 0.2 0.2)
	(0.2 0.2 0.2 0.2 0.2)
	(0.2 0.2 0.2 0.2 0.2)
	(0.2 0.2 0.2 0.2 0.2)
	(0.2 0.2 0.2 0.2 0.2)
	(0.2 0.2 0.2 0.2 0.2)
	(0.2 0.2 0.2 0.2 0.2)
	(0.2 0.2 0.2 0.2 0.2)
	(0.2 0.2 0.2 0.2 0.2)
	(0.2 0.2 0.2 0.2 0.2)
	(0.2 0.2 0.2 0.2 0.2)
	(0.2 0.2 0.2 0.2 0.2)
	(0.2 0.2 0.2 0.2 0.2)
	(0.2 0.2 0.2 0.2 0.2)
	(0.2 0.2 0.2 0.2 0.2)
	(0.2 0.2 0.2 0.2 0.2)
	(0.2 0.2 0.2 0.2 0.2)
	(0.2 0.2 0.2 0.2 0.2)
	(0.2 0.2 0.2 0.2 0.2)
	(0.2 0.2 0.2 0.2 0.2)
	(0.2 0.2 0.2 0.2 0.2)
	(0.2 0.2 0.2 0.2 0.2)
	(0.2 0.2 0.2 0.2 0.2)
	(0.2 0.2 0.2 0.2 0.2)
	(0.2 0.2 0.2 0.2 0.2)
	(0.2 0.2 0.2 0.2 0.2)
	(0.2 0.2 0.2 0.2 0.2)
	(0.2 0.2 0.2 0.2 0.2)
	(0.2 0.2 0.2 0.2 0.2)
	(0.2 0.2 0.2 0.2 0.2)
	(0.2 0.2 0.2 0.2 0.2)
	(0.2 0.2 0.2 0.2 0.2)
	(0.2 0.2 0.2 0.2 0.2)
	(0.2 0.2 0.2 0.2 0.2)
	(0.2 0.2 0.2 0.2 0.2)
	(0.2 0.2 0.2 0.2 0.2)
	(0.2 0.2 0.2 0.2 0.2)
	(0.2 0.2 0.2 0.2 0.2)
	(0.2 0.2 0.2 0.2 0.2)
	(0.2 0.2 0.2 0.2 0.2)
	(0.2 0.2 0.2 0.2 0.2)
	(0.2 0.2 0.2 0.2 0.2)
	(0.2 0.2 0.2 0.2 0.2)
	(0.2 0.2 0.2 0.2 0.2)
	(0.2 0.2 0.2 0.2 0.2)
	(0.2 0.2 0.2 0.2 0.2)
	(0.2 0.2 0.2 0.2 0.2)
	(0.2 0.2 0.2 0.2 0.2)
	(0.2 0.2 0.2 0.2 0.2)
	(0.2 0.2 0.2 0.2 0.2)
	(0.2 0.2 0.2 0.2 0.2)
	(0.2 0.2 0.2 0.2 0.2)
	(0.2 0.2 0.2 0.2 0.2)
	(0.2 0.2 0.2 0.2 0.2)
	(0.2 0.2 0.2 0.2 0.2)
	(0.2 0.2 0.2 0.2 0.2)
	(0.2 0.2 0.2 0.2 0.2)
	(0.2 0.2 0.2 0.2 0.2)
	(0.2 0.2 0.2 0.2 0.2)
	(0.2 0.2 0.2 0.2 0.2)
	(0.2 0.2 0.2 0.2 0.2)
	(0.2 0.2 0.2 0.2 0.2)
	(0.2 0.2 0.2 0.2 0.2)
	(0.2 0.2 0.2 0.2 0.2)
	(0.2 0.2 0.2 0.2 0.2)
	(0.2 0.2 0.2 0.2 0.2)
	(0.2 0.2 0.2 0.2 0.2)
	(0.2 0.2 0.2 0.2 0.2)
	(0.2 0.2 0.2 0.2 0.2)
	(0.2 0.2 0.2 0.2 0.2)
	(0.2 0.2 0.2 0.2 0.2)
	(0.2 0.2 0.2 0.2 0.2)
	(0.2 0.2 0.2 0.2 0.2)
	(0.2 0.2 0.2 0.2 0.2)
	(0.2 0.2 0.2 0.2 0.2)
	(0.2 0.2 0.2 0.2 0.2)
	(0.2 0.2 0.2 0.2 0.2)
	(0.2 0.2 0.2 0.2 0.2)
	(0.2 0.2 0.2 0.2 0.2)
	(0.2 0.2 0.2 0.2 0.2)
	(0.2 0.2 0.2 0.2 0.2)
	(0.2 0.2 0.2 0.2 0.2)
	(0.2 0.2 0.2 0.2 0.2)
	(0.2 0.2 0.2 0.2 0.2)
	(0.2 0.2 0.2 0.2 0.2)
	(0.2 0.2 0.2 0.2 0.2)
	(0.2 0.2 0.2 0.2 0.2)
	(0.2 0.2 0.2 0.2 0.2)
	(0.2 0.2 0.2 0.2 0.2)
	(0.2 0.2 0.2 0.2 0.2)
	(0.2 0.2 0.2 0.2 0.2)
	(0.2 0.2 0.2 0.2 0.2)
	(0.2 0.2 0.2 0.2 0.2)
	(0.2 0.2 0.2 0.2 0.2)
	(0.2 0.2 0.2 0.2 0.2)
	(0.2 0.2 0.2 0.2 0.2)
	(0.2 0.2 0.2 0.2 0.2)
	(0.2 0.2 0.2 0.2 0.2)
	(0.2 0.2 0.2 0.2 0.2)
	(0.2 0.2 0.2 0.2 0.2)
	(0.2 0.2 0.2 0.2 0.2)
	(0.2 0.2 0.2 0.2 0.2)
	(0.2 0.2 0.2 0.2 0.2)
	(0.2 0.2 0.2 0.2 0.2)
	(0.2 0.2 0.2 0.2 0.2)
	(0.2 0.2 0.2 0.2 0.2)
	(0.2 0.2 0.2 0.2 0.2)
	(0.2 0.2 0.2 0.2 0.2)
	(0.2 0.2 0.2 0.2 0.2)
	(0.2 0.2 0.2 0.2 0.2)
	(0.2 0.2 0.2 0.2 0.2)
	(0.2 0.2 0.2 0.2 0.2)
	(0.2 0.2 0.2 0.2 0.2)
	(0.2 0.2 0.2 0.2 0.2)
	(0.2 0.2 0.2 0.2 0.2)
	(0.2 0.2 0.2 0.2 0.2)
	(0.2 0.2 0.2 0.2 0.2)
	(0.2 0.2 0.2 0.2 0.2)
	(0.2 0.2 0.2 0.2 0.2)
	(0.2 0.2 0.2 0.2 0.2)
	(0.2 0.2 0.2 0.2 0.2)
	(0.2 0.2 0.2 0.2 0.2)
	(0.2 0.2 0.2 0.2 0.2)
	(0.2 0.2 0.2 0.2 0.2)
	(0.2 0.2 0.2 0.2 0.2)
	(0.2 0.2 0.2 0.2 0.2)
	(0.2 0.2 0.2 0.2 0.2)
	(0.2 0.2 0.2 0.2 0.2)
	(0.2 0.2 0.2 0.2 0.2)
	(0.2 0.2 0.2 0.2 0.2)
	(0.2 0.2 0.2 0.2 0.2)
	(0.2 0.2 0.2 0.2 0.2)
	(0.2 0.2 0.2 0.2 0.2)
	(0.2 0.2 0.2 0.2 0.2)
	(0.2 0.2 0.2 0.2 0.2)
	(0.2 0.2 0.2 0.2 0.2)
	(0.2 0.2 0.2 0.2 0.2)
	(0.2 0.2 0.2 0.2 0.2)
	(0.2 0.2 0.2 0.2 0.2)
	(0.2 0.2 0.2 0.2 0.2)
	(0.2 0.2 0.2 0.2 0.2)
	(0.2 0.2 0.2 0.2 0.2)
	(0.2 0.2 0.2 0.2 0.2)
	(0.2 0.2 0.2 0.2 0.2)
	(0.2 0.2 0.2 0.2 0.2)
	(0.2 0.2 0.2 0.2 0.2)
	(0.2 0.2 0.2 0.2 0.2)
	(0.2 0.2 0.2 0.2 0.2)
	(0.2 0.2 0.2 0.2 0.2)
	(0.2 0.2 0.2 0.2 0.2)
	(0.2 0.2 0.2 0.2 0.2)
	(0.2 0.2 0.2 0.2 0.2)
	(0.2 0.2 0.2 0.2 0.2)
	(0.2 0.2 0.2 0.2 0.2)
	(0.2 0.2 0.2 0.2 0.2)
	(0.2 0.2 0.2 0.2 0.2)
	(0.2 0.2 0.2 0.2 0.2)
	(0.2 0.2 0.2 0.2 0.2)
	(0.2 0.2 0.2 0.2 0.2)
	(0.2 0.2 0.2 0.2 0.2)
	(0.2 0.2 0.2 0.2 0.2)
	(0.2 0.2 0.2 0.2 0.2)
	(0.2 0.2 0.2 0.2 0.2)
	(0.2 0.2 0.2 0.2 0.2)
	(0.2 0.2 0.2 0.2 0.2)
	(0.2 0.2 0.2 0.2 0.2)
	(0.2 0.2 0.2 0.2 0.2)
	(0.2 0.2 0.2 0.2 0.2)
	(0.2 0.2 0.2 0.2 0.2)
	(0.2 0.2 0.2 0.2 0.2)
	(0.2 0.2 0.2 0.2 0.2)
	(0.2 0.2 0.2 0.2 0.2)
	(0.2 0.2 0.2 0.2 0.2)
	(0.2 0.2 0.2 0.2 0.2)
	(0.2 0.2 0.2 0.2 0.2)
	(0.2 0.2 0.2 0.2 0.2)
	(0.2 0.2 0.2 0.2 0.2)
	(0.2 0.2 0.2 0.2 0.2)
	(0.2 0.2 0.2 0.2 0.2)
	(0.2 0.2 0.2 0.2 0.2)
	(0.2 0.2 0.2 0.2 0.2)
	(0.2 0.2 0.2 0.2 0.2)
	(0.2 0.2 0.2 0.2 0.2)
	(0.2 0.2 0.2 0.2 0.2)
	(0.2 0.2 0.2 0.2 0.2)
	(0.2 0.2 0.2 0.2 0.2)
	(0.2 0.2 0.2 0.2 0.2)
	(0.2 0.2 0.2 0.2 0.2)
	(0.2 0.2 0.2 0.2 0.2)
	(0.2 0.2 0.2 0.2 0.2)
	(0.2 0.2 0.2 0.2 0.2)
	(0.2 0.2 0.2 0.2 0.2)
	(0.2 0.2 0.2 0.2 0.2)
	(0.2 0.2 0.2 0.2 0.2)
	(0.2 0.2 0.2 0.2 0.2)
	(0.2 0.2 0.2 0.2 0.2)
	(0.2 0.2 0.2 0.2 0.2)
	(0.2 0.2 0.2 0.2 0.2)
	(0.2 0.2 0.2 0.2 0.2)
	(0.2 0.2 0.2 0.2 0.2)
	(0.2 0.2 0.2 0.2 0.2)
	(0.2 0.2 0.2 0.2 0.2)
	(0.2 0.2 0.2 0.2 0.2)
	(0.2 0.2 0.2 0.2 0.2)
	(0.2 0.2 0.2 0.2 0.2)
	(0.2 0.2 0.2 0.2 0.2)
	(0.2 0.2 0.2 0.2 0.2)
	(0.2 0.2 0.2 0.2 0.2)
	(0.2 0.2 0.2 0.2 0.2)
	(0.2 0.2 0.2 0.2 0.2)
	(0.2 0.2 0.2 0.2 0.2)
	(0.2 0.2 0.2 0.2 0.2)
	(0.2 0.2 0.2 0.2 0.2)
	(0.2 0.2 0.2 0.2 0.2)
	(0.2 0.2 0.2 0.2 0.2)
	(0.2 0.2 0.2 0.2 0.2)
	(0.2 0.2 0.2 0.2 0.2)
	(0.2 0.2 0.2 0.2 0.2)
	(0.2 0.2 0.2 0.2 0.2)
	(0.2 0.2 0.2 0.2 0.2)
	(0.2 0.2 0.2 0.2 0.2)
	(0.2 0.2 0.2 0.2 0.2)
	(0.2 0.2 0.2 0.2 0.2)
	(0.2 0.2 0.2 0.2 0.2)
	(0.2 0.2 0.2 0.2 0.2)
	(0.2 0.2 0.2 0.2 0.2)
	(0.2 0.2 0.2 0.2 0.2)
	(0.2 0.2 0.2 0.2 0.2)
	(0.2 0.2 0.2 0.2 0.2)
	(0.2 0.2 0.2 0.2 0.2)
	(0.2 0.2 0.2 0.2 0.2)
	(0.2 0.2 0.2 0.2 0.2)
	(0.2 0.2 0.2 0.2 0.2)
	(0.2 0.2 0.2 0.2 0.2)
	(0.2 0.2 0.2 0.2 0.2)
	(0.2 0.2 0.2 0.2 0.2)
	(0.2 0.2 0.2 0.2 0.2)
	(0.2 0.2 0.2 0.2 0.2)
	(0.2 0.2 0.2 0.2 0.2)
	(0.2 0.2 0.2 0.2 0.2)
	(0.2 0.2 0.2 0.2 0.2)
	(0.2 0.2 0.2 0.2 0.2)
	(0.2 0.2 0.2 0.2 0.2)
	(0.2 0.2 0.2 0.2 0.2)
	(0.2 0.2 0.2 0.2 0.2)
	(0.2 0.2 0.2 0.2 0.2)
	(0.2 0.2 0.2 0.2 0.2)
	(0.2 0.2 0.2 0.2 0.2)
	(0.2 0.2 0.2 0.2 0.2)
	(0.2 0.2 0.2 0.2 0.2)
	(0.2 0.2 0.2 0.2 0.2)
	(0.2 0.2 0.2 0.2 0.2)
	(0.2 0.2 0.2 0.2 0.2)
	(0.2 0.2 0.2 0.2 0.2)
	(0.2 0.2 0.2 0.2 0.2)
	(0.2 0.2 0.2 0.2 0.2)
	(0.2 0.2 0.2 0.2 0.2)
	(0.2 0.2 0.2 0.2 0.2)
	(0.2 0.2 0.2 0.2 0.2)
	(0.2 0.2 0.2 0.2 0.2)
	(0.2 0.2 0.2 0.2 0.2)
	(0.2 0.2 0.2 0.2 0.2)
	(0.2 0.2 0.2 0.2 0.2)
	(0.2 0.2 0.2 0.2 0.2)
	(0.2 0.2 0.2 0.2 0.2)
	(0.2 0.2 0.2 0.2 0.2)
	(0.2 0.2 0.2 0.2 0.2)
	(0.2 0.2 0.2 0.2 0.2)
	(0.2 0.2 0.2 0.2 0.2)
	(0.2 0.2 0.2 0.2 0.2)
	(0.2 0.2 0.2 0.2 0.2)
	(0.2 0.2 0.2 0.2 0.2)
	(0.2 0.2 0.2 0.2 0.2)
	(0.2 0.2 0.2 0.2 0.2)
	(0.2 0.2 0.2 0.2 0.2)
	(0.2 0.2 0.2 0.2 0.2)
	(0.2 0.2 0.2 0.2 0.2)
	(0.2 0.2 0.2 0.2 0.2)
	(0.2 0.2 0.2 0.2 0.2)
	(0.2 0.2 0.2 0.2 0.2)
	(0.2 0.2 0.2 0.2 0.2)
	(0.2 0.2 0.2 0.2 0.2)
	(0.2 0.2 0.2 0.2 0.2)
	(0.2 0.2 0.2 0.2 0.2)
	(0.2 0.2 0.2 0.2 0.2)
	(0.2 0.2 0.2 0.2 0.2)
	(0.2 0.2 0.2 0.2 0.2)
	(0.2 0.2 0.2 0.2 0.2)
	(0.2 0.2 0.2 0.2 0.2)
	(0.2 0.2 0.2 0.2 0.2)
	(0.2 0.2 0.2 0.2 0.2)
	(0.2 0.2 0.2 0.2 0.2)
	(0.2 0.2 0.2 0.2 0.2)
	(0.2 0.2 0.2 0.2 0.2)
	(0.2 0.2 0.2 0.2 0.2)
	(0.2 0.2 0.2 0.2 0.2)
	(0.2 0.2 0.2 0.2 0.2)
	(0.2 0.2 0.2 0.2 0.2)
	(0.2 0.2 0.2 0.2 0.2)
	(0.2 0.2 0.2 0.2 0.2)
	(0.2 0.2 0.2 0.2 0.2)
	(0.2 0.2 0.2 0.2 0.2)
	(0.2 0.2 0.2 0.2 0.2)
	(0.2 0.2 0.2 0.2 0.2)
	(0.2 0.2 0.2 0.2 0.2)
	(0.2 0.2 0.2 0.2 0.2)
	(0.2 0.2 0.2 0.2 0.2)
	(0.2 0.2 0.2 0.2 0.2)
	(0.2 0.2 0.2 0.2 0.2)
	(0.2 0.2 0.2 0.2 0.2)
	(0.2 0.2 0.2 0.2 0.2)
	(0.2 0.2 0.2 0.2 0.2)
	(0.2 0.2 0.2 0.2 0.2)
	(0.2 0.2 0.2 0.2 0.2)
	(0.2 0.2 0.2 0.2 0.2)
	(0.2 0.2 0.2 0.2 0.2)
	(0.2 0.2 0.2 0.2 0.2)
	(0.2 0.2 0.2 0.2 0.2)
	(0.2 0.2 0.2 0.2 0.2)
	(0.2 0.2 0.2 0.2 0.2)
	(0.2 0.2 0.2 0.2 0.2)
	(0.2 0.2 0.2 0.2 0.2)
	(0.2 0.2 0.2 0.2 0.2)
	(0.2 0.2 0.2 0.2 0.2)
	(0.2 0.2 0.2 0.2 0.2)
	(0.2 0.2 0.2 0.2 0.2)
	(0.2 0.2 0.2 0.2 0.2)
	(0.2 0.2 0.2 0.2 0.2)
	(0.2 0.2 0.2 0.2 0.2)
	(0.2 0.2 0.2 0.2 0.2)
	(0.2 0.2 0.2 0.2 0.2)
	(0.2 0.2 0.2 0.2 0.2)
	(0.2 0.2 0.2 0.2 0.2)
	(0.2 0.2 0.2 0.2 0.2)
	(0.2 0.2 0.2 0.2 0.2)
	(0.2 0.2 0.2 0.2 0.2)
	(0.2 0.2 0.2 0.2 0.2)
	(0.2 0.2 0.2 0.2 0.2)
	(0.2 0.2 0.2 0.2 0.2)
	(0.2 0.2 0.2 0.2 0.2)
	(0.2 0.2 0.2 0.2 0.2)
	(0.2 0.2 0.2 0.2 0.2)
	(0.2 0.2 0.2 0.2 0.2)
	(0.2 0.2 0.2 0.2 0.2)
	(0.2 0.2 0.2 0.2 0.2)
	(0.2 0.2 0.2 0.2 0.2)
	(0.2 0.2 0.2 0.2 0.2)
	(0.2 0.2 0.2 0.2 0.2)
	(0.2 0.2 0.2 0.2 0.2)
	(0.2 0.2 0.2 0.2 0.2)
	(0.2 0.2 0.2 0.2 0.2)
	(0.2 0.2 0.2 0.2 0.2)
	(0.2 0.2 0.2 0.2 0.2)
	(0.2 0.2 0.2 0.2 0.2)
	(0.2 0.2 0.2 0.2 0.2)
	(0.2 0.2 0.2 0.2 0.2)
	(0.2 0.2 0.2 0.2 0.2)
	(0.2 0.2 0.2 0.2 0.2)
	(0.2 0.2 0.2 0.2 0.2)
	(0.2 0.2 0.2 0.2 0.2)
	(0.2 0.2 0.2 0.2 0.2)
	(0.2 0.2 0.2 0.2 0.2)
	(0.2 0.2 0.2 0.2 0.2)
	(0.2 0.2 0.2 0.2 0.2)
	(0.2 0.2 0.2 0.2 0.2)
	(0.2 0.2 0.2 0.2 0.2)
	(0.2 0.2 0.2 0.2 0.2)
	(0.2 0.2 0.2 0.2 0.2)
	(0.2 0.2 0.2 0.2 0.2)
	(0.2 0.2 0.2 0.2 0.2)
	(0.2 0.2 0.2 0.2 0.2)
	(0.2 0.2 0.2 0.2 0.2)
	(0.2 0.2 0.2 0.2 0.2)
	(0.2 0.2 0.2 0.2 0.2)
	(0.2 0.2 0.2 0.2 0.2)
	(0.2 0.2 0.2 0.2 0.2)
	(0.2 0.2 0.2 0.2 0.2)
	(0.2 0.2 0.2 0.2 0.2)
	(0.2 0.2 0.2 0.2 0.2)
	(0.2 0.2 0.2 0.2 0.2)
	(0.2 0.2 0.2 0.2 0.2)
	(0.2 0.2 0.2 0.2 0.2)
	(0.2 0.2 0.2 0.2 0.2)
	(0.2 0.2 0.2 0.2 0.2)
	(0.2 0.2 0.2 0.2 0.2)
	(0.2 0.2 0.2 0.2 0.2)
	(0.2 0.2 0.2 0.2 0.2)
	(0.2 0.2 0.2 0.2 0.2)
	(0.2 0.2 0.2 0.2 0.2)
	(0.2 0.2 0.2 0.2 0.2)
	(0.2 0.2 0.2 0.2 0.2)
	(0.2 0.2 0.2 0.2 0.2)
	(0.2 0.2 0.2 0.2 0.2)
	(0.2 0.2 0.2 0.2 0.2)
	(0.2 0.2 0.2 0.2 0.2)
	(0.2 0.2 0.2 0.2 0.2)
	(0.2 0.2 0.2 0.2 0.2)
	(0.2 0.2 0.2 0.2 0.2)
	(0.2 0.2 0.2 0.2 0.2)
	(0.2 0.2 0.2 0.2 0.2)
	(0.2 0.2 0.2 0.2 0.2)
	(0.2 0.2 0.2 0.2 0.2)
	(0.2 0.2 0.2 0.2 0.2)
	(0.2 0.2 0.2 0.2 0.2)
	(0.2 0.2 0.2 0.2 0.2)
	(0.2 0.2 0.2 0.2 0.2)
	(0.2 0.2 0.2 0.2 0.2)
	(0.2 0.2 0.2 0.2 0.2)
	(0.2 0.2 0.2 0.2 0.2)
	(0.2 0.2 0.2 0.2 0.2)
	(0.2 0.2 0.2 0.2 0.2)
	(0.2 0.2 0.2 0.2 0.2)
	(0.2 0.2 0.2 0.2 0.2)
	(0.2 0.2 0.2 0.2 0.2)
	(0.2 0.2 0.2 0.2 0.2)
	(0.2 0.2 0.2 0.2 0.2)
	(0.2 0.2 0.2 0.2 0.2)
	(0.2 0.2 0.2 0.2 0.2)
	(0.2 0.2 0.2 0.2 0.2)
	(0.2 0.2 0.2 0.2 0.2)
	(0.2 0.2 0.2 0.2 0.2)
	(0.2 0.2 0.2 0.2 0.2)
	(0.2 0.2 0.2 0.2 0.2)
	(0.2 0.2 0.2 0.2 0.2)
	(0.2 0.2 0.2 0.2 0.2)
	(0.2 0.2 0.2 0.2 0.2)
	(0.2 0.2 0.2 0.2 0.2)
	(0.2 0.2 0.2 0.2 0.2)
	(0.2 0.2 0.2 0.2 0.2)
	(0.2 0.2 0.2 0.2 0.2)
	(0.2 0.2 0.2 0.2 0.2)
	(0.2 0.2 0.2 0.2 0.2)
	(0.2 0.2 0.2 0.2 0.2)
	(0.2 0.2 0.2 0.2 0.2)
	(0.2 0.2 0.2 0.2 0.2)
	(0.2 0.2 0.2 0.2 0.2)
	(0.2 0.2 0.2 0.2 0.2)
	(0.2 0.2 0.2 0.2 0.2)
	(0.2 0.2 0.2 0.2 0.2)
	(0.2 0.2 0.2 0.2 0.2)
	(0.2 0.2 0.2 0.2 0.2)
	(0.2 0.2 0.2 0.2 0.2)
	(0.2 0.2 0.2 0.2 0.2)
	(0.2 0.2 0.2 0.2 0.2)
	(0.2 0.2 0.2 0.2 0.2)
	(0.2 0.2 0.2 0.2 0.2)
	(0.2 0.2 0.2 0.2 0.2)
	(0.2 0.2 0.2 0.2 0.2)
	(0.2 0.2 0.2 0.2 0.2)
	(0.2 0.2 0.2 0.2 0.2)
	(0.2 0.2 0.2 0.2 0.2)
	(0.2 0.2 0.2 0.2 0.2)
	(0.2 0.2 0.2 0.2 0.2)
	(0.2 0.2 0.2 0.2 0.2)
	(0.2 0.2 0.2 0.2 0.2)
	(0.2 0.2 0.2 0.2 0.2)
	(0.2 0.2 0.2 0.2 0.2)
	(0.2 0.2 0.2 0.2 0.2)
	(0.2 0.2 0.2 0.2 0.2)
	(0.2 0.2 0.2 0.2 0.2)
	(0.2 0.2 0.2 0.2 0.2)
	(0.2 0.2 0.2 0.2 0.2)
	(0.2 0.2 0.2 0.2 0.2)
	(0.2 0.2 0.2 0.2 0.2)
	(0.2 0.2 0.2 0.2 0.2)
	(0.2 0.2 0.2 0.2 0.2)
	(0.2 0.2 0.2 0.2 0.2)
	(0.2 0.2 0.2 0.2 0.2)
	(0.2 0.2 0.2 0.2 0.2)
	(0.2 0.2 0.2 0.2 0.2)
	(0.2 0.2 0.2 0.2 0.2)
	(0.2 0.2 0.2 0.2 0.2)
	(0.2 0.2 0.2 0.2 0.2)
	(0.2 0.2 0.2 0.2 0.2)
	(0.2 0.2 0.2 0.2 0.2)
	(0.2 0.2 0.2 0.2 0.2)
	(0.2 0.2 0.2 0.2 0.2)
	(0.2 0.2 0.2 0.2 0.2)
	(0.2 0.2 0.2 0.2 0.2)
	(0.2 0.2 0.2 0.2 0.2)
	(0.2 0.2 0.2 0.2 0.2)
	(0.2 0.2 0.2 0.2 0.2)
	(0.2 0.2 0.2 0.2 0.2)
	(0.2 0.2 0.2 0.2 0.2)
	(0.2 0.2 0.2 0.2 0.2)
	(0.2 0.2 0.2 0.2 0.2)
	(0.2 0.2 0.2 0.2 0.2)
	(0.2 0.2 0.2 0.2 0.2)
	(0.2 0.2 0.2 0.2 0.2)
	(0.2 0.2 0.2 0.2 0.2)
	(0.2 0.2 0.2 0.2 0.2)
	(0.2 0.2 0.2 0.2 0.2)
	(0.2 0.2 0.2 0.2 0.2)
	(0.14285714285714285 0.42857142857142855 0.14285714285714285 0.14285714285714285 0.14285714285714285)
	(0.2 0.2 0.2 0.2 0.2)
	(0.2 0.2 0.2 0.2 0.2)
	(0.2 0.2 0.2 0.2 0.2)
	(0.2 0.2 0.2 0.2 0.2)
	(0.2 0.2 0.2 0.2 0.2)
	(0.2 0.2 0.2 0.2 0.2)
	(0.2 0.2 0.2 0.2 0.2)
	(0.2 0.2 0.2 0.2 0.2)
	(0.2 0.2 0.2 0.2 0.2)
	(0.2 0.2 0.2 0.2 0.2)
	(0.2 0.2 0.2 0.2 0.2)
	(0.2 0.2 0.2 0.2 0.2)
	(0.2 0.2 0.2 0.2 0.2)
	(0.2 0.2 0.2 0.2 0.2)
	(0.2 0.2 0.2 0.2 0.2)
	(0.2 0.2 0.2 0.2 0.2)
	(0.2 0.2 0.2 0.2 0.2)
	(0.2 0.2 0.2 0.2 0.2)
	(0.2 0.2 0.2 0.2 0.2)
	(0.2 0.2 0.2 0.2 0.2)
	(0.2 0.2 0.2 0.2 0.2)
	(0.2 0.2 0.2 0.2 0.2)
	(0.2 0.2 0.2 0.2 0.2)
	(0.2 0.2 0.2 0.2 0.2)
	(0.2 0.2 0.2 0.2 0.2)
	(0.2 0.2 0.2 0.2 0.2)
	(0.2 0.2 0.2 0.2 0.2)
	(0.2 0.2 0.2 0.2 0.2)
	(0.2 0.2 0.2 0.2 0.2)
	(0.2 0.2 0.2 0.2 0.2)
	(0.2 0.2 0.2 0.2 0.2)
	(0.2 0.2 0.2 0.2 0.2)
	(0.2 0.2 0.2 0.2 0.2)
	(0.2 0.2 0.2 0.2 0.2)
	(0.2 0.2 0.2 0.2 0.2)
	(0.2 0.2 0.2 0.2 0.2)
	(0.2 0.2 0.2 0.2 0.2)
	(0.2 0.2 0.2 0.2 0.2)
	(0.2 0.2 0.2 0.2 0.2)
	(0.2 0.2 0.2 0.2 0.2)
	(0.2 0.2 0.2 0.2 0.2)
	(0.2 0.2 0.2 0.2 0.2)
	(0.2 0.2 0.2 0.2 0.2)
	(0.2 0.2 0.2 0.2 0.2)
	(0.2 0.2 0.2 0.2 0.2)
	(0.2 0.2 0.2 0.2 0.2)
	(0.2 0.2 0.2 0.2 0.2)
	(0.2 0.2 0.2 0.2 0.2)
	(0.2 0.2 0.2 0.2 0.2)
	(0.2 0.2 0.2 0.2 0.2)
	(0.2 0.2 0.2 0.2 0.2)
	(0.2 0.2 0.2 0.2 0.2)
	(0.2 0.2 0.2 0.2 0.2)
	(0.2 0.2 0.2 0.2 0.2)
	(0.2 0.2 0.2 0.2 0.2)
	(0.2 0.2 0.2 0.2 0.2)
	(0.2 0.2 0.2 0.2 0.2)
	(0.2 0.2 0.2 0.2 0.2)
	(0.2 0.2 0.2 0.2 0.2)
	(0.2 0.2 0.2 0.2 0.2)
	(0.2 0.2 0.2 0.2 0.2)
	(0.2 0.2 0.2 0.2 0.2)
	(0.2 0.2 0.2 0.2 0.2)
	(0.2 0.2 0.2 0.2 0.2)
	(0.2 0.2 0.2 0.2 0.2)
	(0.2 0.2 0.2 0.2 0.2)
	(0.2 0.2 0.2 0.2 0.2)
	(0.2 0.2 0.2 0.2 0.2)
	(0.2 0.2 0.2 0.2 0.2)
	(0.2 0.2 0.2 0.2 0.2)
	(0.2 0.2 0.2 0.2 0.2)
	(0.2 0.2 0.2 0.2 0.2)
	(0.2 0.2 0.2 0.2 0.2)
	(0.2 0.2 0.2 0.2 0.2)
	(0.2 0.2 0.2 0.2 0.2)
	(0.2 0.2 0.2 0.2 0.2)
	(0.2 0.2 0.2 0.2 0.2)
	(0.2 0.2 0.2 0.2 0.2)
	(0.2 0.2 0.2 0.2 0.2)
	(0.2 0.2 0.2 0.2 0.2)
	(0.2 0.2 0.2 0.2 0.2)
	(0.2 0.2 0.2 0.2 0.2)
	(0.2 0.2 0.2 0.2 0.2)
	(0.2 0.2 0.2 0.2 0.2)
	(0.2 0.2 0.2 0.2 0.2)
	(0.2 0.2 0.2 0.2 0.2)
	(0.2 0.2 0.2 0.2 0.2)
	(0.2 0.2 0.2 0.2 0.2)
	(0.2 0.2 0.2 0.2 0.2)
	(0.2 0.2 0.2 0.2 0.2)
	(0.2 0.2 0.2 0.2 0.2)
	(0.2 0.2 0.2 0.2 0.2)
	(0.2 0.2 0.2 0.2 0.2)
	(0.2 0.2 0.2 0.2 0.2)
	(0.2 0.2 0.2 0.2 0.2)
	(0.2 0.2 0.2 0.2 0.2)
	(0.2 0.2 0.2 0.2 0.2)
	(0.2 0.2 0.2 0.2 0.2)
	(0.2 0.2 0.2 0.2 0.2)
	(0.2 0.2 0.2 0.2 0.2)
	(0.2 0.2 0.2 0.2 0.2)
	(0.2 0.2 0.2 0.2 0.2)
	(0.2 0.2 0.2 0.2 0.2)
	(0.2 0.2 0.2 0.2 0.2)
	(0.2 0.2 0.2 0.2 0.2)
	(0.2 0.2 0.2 0.2 0.2)
	(0.2 0.2 0.2 0.2 0.2)
	(0.2 0.2 0.2 0.2 0.2)
	(0.2 0.2 0.2 0.2 0.2)
	(0.2 0.2 0.2 0.2 0.2)
	(0.2 0.2 0.2 0.2 0.2)
	(0.2 0.2 0.2 0.2 0.2)
	(0.2 0.2 0.2 0.2 0.2)
	(0.2 0.2 0.2 0.2 0.2)
	(0.2 0.2 0.2 0.2 0.2)
	(0.2 0.2 0.2 0.2 0.2)
	(0.2 0.2 0.2 0.2 0.2)
	(0.2 0.2 0.2 0.2 0.2)
	(0.2 0.2 0.2 0.2 0.2)
	(0.2 0.2 0.2 0.2 0.2)
	(0.2 0.2 0.2 0.2 0.2)
	(0.2 0.2 0.2 0.2 0.2)
	(0.2 0.2 0.2 0.2 0.2)
	(0.2 0.2 0.2 0.2 0.2)
	(0.2 0.2 0.2 0.2 0.2)
	(0.2 0.2 0.2 0.2 0.2)
	(0.2 0.2 0.2 0.2 0.2)
	(0.2 0.2 0.2 0.2 0.2)
	(0.2 0.2 0.2 0.2 0.2)
	(0.2 0.2 0.2 0.2 0.2)
	(0.2 0.2 0.2 0.2 0.2)
	(0.2 0.2 0.2 0.2 0.2)
	(0.2 0.2 0.2 0.2 0.2)
	(0.2 0.2 0.2 0.2 0.2)
	(0.2 0.2 0.2 0.2 0.2)
	(0.2 0.2 0.2 0.2 0.2)
	(0.2 0.2 0.2 0.2 0.2)
	(0.2 0.2 0.2 0.2 0.2)
	(0.2 0.2 0.2 0.2 0.2)
	(0.2 0.2 0.2 0.2 0.2)
	(0.2 0.2 0.2 0.2 0.2)
	(0.2 0.2 0.2 0.2 0.2)
	(0.2 0.2 0.2 0.2 0.2)
	(0.2 0.2 0.2 0.2 0.2)
	(0.2 0.2 0.2 0.2 0.2)
	(0.2 0.2 0.2 0.2 0.2)
	(0.2 0.2 0.2 0.2 0.2)
	(0.2 0.2 0.2 0.2 0.2)
	(0.2 0.2 0.2 0.2 0.2)
	(0.2 0.2 0.2 0.2 0.2)
	(0.2 0.2 0.2 0.2 0.2)
	(0.2 0.2 0.2 0.2 0.2)
	(0.2 0.2 0.2 0.2 0.2)
	(0.2 0.2 0.2 0.2 0.2)
	(0.2 0.2 0.2 0.2 0.2)
	(0.2 0.2 0.2 0.2 0.2)
	(0.2 0.2 0.2 0.2 0.2)
	(0.2 0.2 0.2 0.2 0.2)
	(0.2 0.2 0.2 0.2 0.2)
	(0.2 0.2 0.2 0.2 0.2)
	(0.2 0.2 0.2 0.2 0.2)
	(0.2 0.2 0.2 0.2 0.2)
	(0.2 0.2 0.2 0.2 0.2)
	(0.2 0.2 0.2 0.2 0.2)
	(0.2 0.2 0.2 0.2 0.2)
	(0.2 0.2 0.2 0.2 0.2)
	(0.2 0.2 0.2 0.2 0.2)
	(0.2 0.2 0.2 0.2 0.2)
	(0.2 0.2 0.2 0.2 0.2)
	(0.2 0.2 0.2 0.2 0.2)
	(0.2 0.2 0.2 0.2 0.2)
	(0.2 0.2 0.2 0.2 0.2)
	(0.2 0.2 0.2 0.2 0.2)
	(0.2 0.2 0.2 0.2 0.2)
	(0.2 0.2 0.2 0.2 0.2)
	(0.2 0.2 0.2 0.2 0.2)
	(0.2 0.2 0.2 0.2 0.2)
	(0.2 0.2 0.2 0.2 0.2)
	(0.2 0.2 0.2 0.2 0.2)
	(0.2 0.2 0.2 0.2 0.2)
	(0.2 0.2 0.2 0.2 0.2)
	(0.2 0.2 0.2 0.2 0.2)
	(0.2 0.2 0.2 0.2 0.2)
	(0.2 0.2 0.2 0.2 0.2)
	(0.2 0.2 0.2 0.2 0.2)
	(0.2 0.2 0.2 0.2 0.2)
	(0.2 0.2 0.2 0.2 0.2)
	(0.2 0.2 0.2 0.2 0.2)
	(0.2 0.2 0.2 0.2 0.2)
	(0.2 0.2 0.2 0.2 0.2)
	(0.2 0.2 0.2 0.2 0.2)
	(0.2 0.2 0.2 0.2 0.2)
	(0.2 0.2 0.2 0.2 0.2)
	(0.2 0.2 0.2 0.2 0.2)
	(0.2 0.2 0.2 0.2 0.2)
	(0.2 0.2 0.2 0.2 0.2)
	(0.2 0.2 0.2 0.2 0.2)
	(0.2 0.2 0.2 0.2 0.2)
	(0.2 0.2 0.2 0.2 0.2)
	(0.2 0.2 0.2 0.2 0.2)
	(0.2 0.2 0.2 0.2 0.2)
	(0.2 0.2 0.2 0.2 0.2)
	(0.2 0.2 0.2 0.2 0.2)
	(0.14285714285714285 0.42857142857142855 0.14285714285714285 0.14285714285714285 0.14285714285714285)
	(0.2 0.2 0.2 0.2 0.2)
	(0.2 0.2 0.2 0.2 0.2)
	(0.2 0.2 0.2 0.2 0.2)
	(0.2 0.2 0.2 0.2 0.2)
	(0.2 0.2 0.2 0.2 0.2)
	(0.2 0.2 0.2 0.2 0.2)
	(0.2 0.2 0.2 0.2 0.2)
	(0.2 0.2 0.2 0.2 0.2)
	(0.2 0.2 0.2 0.2 0.2)
	(0.2 0.2 0.2 0.2 0.2)
	(0.2 0.2 0.2 0.2 0.2)
	(0.2 0.2 0.2 0.2 0.2)
	(0.2 0.2 0.2 0.2 0.2)
	(0.2 0.2 0.2 0.2 0.2)
	(0.2 0.2 0.2 0.2 0.2)
	(0.2 0.2 0.2 0.2 0.2)
	(0.2 0.2 0.2 0.2 0.2)
	(0.2 0.2 0.2 0.2 0.2)
	(0.2 0.2 0.2 0.2 0.2)
	(0.2 0.2 0.2 0.2 0.2)
	(0.2 0.2 0.2 0.2 0.2)
	(0.2 0.2 0.2 0.2 0.2)
	(0.2 0.2 0.2 0.2 0.2)
	(0.2 0.2 0.2 0.2 0.2)
	(0.2 0.2 0.2 0.2 0.2)
	(0.2 0.2 0.2 0.2 0.2)
	(0.2 0.2 0.2 0.2 0.2)
	(0.2 0.2 0.2 0.2 0.2)
	(0.2 0.2 0.2 0.2 0.2)
	(0.2 0.2 0.2 0.2 0.2)
	(0.2 0.2 0.2 0.2 0.2)
	(0.2 0.2 0.2 0.2 0.2)
	(0.2 0.2 0.2 0.2 0.2)
	(0.2 0.2 0.2 0.2 0.2)
	(0.2 0.2 0.2 0.2 0.2)
	(0.2 0.2 0.2 0.2 0.2)
	(0.2 0.2 0.2 0.2 0.2)
	(0.2 0.2 0.2 0.2 0.2)
	(0.2 0.2 0.2 0.2 0.2)
	(0.2 0.2 0.2 0.2 0.2)
	(0.2 0.2 0.2 0.2 0.2)
	(0.2 0.2 0.2 0.2 0.2)
	(0.2 0.2 0.2 0.2 0.2)
	(0.2 0.2 0.2 0.2 0.2)
	(0.2 0.2 0.2 0.2 0.2)
	(0.2 0.2 0.2 0.2 0.2)
	(0.2 0.2 0.2 0.2 0.2)
	(0.2 0.2 0.2 0.2 0.2)
	(0.2 0.2 0.2 0.2 0.2)
	(0.2 0.2 0.2 0.2 0.2)
	(0.2 0.2 0.2 0.2 0.2)
	(0.2 0.2 0.2 0.2 0.2)
	(0.2 0.2 0.2 0.2 0.2)
	(0.2 0.2 0.2 0.2 0.2)
	(0.2 0.2 0.2 0.2 0.2)
	(0.2 0.2 0.2 0.2 0.2)
	(0.2 0.2 0.2 0.2 0.2)
	(0.2 0.2 0.2 0.2 0.2)
	(0.2 0.2 0.2 0.2 0.2)
	(0.2 0.2 0.2 0.2 0.2)
	(0.2 0.2 0.2 0.2 0.2)
	(0.2 0.2 0.2 0.2 0.2)
	(0.2 0.2 0.2 0.2 0.2)
	(0.2 0.2 0.2 0.2 0.2)
	(0.2 0.2 0.2 0.2 0.2)
	(0.2 0.2 0.2 0.2 0.2)
	(0.2 0.2 0.2 0.2 0.2)
	(0.2 0.2 0.2 0.2 0.2)
	(0.2 0.2 0.2 0.2 0.2)
	(0.2 0.2 0.2 0.2 0.2)
	(0.2 0.2 0.2 0.2 0.2)
	(0.2 0.2 0.2 0.2 0.2)
	(0.2 0.2 0.2 0.2 0.2)
	(0.2 0.2 0.2 0.2 0.2)
	(0.2 0.2 0.2 0.2 0.2)
	(0.2 0.2 0.2 0.2 0.2)
	(0.2 0.2 0.2 0.2 0.2)
	(0.2 0.2 0.2 0.2 0.2)
	(0.2 0.2 0.2 0.2 0.2)
	(0.2 0.2 0.2 0.2 0.2)
	(0.2 0.2 0.2 0.2 0.2)
	(0.2 0.2 0.2 0.2 0.2)
	(0.2 0.2 0.2 0.2 0.2)
	(0.2 0.2 0.2 0.2 0.2)
	(0.2 0.2 0.2 0.2 0.2)
	(0.2 0.2 0.2 0.2 0.2)
	(0.2 0.2 0.2 0.2 0.2)
	(0.2 0.2 0.2 0.2 0.2)
	(0.2 0.2 0.2 0.2 0.2)
	(0.2 0.2 0.2 0.2 0.2)
	(0.2 0.2 0.2 0.2 0.2)
	(0.2 0.2 0.2 0.2 0.2)
	(0.2 0.2 0.2 0.2 0.2)
	(0.2 0.2 0.2 0.2 0.2)
	(0.2 0.2 0.2 0.2 0.2)
	(0.2 0.2 0.2 0.2 0.2)
	(0.2 0.2 0.2 0.2 0.2)
	(0.2 0.2 0.2 0.2 0.2)
	(0.2 0.2 0.2 0.2 0.2)
	(0.2 0.2 0.2 0.2 0.2)
	(0.2 0.2 0.2 0.2 0.2)
	(0.2 0.2 0.2 0.2 0.2)
	(0.2 0.2 0.2 0.2 0.2)
	(0.2 0.2 0.2 0.2 0.2)
	(0.2 0.2 0.2 0.2 0.2)
	(0.2 0.2 0.2 0.2 0.2)
	(0.2 0.2 0.2 0.2 0.2)
	(0.2 0.2 0.2 0.2 0.2)
	(0.2 0.2 0.2 0.2 0.2)
	(0.2 0.2 0.2 0.2 0.2)
	(0.2 0.2 0.2 0.2 0.2)
	(0.2 0.2 0.2 0.2 0.2)
	(0.2 0.2 0.2 0.2 0.2)
	(0.2 0.2 0.2 0.2 0.2)
	(0.2 0.2 0.2 0.2 0.2)
	(0.2 0.2 0.2 0.2 0.2)
	(0.2 0.2 0.2 0.2 0.2)
	(0.2 0.2 0.2 0.2 0.2)
	(0.2 0.2 0.2 0.2 0.2)
	(0.2 0.2 0.2 0.2 0.2)
	(0.2 0.2 0.2 0.2 0.2)
	(0.2 0.2 0.2 0.2 0.2)
	(0.2 0.2 0.2 0.2 0.2)
	(0.2 0.2 0.2 0.2 0.2)
	(0.2 0.2 0.2 0.2 0.2)
	(0.2 0.2 0.2 0.2 0.2)
	(0.2 0.2 0.2 0.2 0.2)
	(0.2 0.2 0.2 0.2 0.2)
	(0.2 0.2 0.2 0.2 0.2)
	(0.2 0.2 0.2 0.2 0.2)
	(0.2 0.2 0.2 0.2 0.2)
	(0.2 0.2 0.2 0.2 0.2)
	(0.2 0.2 0.2 0.2 0.2)
	(0.2 0.2 0.2 0.2 0.2)
	(0.2 0.2 0.2 0.2 0.2)
	(0.2 0.2 0.2 0.2 0.2)
	(0.2 0.2 0.2 0.2 0.2)
	(0.2 0.2 0.2 0.2 0.2)
	(0.2 0.2 0.2 0.2 0.2)
	(0.2 0.2 0.2 0.2 0.2)
	(0.2 0.2 0.2 0.2 0.2)
	(0.2 0.2 0.2 0.2 0.2)
	(0.2 0.2 0.2 0.2 0.2)
	(0.2 0.2 0.2 0.2 0.2)
	(0.2 0.2 0.2 0.2 0.2)
	(0.2 0.2 0.2 0.2 0.2)
	(0.2 0.2 0.2 0.2 0.2)
	(0.14285714285714285 0.14285714285714285 0.14285714285714285 0.14285714285714285 0.42857142857142855)
	(0.2 0.2 0.2 0.2 0.2)
	(0.2 0.2 0.2 0.2 0.2)
	(0.2 0.2 0.2 0.2 0.2)
	(0.2 0.2 0.2 0.2 0.2)
	(0.2 0.2 0.2 0.2 0.2)
	(0.2 0.2 0.2 0.2 0.2)
	(0.2 0.2 0.2 0.2 0.2)
	(0.2 0.2 0.2 0.2 0.2)
	(0.2 0.2 0.2 0.2 0.2)
	(0.2 0.2 0.2 0.2 0.2)
	(0.2 0.2 0.2 0.2 0.2)
	(0.2 0.2 0.2 0.2 0.2)
	(0.2 0.2 0.2 0.2 0.2)
	(0.2 0.2 0.2 0.2 0.2)
	(0.2 0.2 0.2 0.2 0.2)
	(0.2 0.2 0.2 0.2 0.2)
	(0.2 0.2 0.2 0.2 0.2)
	(0.2 0.2 0.2 0.2 0.2)
	(0.2 0.2 0.2 0.2 0.2)
	(0.2 0.2 0.2 0.2 0.2)
	(0.2 0.2 0.2 0.2 0.2)
	(0.2 0.2 0.2 0.2 0.2)
	(0.2 0.2 0.2 0.2 0.2)
	(0.2 0.2 0.2 0.2 0.2)
	(0.2 0.2 0.2 0.2 0.2)
	(0.2 0.2 0.2 0.2 0.2)
	(0.2 0.2 0.2 0.2 0.2)
	(0.2 0.2 0.2 0.2 0.2)
	(0.2 0.2 0.2 0.2 0.2)
	(0.2 0.2 0.2 0.2 0.2)
	(0.2 0.2 0.2 0.2 0.2)
	(0.2 0.2 0.2 0.2 0.2)
	(0.2 0.2 0.2 0.2 0.2)
	(0.2 0.2 0.2 0.2 0.2)
	(0.2 0.2 0.2 0.2 0.2)
	(0.2 0.2 0.2 0.2 0.2)
	(0.2 0.2 0.2 0.2 0.2)
	(0.2 0.2 0.2 0.2 0.2)
	(0.2 0.2 0.2 0.2 0.2)
	(0.2 0.2 0.2 0.2 0.2)
	(0.2 0.2 0.2 0.2 0.2)
	(0.2 0.2 0.2 0.2 0.2)
	(0.2 0.2 0.2 0.2 0.2)
	(0.2 0.2 0.2 0.2 0.2)
	(0.2 0.2 0.2 0.2 0.2)
	(0.2 0.2 0.2 0.2 0.2)
	(0.2 0.2 0.2 0.2 0.2)
	(0.2 0.2 0.2 0.2 0.2)
	(0.2 0.2 0.2 0.2 0.2)
	(0.2 0.2 0.2 0.2 0.2)
	(0.2 0.2 0.2 0.2 0.2)
	(0.2 0.2 0.2 0.2 0.2)
	(0.2 0.2 0.2 0.2 0.2)
	(0.2 0.2 0.2 0.2 0.2)
	(0.2 0.2 0.2 0.2 0.2)
	(0.2 0.2 0.2 0.2 0.2)
	(0.2 0.2 0.2 0.2 0.2)
	(0.2 0.2 0.2 0.2 0.2)
	(0.2 0.2 0.2 0.2 0.2)
	(0.2 0.2 0.2 0.2 0.2)
	(0.2 0.2 0.2 0.2 0.2)
	(0.2 0.2 0.2 0.2 0.2)
	(0.2 0.2 0.2 0.2 0.2)
	(0.2 0.2 0.2 0.2 0.2)
	(0.2 0.2 0.2 0.2 0.2)
	(0.2 0.2 0.2 0.2 0.2)
	(0.2 0.2 0.2 0.2 0.2)
	(0.2 0.2 0.2 0.2 0.2)
	(0.2 0.2 0.2 0.2 0.2)
	(0.2 0.2 0.2 0.2 0.2)
	(0.2 0.2 0.2 0.2 0.2)
	(0.2 0.2 0.2 0.2 0.2)
	(0.2 0.2 0.2 0.2 0.2)
	(0.2 0.2 0.2 0.2 0.2)
	(0.2 0.2 0.2 0.2 0.2)
	(0.2 0.2 0.2 0.2 0.2)
	(0.2 0.2 0.2 0.2 0.2)
	(0.2 0.2 0.2 0.2 0.2)
	(0.2 0.2 0.2 0.2 0.2)
	(0.2 0.2 0.2 0.2 0.2)
	(0.2 0.2 0.2 0.2 0.2)
	(0.2 0.2 0.2 0.2 0.2)
	(0.2 0.2 0.2 0.2 0.2)
	(0.2 0.2 0.2 0.2 0.2)
	(0.2 0.2 0.2 0.2 0.2)
	(0.2 0.2 0.2 0.2 0.2)
	(0.2 0.2 0.2 0.2 0.2)
	(0.2 0.2 0.2 0.2 0.2)
	(0.2 0.2 0.2 0.2 0.2)
	(0.2 0.2 0.2 0.2 0.2)
	(0.2 0.2 0.2 0.2 0.2)
	(0.2 0.2 0.2 0.2 0.2)
	(0.2 0.2 0.2 0.2 0.2)
	(0.2 0.2 0.2 0.2 0.2)
	(0.2 0.2 0.2 0.2 0.2)
	(0.2 0.2 0.2 0.2 0.2)
	(0.2 0.2 0.2 0.2 0.2)
	(0.2 0.2 0.2 0.2 0.2)
	(0.2 0.2 0.2 0.2 0.2)
	(0.2 0.2 0.2 0.2 0.2)
	(0.2 0.2 0.2 0.2 0.2)
	(0.2 0.2 0.2 0.2 0.2)
	(0.2 0.2 0.2 0.2 0.2)
	(0.2 0.2 0.2 0.2 0.2)
	(0.2 0.2 0.2 0.2 0.2)
	(0.2 0.2 0.2 0.2 0.2)
	(0.2 0.2 0.2 0.2 0.2)
	(0.2 0.2 0.2 0.2 0.2)
	(0.2 0.2 0.2 0.2 0.2)
	(0.2 0.2 0.2 0.2 0.2)
	(0.2 0.2 0.2 0.2 0.2)
	(0.2 0.2 0.2 0.2 0.2)
	(0.2 0.2 0.2 0.2 0.2)
	(0.2 0.2 0.2 0.2 0.2)
	(0.2 0.2 0.2 0.2 0.2)
	(0.2 0.2 0.2 0.2 0.2)
	(0.2 0.2 0.2 0.2 0.2)
	(0.2 0.2 0.2 0.2 0.2)
	(0.2 0.2 0.2 0.2 0.2)
	(0.2 0.2 0.2 0.2 0.2)
	(0.2 0.2 0.2 0.2 0.2)
	(0.2 0.2 0.2 0.2 0.2)
	(0.2 0.2 0.2 0.2 0.2)
	(0.2 0.2 0.2 0.2 0.2)
	(0.2 0.2 0.2 0.2 0.2)
	(0.2 0.2 0.2 0.2 0.2)
	(0.2 0.2 0.2 0.2 0.2)
	(0.2 0.2 0.2 0.2 0.2)
	(0.2 0.2 0.2 0.2 0.2)
	(0.2 0.2 0.2 0.2 0.2)
	(0.2 0.2 0.2 0.2 0.2)
	(0.2 0.2 0.2 0.2 0.2)
	(0.2 0.2 0.2 0.2 0.2)
	(0.2 0.2 0.2 0.2 0.2)
	(0.2 0.2 0.2 0.2 0.2)
	(0.2 0.2 0.2 0.2 0.2)
	(0.2 0.2 0.2 0.2 0.2)
	(0.2 0.2 0.2 0.2 0.2)
	(0.2 0.2 0.2 0.2 0.2)
	(0.2 0.2 0.2 0.2 0.2)
	(0.2 0.2 0.2 0.2 0.2)
	(0.2 0.2 0.2 0.2 0.2)
	(0.2 0.2 0.2 0.2 0.2)
	(0.2 0.2 0.2 0.2 0.2)
	(0.2 0.2 0.2 0.2 0.2)
	(0.2 0.2 0.2 0.2 0.2)
	(0.2 0.2 0.2 0.2 0.2)
	(0.2 0.2 0.2 0.2 0.2)
	(0.2 0.2 0.2 0.2 0.2)
	(0.2 0.2 0.2 0.2 0.2)
	(0.2 0.2 0.2 0.2 0.2)
	(0.2 0.2 0.2 0.2 0.2)
	(0.2 0.2 0.2 0.2 0.2)
	(0.2 0.2 0.2 0.2 0.2)
	(0.2 0.2 0.2 0.2 0.2)
	(0.2 0.2 0.2 0.2 0.2)
	(0.2 0.2 0.2 0.2 0.2)
	(0.2 0.2 0.2 0.2 0.2)
	(0.2 0.2 0.2 0.2 0.2)
	(0.2 0.2 0.2 0.2 0.2)
	(0.2 0.2 0.2 0.2 0.2)
	(0.2 0.2 0.2 0.2 0.2)
	(0.2 0.2 0.2 0.2 0.2)
	(0.2 0.2 0.2 0.2 0.2)
	(0.2 0.2 0.2 0.2 0.2)
	(0.2 0.2 0.2 0.2 0.2)
	(0.2 0.2 0.2 0.2 0.2)
	(0.2 0.2 0.2 0.2 0.2)
	(0.2 0.2 0.2 0.2 0.2)
	(0.2 0.2 0.2 0.2 0.2)
	(0.2 0.2 0.2 0.2 0.2)
	(0.2 0.2 0.2 0.2 0.2)
	(0.2 0.2 0.2 0.2 0.2)
	(0.2 0.2 0.2 0.2 0.2)
	(0.2 0.2 0.2 0.2 0.2)
	(0.2 0.2 0.2 0.2 0.2)
	(0.2 0.2 0.2 0.2 0.2)
	(0.2 0.2 0.2 0.2 0.2)
	(0.2 0.2 0.2 0.2 0.2)
	(0.2 0.2 0.2 0.2 0.2)
	(0.2 0.2 0.2 0.2 0.2)
	(0.2 0.2 0.2 0.2 0.2)
	(0.2 0.2 0.2 0.2 0.2)
	(0.2 0.2 0.2 0.2 0.2)
	(0.2 0.2 0.2 0.2 0.2)
	(0.2 0.2 0.2 0.2 0.2)
	(0.2 0.2 0.2 0.2 0.2)
	(0.2 0.2 0.2 0.2 0.2)
	(0.2 0.2 0.2 0.2 0.2)
	(0.2 0.2 0.2 0.2 0.2)
	(0.2 0.2 0.2 0.2 0.2)
	(0.2 0.2 0.2 0.2 0.2)
	(0.2 0.2 0.2 0.2 0.2)
	(0.2 0.2 0.2 0.2 0.2)
	(0.2 0.2 0.2 0.2 0.2)
	(0.2 0.2 0.2 0.2 0.2)
	(0.2 0.2 0.2 0.2 0.2)
	(0.2 0.2 0.2 0.2 0.2)
	(0.2 0.2 0.2 0.2 0.2)
	(0.2 0.2 0.2 0.2 0.2)
	(0.2 0.2 0.2 0.2 0.2)
	(0.2 0.2 0.2 0.2 0.2)
	(0.2 0.2 0.2 0.2 0.2)
	(0.2 0.2 0.2 0.2 0.2)
	(0.2 0.2 0.2 0.2 0.2)
	(0.2 0.2 0.2 0.2 0.2)
	(0.2 0.2 0.2 0.2 0.2)
	(0.2 0.2 0.2 0.2 0.2)
	(0.2 0.2 0.2 0.2 0.2)
	(0.2 0.2 0.2 0.2 0.2)
	(0.2 0.2 0.2 0.2 0.2)
	(0.2 0.2 0.2 0.2 0.2)
	(0.2 0.2 0.2 0.2 0.2)
	(0.2 0.2 0.2 0.2 0.2)
	(0.2 0.2 0.2 0.2 0.2)
	(0.2 0.2 0.2 0.2 0.2)
	(0.2 0.2 0.2 0.2 0.2)
	(0.2 0.2 0.2 0.2 0.2)
	(0.2 0.2 0.2 0.2 0.2)
	(0.2 0.2 0.2 0.2 0.2)
	(0.2 0.2 0.2 0.2 0.2)
	(0.2 0.2 0.2 0.2 0.2)
	(0.2 0.2 0.2 0.2 0.2)
	(0.2 0.2 0.2 0.2 0.2)
	(0.2 0.2 0.2 0.2 0.2)
	(0.2 0.2 0.2 0.2 0.2)
	(0.2 0.2 0.2 0.2 0.2)
	(0.2 0.2 0.2 0.2 0.2)
	(0.2 0.2 0.2 0.2 0.2)
	(0.2 0.2 0.2 0.2 0.2)
	(0.2 0.2 0.2 0.2 0.2)
	(0.2 0.2 0.2 0.2 0.2)
	(0.2 0.2 0.2 0.2 0.2)
	(0.2 0.2 0.2 0.2 0.2)
	(0.2 0.2 0.2 0.2 0.2)
	(0.2 0.2 0.2 0.2 0.2)
	(0.2 0.2 0.2 0.2 0.2)
	(0.2 0.2 0.2 0.2 0.2)
	(0.2 0.2 0.2 0.2 0.2)
	(0.2 0.2 0.2 0.2 0.2)
	(0.2 0.2 0.2 0.2 0.2)
	(0.2 0.2 0.2 0.2 0.2)
	(0.2 0.2 0.2 0.2 0.2)
	(0.2 0.2 0.2 0.2 0.2)
	(0.2 0.2 0.2 0.2 0.2)
	(0.2 0.2 0.2 0.2 0.2)
	(0.2 0.2 0.2 0.2 0.2)
	(0.2 0.2 0.2 0.2 0.2)
	(0.2 0.2 0.2 0.2 0.2)
	(0.2 0.2 0.2 0.2 0.2)
	(0.2 0.2 0.2 0.2 0.2)
	(0.2 0.2 0.2 0.2 0.2)
	(0.2 0.2 0.2 0.2 0.2)
	(0.2 0.2 0.2 0.2 0.2)
	(0.2 0.2 0.2 0.2 0.2)
	(0.2 0.2 0.2 0.2 0.2)
	(0.2 0.2 0.2 0.2 0.2)
	(0.2 0.2 0.2 0.2 0.2)
	(0.2 0.2 0.2 0.2 0.2)
	(0.2 0.2 0.2 0.2 0.2)
	(0.2 0.2 0.2 0.2 0.2)
	(0.2 0.2 0.2 0.2 0.2)
	(0.2 0.2 0.2 0.2 0.2)
	(0.2 0.2 0.2 0.2 0.2)
	(0.2 0.2 0.2 0.2 0.2)
	(0.2 0.2 0.2 0.2 0.2)
	(0.2 0.2 0.2 0.2 0.2)
	(0.2 0.2 0.2 0.2 0.2)
	(0.2 0.2 0.2 0.2 0.2)
	(0.2 0.2 0.2 0.2 0.2)
	(0.2 0.2 0.2 0.2 0.2)
	(0.2 0.2 0.2 0.2 0.2)
	(0.2 0.2 0.2 0.2 0.2)
	(0.2 0.2 0.2 0.2 0.2)
	(0.2 0.2 0.2 0.2 0.2)
	(0.2 0.2 0.2 0.2 0.2)
	(0.2 0.2 0.2 0.2 0.2)
	(0.2 0.2 0.2 0.2 0.2)
	(0.2 0.2 0.2 0.2 0.2)
	(0.2 0.2 0.2 0.2 0.2)
	(0.2 0.2 0.2 0.2 0.2)
	(0.2 0.2 0.2 0.2 0.2)
	(0.2 0.2 0.2 0.2 0.2)
	(0.2 0.2 0.2 0.2 0.2)
	(0.2 0.2 0.2 0.2 0.2)
	(0.2 0.2 0.2 0.2 0.2)
	(0.2 0.2 0.2 0.2 0.2)
	(0.2 0.2 0.2 0.2 0.2)
	(0.2 0.2 0.2 0.2 0.2)
	(0.2 0.2 0.2 0.2 0.2)
	(0.2 0.2 0.2 0.2 0.2)
	(0.2 0.2 0.2 0.2 0.2)
	(0.2 0.2 0.2 0.2 0.2)
	(0.2 0.2 0.2 0.2 0.2)
	(0.2 0.2 0.2 0.2 0.2)
	(0.2 0.2 0.2 0.2 0.2)
	(0.2 0.2 0.2 0.2 0.2)
	(0.2 0.2 0.2 0.2 0.2)
	(0.2 0.2 0.2 0.2 0.2)
	(0.2 0.2 0.2 0.2 0.2)
	(0.2 0.2 0.2 0.2 0.2)
	(0.2 0.2 0.2 0.2 0.2)
	(0.2 0.2 0.2 0.2 0.2)
	(0.2 0.2 0.2 0.2 0.2)
	(0.2 0.2 0.2 0.2 0.2)
	(0.2 0.2 0.2 0.2 0.2)
	(0.2 0.2 0.2 0.2 0.2)
	(0.2 0.2 0.2 0.2 0.2)
	(0.2 0.2 0.2 0.2 0.2)
	(0.2 0.2 0.2 0.2 0.2)
	(0.2 0.2 0.2 0.2 0.2)
	(0.2 0.2 0.2 0.2 0.2)
	(0.2 0.2 0.2 0.2 0.2)
	(0.2 0.2 0.2 0.2 0.2)
	(0.2 0.2 0.2 0.2 0.2)
	(0.2 0.2 0.2 0.2 0.2)
	(0.2 0.2 0.2 0.2 0.2)
	(0.2 0.2 0.2 0.2 0.2)
	(0.2 0.2 0.2 0.2 0.2)
	(0.2 0.2 0.2 0.2 0.2)
	(0.2 0.2 0.2 0.2 0.2)
	(0.2 0.2 0.2 0.2 0.2)
	(0.2 0.2 0.2 0.2 0.2)
	(0.2 0.2 0.2 0.2 0.2)
	(0.2 0.2 0.2 0.2 0.2)
	(0.2 0.2 0.2 0.2 0.2)
	(0.2 0.2 0.2 0.2 0.2)
	(0.2 0.2 0.2 0.2 0.2)
	(0.2 0.2 0.2 0.2 0.2)
	(0.2 0.2 0.2 0.2 0.2)
	(0.2 0.2 0.2 0.2 0.2)
	(0.2 0.2 0.2 0.2 0.2)
	(0.2 0.2 0.2 0.2 0.2)
	(0.2 0.2 0.2 0.2 0.2)
	(0.2 0.2 0.2 0.2 0.2)
	(0.2 0.2 0.2 0.2 0.2)
	(0.2 0.2 0.2 0.2 0.2)
	(0.2 0.2 0.2 0.2 0.2)
	(0.2 0.2 0.2 0.2 0.2)
	(0.2 0.2 0.2 0.2 0.2)
	(0.2 0.2 0.2 0.2 0.2)
	(0.2 0.2 0.2 0.2 0.2)
	(0.2 0.2 0.2 0.2 0.2)
	(0.2 0.2 0.2 0.2 0.2)
	(0.2 0.2 0.2 0.2 0.2)
	(0.2 0.2 0.2 0.2 0.2)
	(0.2 0.2 0.2 0.2 0.2)
	(0.2 0.2 0.2 0.2 0.2)
