<?xml version="1.0" encoding="ISO-8859-1"?>
<smile version="1.0" id="Unnamed" numsamples="1000" discsamples="10000">
	<nodes>
		<cpt id="class">
			<state id="normal" />
			<state id="tumor" />
			<probabilities>0.1028571428571429 0.8971428571428571</probabilities>
		</cpt>
		<cpt id="genexp1">
			<state id="normal" />
			<state id="tumor" />
			<parents>class</parents>
			<probabilities>1 0 0 1</probabilities>
		</cpt>
		<cpt id="CAV1">
			<state id="x__inf__0_46655_" />
			<state id="x__0_46655_0_51745_" />
			<state id="x_0_51745_inf_" />
			<parents>genexp1</parents>
			<probabilities>0 0.3518518518518519 0.6481481481481481 0.9490445859872612 0.05095541401273886 0</probabilities>
		</cpt>
		<cpt id="MMP11">
			<state id="x__inf_0_2215_" />
			<state id="x_0_2215_1_871417_" />
			<state id="x_1_871417_inf_" />
			<parents>genexp1</parents>
			<probabilities>0.9074074074074074 0.09259259259259259 0 0.002123142250530786 0.09554140127388536 0.9023354564755839</probabilities>
		</cpt>
		<cpt id="HS3ST4">
			<state id="x__inf_0_52145_" />
			<state id="x_0_52145_3_2749_" />
			<state id="x_3_2749_inf_" />
			<parents>genexp1 CAV1</parents>
			<probabilities>0.3333333333333333 0.3333333333333333 0.3333333333333333 0 1 0 0.3142857142857143 0.6857142857142857 0 0.959731543624161 0.03131991051454139 0.008948545861297539 0.9583333333333334 0.04166666666666666 0 0.3333333333333333 0.3333333333333333 0.3333333333333333</probabilities>
		</cpt>
		<cpt id="DPP6">
			<state id="x__inf__0_299025_" />
			<state id="x__0_299025__0_0843_" />
			<state id="x__0_0843_0_944625_" />
			<state id="x_0_944625_inf_" />
			<parents>genexp1 MMP11 CAV1 HS3ST4</parents>
			<probabilities>0.25 0.25 0.25 0.25 0.25 0.25 0.25 0.25 0.25 0.25 0.25 0.25 0.25 0.25 0.25 0.25 0.125 0.0625 0.8125 0 0.25 0.25 0.25 0.25 0 0.1111111111111111 0.8888888888888888 0 0.04166666666666666 0.2916666666666667 0.625 0.04166666666666666 0.25 0.25 0.25 0.25 0.25 0.25 0.25 0.25 0.25 0.25 0.25 0.25 0.25 0.25 0.25 0.25 0.25 0.25 0.25 0.25 0 0 1 0 0.25 0.25 0.25 0.25 0 0 1 0 0.25 0.25 0.25 0.25 0.25 0.25 0.25 0.25 0.25 0.25 0.25 0.25 0.25 0.25 0.25 0.25 0.25 0.25 0.25 0.25 0.25 0.25 0.25 0.25 0.25 0.25 0.25 0.25 0.25 0.25 0.25 0.25 0.25 0.25 0.25 0.25 0.25 0.25 0.25 0.25 0.25 0.25 0.25 0.25 1 0 0 0 0.25 0.25 0.25 0.25 0.25 0.25 0.25 0.25 0.25 0.25 0.25 0.25 0.25 0.25 0.25 0.25 0.25 0.25 0.25 0.25 0.25 0.25 0.25 0.25 0.25 0.25 0.25 0.25 0.25 0.25 0.25 0.25 0.9487179487179487 0 0.05128205128205128 0 0 1 0 0 1 0 0 0 0.6666666666666666 0 0.3333333333333333 0 0.25 0.25 0.25 0.25 0.25 0.25 0.25 0.25 0.25 0.25 0.25 0.25 0.25 0.25 0.25 0.25 0.25 0.25 0.25 0.25 0.922879177377892 0.04884318766066838 0.012853470437018 0.01542416452442159 0.9166666666666666 0 0.08333333333333333 0 1 0 0 0 0.9 0.1 0 0 0 0 1 0 0.25 0.25 0.25 0.25 0.25 0.25 0.25 0.25 0.25 0.25 0.25 0.25 0.25 0.25 0.25 0.25</probabilities>
		</cpt>
		<cpt id="LRRTM2">
			<state id="x__inf_0_633_" />
			<state id="x_0_633_0_885333_" />
			<state id="x_0_885333_inf_" />
			<parents>genexp1 MMP11 CAV1 DPP6</parents>
			<probabilities>0.3333333333333333 0.3333333333333333 0.3333333333333333 0.3333333333333333 0.3333333333333333 0.3333333333333333 0.3333333333333333 0.3333333333333333 0.3333333333333333 0.3333333333333333 0.3333333333333333 0.3333333333333333 0 0.5 0.5 0 0 1 0.07692307692307693 0.1538461538461539 0.7692307692307693 0.3333333333333333 0.3333333333333333 0.3333333333333333 0 0 1 0.25 0.25 0.5 0.2173913043478261 0.08695652173913043 0.6956521739130435 0 0 1 0.3333333333333333 0.3333333333333333 0.3333333333333333 0.3333333333333333 0.3333333333333333 0.3333333333333333 0.3333333333333333 0.3333333333333333 0.3333333333333333 0.3333333333333333 0.3333333333333333 0.3333333333333333 0.3333333333333333 0.3333333333333333 0.3333333333333333 0.3333333333333333 0.3333333333333333 0.3333333333333333 0 0 1 0.3333333333333333 0.3333333333333333 0.3333333333333333 0.3333333333333333 0.3333333333333333 0.3333333333333333 0.3333333333333333 0.3333333333333333 0.3333333333333333 0 0 1 0.3333333333333333 0.3333333333333333 0.3333333333333333 0.3333333333333333 0.3333333333333333 0.3333333333333333 0.3333333333333333 0.3333333333333333 0.3333333333333333 0.3333333333333333 0.3333333333333333 0.3333333333333333 0.3333333333333333 0.3333333333333333 0.3333333333333333 0.3333333333333333 0.3333333333333333 0.3333333333333333 0.3333333333333333 0.3333333333333333 0.3333333333333333 0.3333333333333333 0.3333333333333333 0.3333333333333333 0.3333333333333333 0.3333333333333333 0.3333333333333333 0.3333333333333333 0.3333333333333333 0.3333333333333333 0.3333333333333333 0.3333333333333333 0.3333333333333333 0.3333333333333333 0.3333333333333333 0.3333333333333333 0.3333333333333333 0.3333333333333333 0.3333333333333333 1 0 0 0.3333333333333333 0.3333333333333333 0.3333333333333333 0.3333333333333333 0.3333333333333333 0.3333333333333333 0.3333333333333333 0.3333333333333333 0.3333333333333333 0.3333333333333333 0.3333333333333333 0.3333333333333333 0.3333333333333333 0.3333333333333333 0.3333333333333333 0.3333333333333333 0.3333333333333333 0.3333333333333333 0.3333333333333333 0.3333333333333333 0.3333333333333333 0.3333333333333333 0.3333333333333333 0.3333333333333333 0.3333333333333333 0.3333333333333333 0.3333333333333333 0.3333333333333333 0.3333333333333333 0.3333333333333333 0.3333333333333333 0.3333333333333333 0.3333333333333333 0.9473684210526315 0.05263157894736842 0 1 0 0 1 0 0 0.3333333333333333 0.3333333333333333 0.3333333333333333 1 0 0 0.3333333333333333 0.3333333333333333 0.3333333333333333 0 0 1 0.3333333333333333 0.3333333333333333 0.3333333333333333 0.3333333333333333 0.3333333333333333 0.3333333333333333 0.3333333333333333 0.3333333333333333 0.3333333333333333 0.3333333333333333 0.3333333333333333 0.3333333333333333 0.3333333333333333 0.3333333333333333 0.3333333333333333 0.9758713136729222 0.01876675603217158 0.005361930294906166 0.9473684210526315 0.05263157894736842 0 1 0 0 1 0 0 0.9444444444444444 0 0.05555555555555555 1 0 0 0 1 0 0.3333333333333333 0.3333333333333333 0.3333333333333333 0.3333333333333333 0.3333333333333333 0.3333333333333333 0.3333333333333333 0.3333333333333333 0.3333333333333333 0.3333333333333333 0.3333333333333333 0.3333333333333333 0.3333333333333333 0.3333333333333333 0.3333333333333333</probabilities>
		</cpt>
		<cpt id="C10orf90">
			<state id="x__inf__0_54175_" />
			<state id="x__0_54175_inf_" />
			<parents>genexp1</parents>
			<probabilities>0.05555555555555555 0.9444444444444444 0.9150743099787686 0.08492569002123142</probabilities>
		</cpt>
		<cpt id="COL10A1">
			<state id="x__inf_2_3685_" />
			<state id="x_2_3685_4_285375_" />
			<state id="x_4_285375_inf_" />
			<parents>genexp1 C10orf90</parents>
			<probabilities>1 0 0 0.9019607843137255 0.09803921568627451 0 0.009280742459396751 0.08584686774941995 0.9048723897911833 0.025 0.075 0.9</probabilities>
		</cpt>
		<cpt id="KCNE1">
			<state id="x__inf_1_825625_" />
			<state id="x_1_825625_2_398875_" />
			<state id="x_2_398875_inf_" />
			<parents>genexp1 CAV1 HS3ST4 DPP6</parents>
			<probabilities>0.3333333333333333 0.3333333333333333 0.3333333333333333 0.3333333333333333 0.3333333333333333 0.3333333333333333 0.3333333333333333 0.3333333333333333 0.3333333333333333 0.3333333333333333 0.3333333333333333 0.3333333333333333 0.3333333333333333 0.3333333333333333 0.3333333333333333 0.3333333333333333 0.3333333333333333 0.3333333333333333 0.3333333333333333 0.3333333333333333 0.3333333333333333 0.3333333333333333 0.3333333333333333 0.3333333333333333 0.3333333333333333 0.3333333333333333 0.3333333333333333 0.3333333333333333 0.3333333333333333 0.3333333333333333 0.3333333333333333 0.3333333333333333 0.3333333333333333 0.3333333333333333 0.3333333333333333 0.3333333333333333 0.3333333333333333 0.3333333333333333 0.3333333333333333 0.3333333333333333 0.3333333333333333 0.3333333333333333 0.3333333333333333 0.3333333333333333 0.3333333333333333 0.3333333333333333 0.3333333333333333 0.3333333333333333 0 0 1 0 1 0 0 0.3125 0.6875 0.3333333333333333 0.3333333333333333 0.3333333333333333 0.3333333333333333 0.3333333333333333 0.3333333333333333 0.3333333333333333 0.3333333333333333 0.3333333333333333 0.3333333333333333 0.3333333333333333 0.3333333333333333 0.3333333333333333 0.3333333333333333 0.3333333333333333 0.3333333333333333 0.3333333333333333 0.3333333333333333 0 1 0 0.6 0 0.4 0.3333333333333333 0.3333333333333333 0.3333333333333333 0 0 1 0.1428571428571428 0.1428571428571428 0.7142857142857143 0.06666666666666667 0.2 0.7333333333333333 0 0 1 0.3333333333333333 0.3333333333333333 0.3333333333333333 0.3333333333333333 0.3333333333333333 0.3333333333333333 0.3333333333333333 0.3333333333333333 0.3333333333333333 0.3333333333333333 0.3333333333333333 0.3333333333333333 0.9521410579345088 0.03778337531486146 0.01007556675062972 0.8421052631578947 0.1052631578947368 0.05263157894736842 0.8571428571428571 0.1428571428571428 0 0.8333333333333334 0 0.1666666666666667 0.8181818181818182 0.1818181818181818 0 0.5 0.5 0 1 0 0 0.3333333333333333 0.3333333333333333 0.3333333333333333 1 0 0 0.3333333333333333 0.3333333333333333 0.3333333333333333 0.3333333333333333 0.3333333333333333 0.3333333333333333 0.3333333333333333 0.3333333333333333 0.3333333333333333 1 0 0 1 0 0 0 1 0 0.3333333333333333 0.3333333333333333 0.3333333333333333 0.3333333333333333 0.3333333333333333 0.3333333333333333 0.3333333333333333 0.3333333333333333 0.3333333333333333 1 0 0 0.3333333333333333 0.3333333333333333 0.3333333333333333 0.3333333333333333 0.3333333333333333 0.3333333333333333 0.3333333333333333 0.3333333333333333 0.3333333333333333 0.3333333333333333 0.3333333333333333 0.3333333333333333 0.3333333333333333 0.3333333333333333 0.3333333333333333 0.3333333333333333 0.3333333333333333 0.3333333333333333 0.3333333333333333 0.3333333333333333 0.3333333333333333 0.3333333333333333 0.3333333333333333 0.3333333333333333 0.3333333333333333 0.3333333333333333 0.3333333333333333 0.3333333333333333 0.3333333333333333 0.3333333333333333 0.3333333333333333 0.3333333333333333 0.3333333333333333 0.3333333333333333 0.3333333333333333 0.3333333333333333 0.3333333333333333 0.3333333333333333 0.3333333333333333 0.3333333333333333 0.3333333333333333 0.3333333333333333 0.3333333333333333 0.3333333333333333 0.3333333333333333 0.3333333333333333 0.3333333333333333 0.3333333333333333 0.3333333333333333 0.3333333333333333 0.3333333333333333</probabilities>
		</cpt>
		<cpt id="SAMD14">
			<state id="x__inf__0_292083_" />
			<state id="x__0_292083__0_0205_" />
			<state id="x__0_0205_inf_" />
			<parents>genexp1 MMP11 HS3ST4 DPP6</parents>
			<probabilities>0.3333333333333333 0.3333333333333333 0.3333333333333333 0 1 0 0.375 0.5 0.125 0.3333333333333333 0.3333333333333333 0.3333333333333333 1 0 0 0.75 0.125 0.125 0.9285714285714286 0.07142857142857142 0 1 0 0 0.3333333333333333 0.3333333333333333 0.3333333333333333 0.3333333333333333 0.3333333333333333 0.3333333333333333 0.3333333333333333 0.3333333333333333 0.3333333333333333 0.3333333333333333 0.3333333333333333 0.3333333333333333 0.3333333333333333 0.3333333333333333 0.3333333333333333 0.3333333333333333 0.3333333333333333 0.3333333333333333 0 1 0 0.3333333333333333 0.3333333333333333 0.3333333333333333 0.3333333333333333 0.3333333333333333 0.3333333333333333 0.3333333333333333 0.3333333333333333 0.3333333333333333 1 0 0 0.3333333333333333 0.3333333333333333 0.3333333333333333 0.3333333333333333 0.3333333333333333 0.3333333333333333 0.3333333333333333 0.3333333333333333 0.3333333333333333 0.3333333333333333 0.3333333333333333 0.3333333333333333 0.3333333333333333 0.3333333333333333 0.3333333333333333 0.3333333333333333 0.3333333333333333 0.3333333333333333 0.3333333333333333 0.3333333333333333 0.3333333333333333 0.3333333333333333 0.3333333333333333 0.3333333333333333 0.3333333333333333 0.3333333333333333 0.3333333333333333 0.3333333333333333 0.3333333333333333 0.3333333333333333 0.3333333333333333 0.3333333333333333 0.3333333333333333 0.3333333333333333 0.3333333333333333 0.3333333333333333 0.3333333333333333 0.3333333333333333 0.3333333333333333 0.3333333333333333 0.3333333333333333 0.3333333333333333 0.3333333333333333 0.3333333333333333 0.3333333333333333 0.3333333333333333 0.3333333333333333 0.3333333333333333 0.3333333333333333 0.3333333333333333 0.3333333333333333 0 0 1 0.3333333333333333 0.3333333333333333 0.3333333333333333 0.3333333333333333 0.3333333333333333 0.3333333333333333 0.3333333333333333 0.3333333333333333 0.3333333333333333 0.3333333333333333 0.3333333333333333 0.3333333333333333 0.3333333333333333 0.3333333333333333 0.3333333333333333 0.3333333333333333 0.3333333333333333 0.3333333333333333 0.3333333333333333 0.3333333333333333 0.3333333333333333 0.3333333333333333 0.3333333333333333 0.3333333333333333 0.3333333333333333 0.3333333333333333 0.3333333333333333 0.3333333333333333 0.3333333333333333 0.3333333333333333 0.3333333333333333 0.3333333333333333 0.3333333333333333 0 0.1794871794871795 0.8205128205128205 0.3333333333333333 0.3333333333333333 0.3333333333333333 0 0.6666666666666666 0.3333333333333333 0.3333333333333333 0.3333333333333333 0.3333333333333333 0.3333333333333333 0.3333333333333333 0.3333333333333333 0.5 0 0.5 0.3333333333333333 0.3333333333333333 0.3333333333333333 0.3333333333333333 0.3333333333333333 0.3333333333333333 0 0 1 0.3333333333333333 0.3333333333333333 0.3333333333333333 0.3333333333333333 0.3333333333333333 0.3333333333333333 0.3333333333333333 0.3333333333333333 0.3333333333333333 0.007957559681697613 0.03978779840848806 0.9522546419098143 0 0 1 0 0.2 0.8 0 0 1 0 0.09090909090909091 0.9090909090909091 0.3333333333333333 0.3333333333333333 0.3333333333333333 0 0 1 0.3333333333333333 0.3333333333333333 0.3333333333333333 0 0 1 0.3333333333333333 0.3333333333333333 0.3333333333333333 0.3333333333333333 0.3333333333333333 0.3333333333333333 0.3333333333333333 0.3333333333333333 0.3333333333333333</probabilities>
		</cpt>
		<cpt id="CA4">
			<state id="x__inf_0_42575_" />
			<state id="x_0_42575_2_201_" />
			<state id="x_2_201_inf_" />
			<parents>genexp1</parents>
			<probabilities>0 0.2407407407407407 0.7592592592592593 0.9193205944798302 0.07643312101910828 0.004246284501061571</probabilities>
		</cpt>
		<cpt id="WISP1">
			<state id="x__inf_0_205333_" />
			<state id="x_0_205333_1_024778_" />
			<state id="x_1_024778_inf_" />
			<parents>genexp1</parents>
			<probabilities>0.8888888888888888 0.09259259259259259 0.01851851851851852 0.0148619957537155 0.1061571125265393 0.8789808917197452</probabilities>
		</cpt>
		<cpt id="TPM3">
			<state id="x__inf__0_603694_" />
			<state id="x__0_603694__0_006833_" />
			<state id="x__0_006833_inf_" />
			<parents>genexp1</parents>
			<probabilities>0.5740740740740741 0.4074074074074074 0.01851851851851852 0 0.08280254777070063 0.9171974522292994</probabilities>
		</cpt>
		<cpt id="SNCA">
			<state id="x__inf__2_078375_" />
			<state id="x__2_078375_inf_" />
			<parents>genexp1 TPM3</parents>
			<probabilities>0.1935483870967742 0.8064516129032258 0.1363636363636364 0.8636363636363636 0 1 0.5 0.5 1 0 0.9513888888888888 0.04861111111111111</probabilities>
		</cpt>
		<cpt id="CKS2">
			<state id="x__inf__3_462667_" />
			<state id="x__3_462667__2_872722_" />
			<state id="x__2_872722__2_286111_" />
			<state id="x__2_286111_inf_" />
			<parents>genexp1</parents>
			<probabilities>0.5740740740740741 0.2962962962962963 0.1111111111111111 0.01851851851851852 0 0.02547770700636943 0.09766454352441614 0.8768577494692145</probabilities>
		</cpt>
		<cpt id="CORO2B">
			<state id="x__inf__1_011375_" />
			<state id="x__1_011375__0_73475_" />
			<state id="x__0_73475__0_343875_" />
			<state id="x__0_343875_inf_" />
			<parents>genexp1 TPM3 C10orf90 CKS2</parents>
			<probabilities>0.1666666666666667 0.1666666666666667 0.1666666666666667 0.5 0.25 0.25 0.25 0.25 0 0.5 0 0.5 0.25 0.25 0.25 0.25 0 0.05263157894736842 0.2105263157894737 0.7368421052631579 0.125 0.375 0.375 0.125 0.5 0 0 0.5 0.25 0.25 0.25 0.25 0 0 0 1 0.25 0.25 0.25 0.25 0.25 0.25 0.25 0.25 0.25 0.25 0.25 0.25 0 0.1 0.4 0.5 0 0.125 0.625 0.25 0 0 1 0 1 0 0 0 0.25 0.25 0.25 0.25 0.25 0.25 0.25 0.25 0.25 0.25 0.25 0.25 0.25 0.25 0.25 0.25 0 0 0 1 0.25 0.25 0.25 0.25 0.25 0.25 0.25 0.25 0.25 0.25 0.25 0.25 0.25 0.25 0.25 0.25 0.25 0.25 0.25 0.25 0.25 0.25 0.25 0.25 0.25 0.25 0.25 0.25 0.25 0.25 0.25 0.25 0.25 0.25 0.25 0.25 0.25 0.25 0.25 0.25 0.25 0.25 0.25 0.25 0.25 0.25 0.25 0.25 0.3333333333333333 0 0.6666666666666666 0 0.5 0.25 0.25 0 0.88 0.12 0 0 0.25 0.25 0.25 0.25 0.25 0.25 0.25 0.25 1 0 0 0 1 0 0 0 0.25 0.25 0.25 0.25 0.6666666666666666 0.1111111111111111 0.2222222222222222 0 0.7435897435897436 0.2051282051282051 0.02564102564102564 0.02564102564102564 0.9430199430199431 0.03988603988603989 0.0170940170940171 0 0.25 0.25 0.25 0.25 0.25 0.25 0.25 0.25 0.5 0 0.5 0 0.9032258064516129 0.03225806451612903 0.06451612903225806 0</probabilities>
		</cpt>
		<cpt id="CACHD1">
			<state id="x__inf_0_703_" />
			<state id="x_0_703_inf_" />
			<parents>genexp1 TPM3 SNCA C10orf90 COL10A1</parents>
			<probabilities>0.25 0.75 0.5 0.5 0.5 0.5 0.2 0.8 1 0 0.5 0.5 1 0 0.5 0.5 0.5 0.5 0.04545454545454546 0.9545454545454546 0 1 0.5 0.5 0.5 0.5 0.5 0.5 0.5 0.5 0.5 0.5 0 1 0.5 0.5 0 1 0.5 0.5 0.5 0.5 0 1 0 1 0.5 0.5 0.5 0.5 0.5 0.5 0.5 0.5 0.5 0.5 0.5 0.5 0.5 0.5 0.5 0.5 0.5 0.5 0.5 0.5 0 1 0.5 0.5 0.5 0.5 0.5 0.5 0.5 0.5 0.5 0.5 0.5 0.5 0.5 0.5 0.5 0.5 0.5 0.5 0.5 0.5 0.5 0.5 0.5 0.5 0.5 0.5 0.5 0.5 1 0 1 0 1 0 0 1 0.5 0.5 0.8333333333333334 0.1666666666666667 0.5 0.5 0.5 0.5 0.5 0.5 0.5 0.5 0.5 0.5 0.5 0.5 0.6666666666666666 0.3333333333333333 0.9393939393939394 0.06060606060606061 0.9853801169590644 0.01461988304093567 0.5 0.5 0.6666666666666666 0.3333333333333333 0.8666666666666667 0.1333333333333333 0.5 0.5 0.5 0.5 0.8421052631578947 0.1578947368421053 0.5 0.5 0.5 0.5 0.5 0.5</probabilities>
		</cpt>
		<cpt id="UBAP2L">
			<state id="x__inf__1_1541_" />
			<state id="x__1_1541__0_92705_" />
			<state id="x__0_92705_inf_" />
			<parents>genexp1 CACHD1 CKS2 CORO2B</parents>
			<probabilities>0.3333333333333333 0.3333333333333333 0.3333333333333333 1 0 0 0.3333333333333333 0.3333333333333333 0.3333333333333333 1 0 0 0.3333333333333333 0.3333333333333333 0.3333333333333333 0.3333333333333333 0.3333333333333333 0.3333333333333333 0.3333333333333333 0.3333333333333333 0.3333333333333333 0.3333333333333333 0.3333333333333333 0.3333333333333333 0 1 0 1 0 0 0.3333333333333333 0.3333333333333333 0.3333333333333333 0.5 0 0.5 0.3333333333333333 0.3333333333333333 0.3333333333333333 0.3333333333333333 0.3333333333333333 0.3333333333333333 0.3333333333333333 0.3333333333333333 0.3333333333333333 0.3333333333333333 0.3333333333333333 0.3333333333333333 0.3333333333333333 0.3333333333333333 0.3333333333333333 1 0 0 0.875 0 0.125 0.9 0.1 0 1 0 0 0.5 0.5 0 0.75 0.25 0 0.6666666666666666 0.3333333333333333 0 0.3333333333333333 0.3333333333333333 0.3333333333333333 0.3333333333333333 0.3333333333333333 0.3333333333333333 0.5 0.5 0 0.3333333333333333 0.3333333333333333 0.3333333333333333 1 0 0 0.3333333333333333 0.3333333333333333 0.3333333333333333 0.3333333333333333 0.3333333333333333 0.3333333333333333 0.3333333333333333 0.3333333333333333 0.3333333333333333 0.3333333333333333 0.3333333333333333 0.3333333333333333 0.3333333333333333 0.3333333333333333 0.3333333333333333 0.3333333333333333 0.3333333333333333 0.3333333333333333 0.3333333333333333 0.3333333333333333 0.3333333333333333 0 0.1666666666666667 0.8333333333333334 0 0 1 0.5 0 0.5 0.3333333333333333 0.3333333333333333 0.3333333333333333 0.03225806451612903 0.1935483870967742 0.7741935483870968 0 0.1111111111111111 0.8888888888888888 0 0 1 0 0 1 0.02144772117962467 0.032171581769437 0.9463806970509383 0.05882352941176471 0 0.9411764705882353 0 0.1428571428571428 0.8571428571428571 0.3333333333333333 0.3333333333333333 0.3333333333333333 0.3333333333333333 0.3333333333333333 0.3333333333333333 0.3333333333333333 0.3333333333333333 0.3333333333333333 0.3333333333333333 0.3333333333333333 0.3333333333333333 0.3333333333333333 0.3333333333333333 0.3333333333333333 0 1 0 0.3333333333333333 0.3333333333333333 0.3333333333333333 0.3333333333333333 0.3333333333333333 0.3333333333333333 0.3333333333333333 0.3333333333333333 0.3333333333333333 0 0 1 0.3333333333333333 0.3333333333333333 0.3333333333333333 0.3333333333333333 0.3333333333333333 0.3333333333333333 0.3333333333333333 0.3333333333333333 0.3333333333333333 0 0.07142857142857142 0.9285714285714286 0 0 1 0 0 1 0.3333333333333333 0.3333333333333333 0.3333333333333333</probabilities>
		</cpt>
		<cpt id="LOC387911">
			<state id="x__inf_2_178_" />
			<state id="x_2_178_2_877375_" />
			<state id="x_2_877375_inf_" />
			<parents>genexp1 SNCA CORO2B UBAP2L</parents>
			<probabilities>0.3333333333333333 0.3333333333333333 0.3333333333333333 0 1 0 0.3333333333333333 0.3333333333333333 0.3333333333333333 0.3333333333333333 0.3333333333333333 0.3333333333333333 0.3333333333333333 0.3333333333333333 0.3333333333333333 0.3333333333333333 0.3333333333333333 0.3333333333333333 0 0 1 0 0 1 0 0 1 0 0 1 0.3333333333333333 0.3333333333333333 0.3333333333333333 0 1 0 0 0 1 0.3333333333333333 0.3333333333333333 0.3333333333333333 0.3333333333333333 0.3333333333333333 0.3333333333333333 0 0.6 0.4 0 0.5 0.5 0.3333333333333333 0.3333333333333333 0.3333333333333333 0 0 1 0 1 0 0.3333333333333333 0.3333333333333333 0.3333333333333333 0 0.1111111111111111 0.8888888888888888 0 0 1 0.3333333333333333 0.3333333333333333 0.3333333333333333 1 0 0 0.8947368421052632 0.1052631578947368 0 0.9553805774278216 0.03149606299212598 0.01312335958005249 1 0 0 0.3333333333333333 0.3333333333333333 0.3333333333333333 0.7692307692307693 0.07692307692307693 0.1538461538461539 0 0 1 0.3333333333333333 0.3333333333333333 0.3333333333333333 0.9166666666666666 0.08333333333333333 0 0.3333333333333333 0.3333333333333333 0.3333333333333333 0.3333333333333333 0.3333333333333333 0.3333333333333333 1 0 0 1 0 0 1 0 0 0.875 0.125 0 0.3333333333333333 0.3333333333333333 0.3333333333333333 1 0 0 0.3333333333333333 0.3333333333333333 0.3333333333333333 0.3333333333333333 0.3333333333333333 0.3333333333333333 0 0 1 0.3333333333333333 0.3333333333333333 0.3333333333333333 0.3333333333333333 0.3333333333333333 0.3333333333333333 0.3333333333333333 0.3333333333333333 0.3333333333333333 0.3333333333333333 0.3333333333333333 0.3333333333333333</probabilities>
		</cpt>
		<cpt id="GJB2">
			<state id="x__inf_0_465733_" />
			<state id="x_0_465733_inf_" />
			<parents>genexp1</parents>
			<probabilities>0.9444444444444444 0.05555555555555555 0.07643312101910828 0.9235668789808917</probabilities>
		</cpt>
		<cpt id="TRIM59">
			<state id="x__inf__1_201167_" />
			<state id="x__1_201167__0_8325_" />
			<state id="x__0_8325_inf_" />
			<parents>genexp1 CA4 GJB2</parents>
			<probabilities>0.3333333333333333 0.3333333333333333 0.3333333333333333 0.3333333333333333 0.3333333333333333 0.3333333333333333 0.4615384615384616 0.4615384615384616 0.07692307692307693 0.3333333333333333 0.3333333333333333 0.3333333333333333 0.8157894736842105 0.1578947368421053 0.02631578947368421 0.6666666666666666 0 0.3333333333333333 0.06666666666666667 0.2666666666666667 0.6666666666666666 0.02729528535980149 0.04714640198511166 0.9255583126550868 0.2 0.2 0.6 0.06451612903225806 0.03225806451612903 0.9032258064516129 0 1 0 0 1 0</probabilities>
		</cpt>
		<cpt id="LEPR">
			<state id="x__inf_0_355683_" />
			<state id="x_0_355683_1_1475_" />
			<state id="x_1_1475_inf_" />
			<parents>genexp1 CA4 GJB2 TRIM59</parents>
			<probabilities>0.3333333333333333 0.3333333333333333 0.3333333333333333 0.3333333333333333 0.3333333333333333 0.3333333333333333 0.3333333333333333 0.3333333333333333 0.3333333333333333 0.3333333333333333 0.3333333333333333 0.3333333333333333 0.3333333333333333 0.3333333333333333 0.3333333333333333 0.3333333333333333 0.3333333333333333 0.3333333333333333 0 0.3333333333333333 0.6666666666666666 0 0.3333333333333333 0.6666666666666666 0 1 0 0.3333333333333333 0.3333333333333333 0.3333333333333333 0.3333333333333333 0.3333333333333333 0.3333333333333333 0.3333333333333333 0.3333333333333333 0.3333333333333333 0 0.06451612903225806 0.9354838709677419 0 0.1666666666666667 0.8333333333333334 0 0 1 0 0 1 0.3333333333333333 0.3333333333333333 0.3333333333333333 0 0 1 1 0 0 1 0 0 0.8 0.15 0.05 0.9090909090909091 0 0.09090909090909091 0.8421052631578947 0.1052631578947368 0.05263157894736842 0.9168900804289544 0.06702412868632708 0.0160857908847185 1 0 0 1 0 0 1 0 0 0 0 1 0 1 0 0.5 0.3571428571428572 0.1428571428571428 0.3333333333333333 0.3333333333333333 0.3333333333333333 1 0 0 0.3333333333333333 0.3333333333333333 0.3333333333333333 0.3333333333333333 0.3333333333333333 0.3333333333333333 0 0 1 0.3333333333333333 0.3333333333333333 0.3333333333333333</probabilities>
		</cpt>
		<cpt id="PGM5">
			<state id="x__inf_0_935833_" />
			<state id="x_0_935833_1_579833_" />
			<state id="x_1_579833_inf_" />
			<parents>genexp1 LEPR</parents>
			<probabilities>0.3333333333333333 0.3333333333333333 0.3333333333333333 0 0.375 0.625 0.04347826086956522 0.1304347826086956 0.8260869565217391 0.9202898550724637 0.06763285024154589 0.01207729468599034 0.4634146341463415 0.4390243902439024 0.0975609756097561 0.25 0.75 0</probabilities>
		</cpt>
		<cpt id="STARD9">
			<state id="x__inf__0_496938_" />
			<state id="x__0_496938_0_0645_" />
			<state id="x_0_0645_0_354875_" />
			<state id="x_0_354875_inf_" />
			<parents>genexp1 CA4 GJB2 TRIM59 LEPR PGM5</parents>
			<probabilities>0.25 0.25 0.25 0.25 0.25 0.25 0.25 0.25 0.25 0.25 0.25 0.25 0.25 0.25 0.25 0.25 0.25 0.25 0.25 0.25 0.25 0.25 0.25 0.25 0.25 0.25 0.25 0.25 0.25 0.25 0.25 0.25 0.25 0.25 0.25 0.25 0.25 0.25 0.25 0.25 0.25 0.25 0.25 0.25 0.25 0.25 0.25 0.25 0.25 0.25 0.25 0.25 0.25 0.25 0.25 0.25 0.25 0.25 0.25 0.25 0.25 0.25 0.25 0.25 0.25 0.25 0.25 0.25 0.25 0.25 0.25 0.25 0.25 0.25 0.25 0.25 0.25 0.25 0.25 0.25 0.25 0.25 0.25 0.25 0.25 0.25 0.25 0.25 0.25 0.25 0.25 0.25 0.25 0.25 0.25 0.25 0.25 0.25 0.25 0.25 0.25 0.25 0.25 0.25 0.25 0.25 0.25 0.25 0.25 0.25 0.25 0.25 0.25 0.25 0.25 0.25 0.25 0.25 0.25 0.25 0.25 0.25 0.25 0.25 0.25 0.25 0.25 0.25 0.25 0.25 0.25 0.25 0.25 0.25 0.25 0.25 0.25 0.25 0.25 0.25 0.25 0.25 0.25 0.25 0.25 0.25 0.25 0.25 0.25 0.25 0.25 0.25 0.25 0.25 0.25 0.25 0.25 0.25 0.25 0.25 0.25 0.25 0.25 0.25 0.25 0.25 0.25 0.25 0.25 0.25 0.25 0.25 0.25 0.25 0.25 0.25 0.25 0.25 0.25 0.25 0.25 0.25 0.25 0.25 0.25 0.25 0.25 0.25 0.25 0.25 0.25 0.25 0.25 0.25 0.25 0.25 0.25 0.25 0.25 0.25 0.25 0.25 0.25 0.25 0.25 0.25 0.25 0.25 0.25 0.25 0.25 0.25 0.25 0.25 0.25 0.25 0.25 0.25 0.25 0.25 0.25 0.25 0.25 0.25 0.25 0.25 0.25 0.25 0.25 0.25 0.25 0.25 0.1666666666666667 0.1666666666666667 0.5000000000000001 0.1666666666666667 0 0.5 0 0.5 0.25 0.25 0.25 0.25 0 0.5 0.5 0 0 0 0 1 0.25 0.25 0.25 0.25 0.25 0.25 0.25 0.25 0.25 0.25 0.25 0.25 0.25 0.25 0.25 0.25 0 1 0 0 0 0 1 0 0.25 0.25 0.25 0.25 0 1 0 0 0 0.3333333333333333 0.6666666666666666 0 0.25 0.25 0.25 0.25 0.25 0.25 0.25 0.25 0.25 0.25 0.25 0.25 0.25 0.25 0.25 0.25 0 1 0 0 0.25 0.25 0.25 0.25 0.25 0.25 0.25 0.25 0.25 0.25 0.25 0.25 0.25 0.25 0.25 0.25 0.25 0.25 0.25 0.25 0.25 0.25 0.25 0.25 0.25 0.25 0.25 0.25 0.25 0.25 0.25 0.25 0.25 0.25 0.25 0.25 0.25 0.25 0.25 0.25 0.25 0.25 0.25 0.25 0.25 0.25 0.25 0.25 0.25 0.25 0.25 0.25 0.25 0.25 0.25 0.25 0.25 0.25 0.25 0.25 0.25 0.25 0.25 0.25 0.25 0.25 0.25 0.25 0.25 0.25 0.25 0.25 0.25 0.25 0.25 0.25 0.25 0.25 0.25 0.25 0.25 0.25 0.25 0.25 0.25 0.25 0.25 0.25 0.25 0.25 0.25 0.25 0.25 0.25 0.25 0.25 0.25 0.25 0.25 0.25 0.25 0.25 0.25 0.25 0.25 0.25 0.25 0.25 0.25 0.25 0.25 0.25 0.25 0.25 0.25 0.25 0.25 0.25 0.25 0.25 0.25 0.25 0.25 0.25 0.25 0.25 0.25 0.25 0.25 0.25 0.25 0.25 0.25 0.25 0.25 0.25 0.25 0.25 0.25 0.25 0.25 0.25 0.25 0.25 0 0 1 0 0 0 0 1 0 1 0 0 0 0.07407407407407407 0.07407407407407407 0.8518518518518519 0.25 0.25 0.25 0.25 0.25 0.25 0.25 0.25 0.25 0.25 0.25 0.25 0.25 0.25 0.25 0.25 0 1 0 0 0.25 0.25 0.25 0.25 0 1 0 0 0 0 0 1 0 0 0.3333333333333333 0.6666666666666666 0.25 0.25 0.25 0.25 0.25 0.25 0.25 0.25 0.25 0.25 0.25 0.25 0.25 0.25 0.25 0.25 0.25 0.25 0.25 0.25 0.25 0.25 0.25 0.25 0.25 0.25 0.25 0.25 0 0 1 0 0.25 0.25 0.25 0.25 0.25 0.25 0.25 0.25 0.25 0.25 0.25 0.25 0.25 0.25 0.25 0.25 0.25 0.25 0.25 0.25 0.25 0.25 0.25 0.25 0.25 0.25 0.25 0.25 0.25 0.25 0.25 0.25 0.25 0.25 0.25 0.25 0 0 0 1 0.25 0.25 0.25 0.25 0.25 0.25 0.25 0.25 0.25 0.25 0.25 0.25 0.25 0.25 0.25 0.25 0.25 0.25 0.25 0.25 0.25 0.25 0.25 0.25 0.25 0.25 0.25 0.25 0.25 0.25 0.25 0.25 0.25 0.25 0.25 0.25 0.25 0.25 0.25 0.25 0.25 0.25 0.25 0.25 0.25 0.25 0.25 0.25 0.25 0.25 0.25 0.25 0.25 0.25 0.25 0.25 0.25 0.25 0.25 0.25 0.25 0.25 0.25 0.25 0.25 0.25 0.25 0.25 0 0 1 0 1 0 0 0 0.25 0.25 0.25 0.25 0.25 0.25 0.25 0.25 0.25 0.25 0.25 0.25 0.25 0.25 0.25 0.25 0.25 0.25 0.25 0.25 0.25 0.25 0.25 0.25 0.25 0.25 0.25 0.25 0.25 0.25 0.25 0.25 0.8571428571428571 0.1428571428571428 0 0 0.25 0.25 0.25 0.25 0 1 0 0 0.25 0.25 0.25 0.25 0.25 0.25 0.25 0.25 0.25 0.25 0.25 0.25 0.25 0.25 0.25 0.25 0.25 0.25 0.25 0.25 0.25 0.25 0.25 0.25 1 0 0 0 1 0 0 0 0.25 0.25 0.25 0.25 0.5 0.5 0 0 0 1 0 0 0.25 0.25 0.25 0.25 0.25 0.25 0.25 0.25 1 0 0 0 0.25 0.25 0.25 0.25 1 0 0 0 1 0 0 0 0.25 0.25 0.25 0.25 0.25 0.25 0.25 0.25 0.25 0.25 0.25 0.25 0.25 0.25 0.25 0.25 0.25 0.25 0.25 0.25 0 1 0 0 0.25 0.25 0.25 0.25 1 0 0 0 0.25 0.25 0.25 0.25 0.25 0.25 0.25 0.25 1 0 0 0 0.25 0.25 0.25 0.25 0.25 0.25 0.25 0.25 0.25 0.25 0.25 0.25 0 1 0 0 0.25 0.25 0.25 0.25 0.9433962264150944 0.05660377358490566 0 0 0.7272727272727273 0.2727272727272727 0 0 0.5 0.5 0 0 0.75 0.25 0 0 0.7 0.3 0 0 0.3333333333333333 0.3333333333333333 0.3333333333333333 0 0.6666666666666666 0.3333333333333333 0 0 0.3333333333333333 0.6666666666666666 0 0 0.25 0.25 0.25 0.25 1 0 0 0 0.25 0.25 0.25 0.25 0.25 0.25 0.25 0.25 0.25 0.25 0.25 0.25 0.25 0.25 0.25 0.25 0.25 0.25 0.25 0.25 0.25 0.25 0.25 0.25 0.25 0.25 0.25 0.25 0.25 0.25 0.25 0.25 1 0 0 0 0.25 0.25 0.25 0.25 0.25 0.25 0.25 0.25 0.25 0.25 0.25 0.25 0.25 0.25 0.25 0.25 0.25 0.25 0.25 0.25 0.25 0.25 0.25 0.25 0.25 0.25 0.25 0.25 0.25 0.25 0.25 0.25 1 0 0 0 0.5 0.5 0 0 0.25 0.25 0.25 0.25 0.25 0.25 0.25 0.25 0.25 0.25 0.25 0.25 0.25 0.25 0.25 0.25 0.25 0.25 0.25 0.25 0.25 0.25 0.25 0.25 0.25 0.25 0.25 0.25 0.25 0.25 0.25 0.25 0.25 0.25 0.25 0.25 0.25 0.25 0.25 0.25 0.25 0.25 0.25 0.25 0.25 0.25 0.25 0.25 0.25 0.25 0.25 0.25 0.25 0.25 0.25 0.25 0 0.5 0.5 0 0.25 0.25 0.25 0.25 0.25 0.25 0.25 0.25 0.25 0.25 0.25 0.25 0.25 0.25 0.25 0.25 0.25 0.25 0.25 0.25 0 1 0 0 0.25 0.25 0.25 0.25 0.25 0.25 0.25 0.25 0.25 0.25 0.25 0.25 0.25 0.25 0.25 0.25 0.9090909090909091 0.09090909090909091 0 0 1 0 0 0 0 0.5 0.5 0 0.6666666666666666 0.3333333333333333 0 0 0.5 0.5 0 0 0 1 0 0 1 0 0 0 0.3333333333333333 0.6666666666666666 0 0 0.25 0.25 0.25 0.25 0.25 0.25 0.25 0.25 0.25 0.25 0.25 0.25 0.25 0.25 0.25 0.25 0.25 0.25 0.25 0.25 0.25 0.25 0.25 0.25 0.25 0.25 0.25 0.25 0.25 0.25 0.25 0.25 0.25 0.25 0.25 0.25 0.25 0.25 0.25 0.25 1 0 0 0 0.25 0.25 0.25 0.25 0.25 0.25 0.25 0.25 0.25 0.25 0.25 0.25 0.25 0.25 0.25 0.25 0.25 0.25 0.25 0.25 0.25 0.25 0.25 0.25 0.25 0.25 0.25 0.25 0.25 0.25 0.25 0.25 0.25 0.25 0.25 0.25 0.25 0.25 0.25 0.25 0.25 0.25 0.25 0.25 0.25 0.25 0.25 0.25 0.25 0.25 0.25 0.25 0.25 0.25 0.25 0.25 0.25 0.25 0.25 0.25 0.25 0.25 0.25 0.25 0.25 0.25 0.25 0.25 0.25 0.25 0.25 0.25 0.25 0.25 0.25 0.25 0.25 0.25 0.25 0.25 0.25 0.25 0.25 0.25 0.25 0.25 0.25 0.25 0.25 0.25 0.25 0.25 0.25 0.25 0.25 0.25 0.25 0.25 0.25 0.25 0.25 0.25 0.25 0.25 0.25 0.25 0.25 0.25 0.25 0.25 0.25 0.25 0.25 0.25 0.25 0.25 0.25 0.25 0.25 0.25 0.25 0.25 0.25 0.25 0.25 0.25 0.25 0.25 0.25 0.25 0.25 0.25 0 0 1 0 0.25 0.25 0.25 0.25 0.25 0.25 0.25 0.25 0.25 0.25 0.25 0.25 0.25 0.25 0.25 0.25 0.25 0.25 0.25 0.25 0.25 0.25 0.25 0.25 0.25 0.25 0.25 0.25 0.25 0.25 0.25 0.25 0.25 0.25 0.25 0.25 0.25 0.25 0.25 0.25</probabilities>
		</cpt>
		<cpt id="ARRDC3">
			<state id="x__inf_0_630311_" />
			<state id="x_0_630311_1_079458_" />
			<state id="x_1_079458_inf_" />
			<parents>genexp1 CA4 LEPR PGM5 STARD9</parents>
			<probabilities>0.3333333333333333 0.3333333333333333 0.3333333333333333 0.3333333333333333 0.3333333333333333 0.3333333333333333 0.3333333333333333 0.3333333333333333 0.3333333333333333 0.3333333333333333 0.3333333333333333 0.3333333333333333 0.3333333333333333 0.3333333333333333 0.3333333333333333 0.3333333333333333 0.3333333333333333 0.3333333333333333 0.3333333333333333 0.3333333333333333 0.3333333333333333 0.3333333333333333 0.3333333333333333 0.3333333333333333 0.3333333333333333 0.3333333333333333 0.3333333333333333 0.3333333333333333 0.3333333333333333 0.3333333333333333 0.3333333333333333 0.3333333333333333 0.3333333333333333 0.3333333333333333 0.3333333333333333 0.3333333333333333 0.3333333333333333 0.3333333333333333 0.3333333333333333 0.3333333333333333 0.3333333333333333 0.3333333333333333 0.3333333333333333 0.3333333333333333 0.3333333333333333 0.3333333333333333 0.3333333333333333 0.3333333333333333 0.3333333333333333 0.3333333333333333 0.3333333333333333 0.3333333333333333 0.3333333333333333 0.3333333333333333 0.3333333333333333 0.3333333333333333 0.3333333333333333 0.3333333333333333 0.3333333333333333 0.3333333333333333 0.3333333333333333 0.3333333333333333 0.3333333333333333 0.3333333333333333 0.3333333333333333 0.3333333333333333 0.3333333333333333 0.3333333333333333 0.3333333333333333 0.3333333333333333 0.3333333333333333 0.3333333333333333 0.3333333333333333 0.3333333333333333 0.3333333333333333 0.3333333333333333 0.3333333333333333 0.3333333333333333 0.3333333333333333 0.3333333333333333 0.3333333333333333 0.3333333333333333 0.3333333333333333 0.3333333333333333 0.3333333333333333 0.3333333333333333 0.3333333333333333 0.3333333333333333 0.3333333333333333 0.3333333333333333 0.3333333333333333 0.3333333333333333 0.3333333333333333 0.3333333333333333 0.3333333333333333 0.3333333333333333 0.3333333333333333 0.3333333333333333 0.3333333333333333 0.3333333333333333 0.3333333333333333 0.3333333333333333 0.3333333333333333 0.3333333333333333 0.3333333333333333 0.3333333333333333 0.3333333333333333 0.3333333333333333 0.3333333333333333 0.3333333333333333 0.3333333333333333 0.3333333333333333 0.3333333333333333 0.3333333333333333 0.3333333333333333 0.3333333333333333 0.3333333333333333 0.3333333333333333 0.3333333333333333 0.3333333333333333 0.3333333333333333 0.3333333333333333 0.3333333333333333 0.3333333333333333 0.3333333333333333 0.3333333333333333 0.3333333333333333 0.3333333333333333 0.3333333333333333 0.3333333333333333 0.3333333333333333 0.3333333333333333 0.3333333333333333 0.3333333333333333 0.3333333333333333 0.3333333333333333 0.3333333333333333 0.3333333333333333 0.3333333333333333 0.3333333333333333 0.3333333333333333 0.3333333333333333 0.3333333333333333 0.3333333333333333 0.3333333333333333 0.3333333333333333 0.3333333333333333 0.3333333333333333 0.3333333333333333 0.3333333333333333 0.3333333333333333 0.3333333333333333 0.3333333333333333 0.3333333333333333 0.3333333333333333 0.3333333333333333 0.3333333333333333 0.3333333333333333 0.3333333333333333 0 0 1 0.2 0.2 0.6 0.3333333333333333 0.3333333333333333 0.3333333333333333 0.3333333333333333 0.3333333333333333 0.3333333333333333 0 1 0 0 0 1 0 0 1 0.3333333333333333 0.3333333333333333 0.3333333333333333 0.3333333333333333 0.3333333333333333 0.3333333333333333 0.3333333333333333 0.3333333333333333 0.3333333333333333 0.3333333333333333 0.3333333333333333 0.3333333333333333 0.3333333333333333 0.3333333333333333 0.3333333333333333 0 0 1 0 0 1 0.3333333333333333 0.3333333333333333 0.3333333333333333 0.3333333333333333 0.3333333333333333 0.3333333333333333 0 0 1 0 0.5 0.5 0 0 1 0.3333333333333333 0.3333333333333333 0.3333333333333333 0.3333333333333333 0.3333333333333333 0.3333333333333333 0.3333333333333333 0.3333333333333333 0.3333333333333333 0.3333333333333333 0.3333333333333333 0.3333333333333333 0.3333333333333333 0.3333333333333333 0.3333333333333333 0.3333333333333333 0.3333333333333333 0.3333333333333333 0.3333333333333333 0.3333333333333333 0.3333333333333333 0.3333333333333333 0.3333333333333333 0.3333333333333333 0.3333333333333333 0.3333333333333333 0.3333333333333333 0.3333333333333333 0.3333333333333333 0.3333333333333333 0.3333333333333333 0.3333333333333333 0.3333333333333333 0.3333333333333333 0.3333333333333333 0.3333333333333333 0.3333333333333333 0.3333333333333333 0.3333333333333333 0.3333333333333333 0.3333333333333333 0.3333333333333333 0.3333333333333333 0.3333333333333333 0.3333333333333333 0.3333333333333333 0.3333333333333333 0.3333333333333333 0.3333333333333333 0.3333333333333333 0.3333333333333333 0 1 0 0.3333333333333333 0.3333333333333333 0.3333333333333333 0.3333333333333333 0.3333333333333333 0.3333333333333333 0.3333333333333333 0.3333333333333333 0.3333333333333333 0.3333333333333333 0.3333333333333333 0.3333333333333333 0 0.5 0.5 0.3333333333333333 0.3333333333333333 0.3333333333333333 0.3333333333333333 0.3333333333333333 0.3333333333333333 0 1 0 0.3333333333333333 0.3333333333333333 0.3333333333333333 0 1 0 0.3333333333333333 0.3333333333333333 0.3333333333333333 0 0 1 0 0 1 0 0 1 0.3333333333333333 0.3333333333333333 0.3333333333333333 0 0 1 0 0.25 0.75 0.2962962962962963 0.2962962962962963 0.4074074074074074 0.9481268011527377 0.04034582132564841 0.01152737752161383 0.8421052631578947 0.1578947368421053 0 0.6 0.2 0.2 0.3333333333333333 0.3333333333333333 0.3333333333333333 0.8421052631578947 0.1052631578947368 0.05263157894736842 0.8333333333333334 0.1666666666666667 0 0.3333333333333333 0.3333333333333333 0.3333333333333333 0.3333333333333333 0.3333333333333333 0.3333333333333333 1 0 0 1 0 0 0.3333333333333333 0.3333333333333333 0.3333333333333333 0.3333333333333333 0.3333333333333333 0.3333333333333333 0.9166666666666666 0.08333333333333333 0 1 0 0 0.3333333333333333 0.3333333333333333 0.3333333333333333 0.3333333333333333 0.3333333333333333 0.3333333333333333 0.7142857142857143 0 0.2857142857142857 1 0 0 0.3333333333333333 0.3333333333333333 0.3333333333333333 0.3333333333333333 0.3333333333333333 0.3333333333333333 1 0 0 1 0 0 1 0 0 0.3333333333333333 0.3333333333333333 0.3333333333333333 1 0 0 1 0 0 0.3333333333333333 0.3333333333333333 0.3333333333333333 0.3333333333333333 0.3333333333333333 0.3333333333333333 0.5 0.5 0 0.75 0.25 0 0.3333333333333333 0.3333333333333333 0.3333333333333333 0.3333333333333333 0.3333333333333333 0.3333333333333333 0.3333333333333333 0.3333333333333333 0.3333333333333333 0.3333333333333333 0.3333333333333333 0.3333333333333333 0.3333333333333333 0.3333333333333333 0.3333333333333333 0.3333333333333333 0.3333333333333333 0.3333333333333333 0.9230769230769231 0.07692307692307693 0 1 0 0 0.3333333333333333 0.3333333333333333 0.3333333333333333 0.3333333333333333 0.3333333333333333 0.3333333333333333 1 0 0 1 0 0 0.3333333333333333 0.3333333333333333 0.3333333333333333 0.3333333333333333 0.3333333333333333 0.3333333333333333 0.3333333333333333 0.3333333333333333 0.3333333333333333 0 1 0 1 0 0 0.3333333333333333 0.3333333333333333 0.3333333333333333 0.5 0.5 0 0 1 0 0.3333333333333333 0.3333333333333333 0.3333333333333333 0.3333333333333333 0.3333333333333333 0.3333333333333333 0.6666666666666666 0 0.3333333333333333 1 0 0 0.3333333333333333 0.3333333333333333 0.3333333333333333 0.3333333333333333 0.3333333333333333 0.3333333333333333 0.3333333333333333 0.3333333333333333 0.3333333333333333 0 1 0 0.3333333333333333 0.3333333333333333 0.3333333333333333 0.3333333333333333 0.3333333333333333 0.3333333333333333 1 0 0 0.3333333333333333 0.3333333333333333 0.3333333333333333 0.3333333333333333 0.3333333333333333 0.3333333333333333 0.3333333333333333 0.3333333333333333 0.3333333333333333 0 1 0 0.6666666666666666 0.3333333333333333 0 1 0 0 0.3333333333333333 0.3333333333333333 0.3333333333333333 0.3333333333333333 0.3333333333333333 0.3333333333333333 0.3333333333333333 0.3333333333333333 0.3333333333333333 0.3333333333333333 0.3333333333333333 0.3333333333333333 0.3333333333333333 0.3333333333333333 0.3333333333333333 1 0 0 0.3333333333333333 0.3333333333333333 0.3333333333333333 0.3333333333333333 0.3333333333333333 0.3333333333333333 0.3333333333333333 0.3333333333333333 0.3333333333333333 0.3333333333333333 0.3333333333333333 0.3333333333333333 0.3333333333333333 0.3333333333333333 0.3333333333333333 0.3333333333333333 0.3333333333333333 0.3333333333333333 0.3333333333333333 0.3333333333333333 0.3333333333333333 0.3333333333333333 0.3333333333333333 0.3333333333333333 0.3333333333333333 0.3333333333333333 0.3333333333333333 0.3333333333333333 0.3333333333333333 0.3333333333333333 0.3333333333333333 0.3333333333333333 0.3333333333333333 0.3333333333333333 0.3333333333333333 0.3333333333333333 0.3333333333333333 0.3333333333333333 0.3333333333333333 0.3333333333333333 0.3333333333333333 0.3333333333333333 0.3333333333333333 0.3333333333333333 0.3333333333333333 0.3333333333333333 0.3333333333333333 0.3333333333333333 0.3333333333333333 0.3333333333333333 0.3333333333333333 0.3333333333333333 0.3333333333333333 0.3333333333333333 0.3333333333333333 0.3333333333333333 0.3333333333333333 0.3333333333333333 0.3333333333333333 0.3333333333333333 0.3333333333333333 0.3333333333333333 0.3333333333333333 0.3333333333333333 0.3333333333333333 0.3333333333333333 0.3333333333333333 0.3333333333333333 0.3333333333333333 0.3333333333333333 0.3333333333333333 0.3333333333333333 0.3333333333333333 0.3333333333333333 0.3333333333333333 0.3333333333333333 0.3333333333333333 0.3333333333333333 0.3333333333333333 0.3333333333333333 0.3333333333333333 0.3333333333333333 0.3333333333333333 0.3333333333333333 0.3333333333333333 0.3333333333333333 0.3333333333333333 1 0 0 0.3333333333333333 0.3333333333333333 0.3333333333333333 0.3333333333333333 0.3333333333333333 0.3333333333333333 0.3333333333333333 0.3333333333333333 0.3333333333333333 0.3333333333333333 0.3333333333333333 0.3333333333333333 0.3333333333333333 0.3333333333333333 0.3333333333333333</probabilities>
		</cpt>
		<cpt id="USP44">
			<state id="x__inf__3_136625_" />
			<state id="x__3_136625__2_517_" />
			<state id="x__2_517_inf_" />
			<parents>genexp1 CA4 GJB2 LEPR PGM5</parents>
			<probabilities>0.3333333333333333 0.3333333333333333 0.3333333333333333 0.3333333333333333 0.3333333333333333 0.3333333333333333 0.3333333333333333 0.3333333333333333 0.3333333333333333 0.3333333333333333 0.3333333333333333 0.3333333333333333 0.3333333333333333 0.3333333333333333 0.3333333333333333 0.3333333333333333 0.3333333333333333 0.3333333333333333 0.3333333333333333 0.3333333333333333 0.3333333333333333 0.3333333333333333 0.3333333333333333 0.3333333333333333 0.3333333333333333 0.3333333333333333 0.3333333333333333 0.3333333333333333 0.3333333333333333 0.3333333333333333 0.3333333333333333 0.3333333333333333 0.3333333333333333 0.3333333333333333 0.3333333333333333 0.3333333333333333 0.3333333333333333 0.3333333333333333 0.3333333333333333 0.3333333333333333 0.3333333333333333 0.3333333333333333 0.3333333333333333 0.3333333333333333 0.3333333333333333 0.3333333333333333 0.3333333333333333 0.3333333333333333 0.3333333333333333 0.3333333333333333 0.3333333333333333 0.3333333333333333 0.3333333333333333 0.3333333333333333 0.3333333333333333 0.3333333333333333 0.3333333333333333 0.3333333333333333 0.3333333333333333 0.3333333333333333 0.3333333333333333 0.3333333333333333 0.3333333333333333 0.3333333333333333 0.3333333333333333 0.3333333333333333 0 0 1 0 0.6666666666666666 0.3333333333333333 0.3333333333333333 0.3333333333333333 0.3333333333333333 0 0.3333333333333333 0.6666666666666666 0 0.2 0.8 0.3333333333333333 0.3333333333333333 0.3333333333333333 0.3333333333333333 0.3333333333333333 0.3333333333333333 0.3333333333333333 0.3333333333333333 0.3333333333333333 0.3333333333333333 0.3333333333333333 0.3333333333333333 0.3333333333333333 0.3333333333333333 0.3333333333333333 0.3333333333333333 0.3333333333333333 0.3333333333333333 0.3333333333333333 0.3333333333333333 0.3333333333333333 0.3333333333333333 0.3333333333333333 0.3333333333333333 0.3333333333333333 0.3333333333333333 0.3333333333333333 0.3333333333333333 0.3333333333333333 0.3333333333333333 0.3333333333333333 0.3333333333333333 0.3333333333333333 0.3333333333333333 0.3333333333333333 0.3333333333333333 0.3333333333333333 0.3333333333333333 0.3333333333333333 0 0 1 0 0 1 0 0 1 0 0.3333333333333333 0.6666666666666666 0.06666666666666667 0.3666666666666666 0.5666666666666667 0.3333333333333333 0.3333333333333333 0.3333333333333333 0.3333333333333333 0.3333333333333333 0.3333333333333333 0.3333333333333333 0.3333333333333333 0.3333333333333333 0.3333333333333333 0.3333333333333333 0.3333333333333333 0.3333333333333333 0.3333333333333333 0.3333333333333333 0.3333333333333333 0.3333333333333333 0.3333333333333333 0.3333333333333333 0.3333333333333333 0.3333333333333333 0.3333333333333333 0.3333333333333333 0.3333333333333333 0.6666666666666666 0.3333333333333333 0 0.9565217391304348 0.04347826086956522 0 1 0 0 0 1 0 0.5 0 0.5 0 1 0 0.3333333333333333 0.3333333333333333 0.3333333333333333 0.3333333333333333 0.3333333333333333 0.3333333333333333 1 0 0 0.3333333333333333 0.3333333333333333 0.3333333333333333 0.9300291545189504 0.05247813411078717 0.01749271137026239 0.7826086956521739 0.2173913043478261 0 1 0 0 0.9285714285714286 0.07142857142857142 0 1 0 0 0 1 0 1 0 0 0.2 0.8 0 0.3333333333333333 0.3333333333333333 0.3333333333333333 1 0 0 1 0 0 0.3333333333333333 0.3333333333333333 0.3333333333333333 0.3333333333333333 0.3333333333333333 0.3333333333333333 0.3333333333333333 0.3333333333333333 0.3333333333333333 0.3333333333333333 0.3333333333333333 0.3333333333333333 0.3333333333333333 0.3333333333333333 0.3333333333333333 0.3333333333333333 0.3333333333333333 0.3333333333333333 0.3333333333333333 0.3333333333333333 0.3333333333333333 0.9090909090909091 0.09090909090909091 0 1 0 0 0.5 0.5 0 1 0 0 0.8571428571428571 0 0.1428571428571428 1 0 0 0 0 1 1 0 0 0.3333333333333333 0.3333333333333333 0.3333333333333333 1 0 0 0.3333333333333333 0.3333333333333333 0.3333333333333333 0.3333333333333333 0.3333333333333333 0.3333333333333333 0.3333333333333333 0.3333333333333333 0.3333333333333333 0.3333333333333333 0.3333333333333333 0.3333333333333333 0.3333333333333333 0.3333333333333333 0.3333333333333333 0.3333333333333333 0.3333333333333333 0.3333333333333333 0.3333333333333333 0.3333333333333333 0.3333333333333333 0.3333333333333333 0.3333333333333333 0.3333333333333333 0.3333333333333333 0.3333333333333333 0.3333333333333333 0.3333333333333333 0.3333333333333333 0.3333333333333333 0.3333333333333333 0.3333333333333333 0.3333333333333333 0.3333333333333333 0.3333333333333333 0.3333333333333333 0.3333333333333333 0.3333333333333333 0.3333333333333333 0.3333333333333333 0.3333333333333333 0.3333333333333333 0.3333333333333333 0.3333333333333333 0.3333333333333333 1 0 0 0.3333333333333333 0.3333333333333333 0.3333333333333333</probabilities>
		</cpt>
		<cpt id="CXCL3">
			<state id="x__inf__1_7974_" />
			<state id="x__1_7974__1_3101_" />
			<state id="x__1_3101_inf_" />
			<parents>genexp1 CA4 TRIM59 LEPR USP44</parents>
			<probabilities>0.3333333333333333 0.3333333333333333 0.3333333333333333 0.3333333333333333 0.3333333333333333 0.3333333333333333 0.3333333333333333 0.3333333333333333 0.3333333333333333 0.3333333333333333 0.3333333333333333 0.3333333333333333 0.3333333333333333 0.3333333333333333 0.3333333333333333 0.3333333333333333 0.3333333333333333 0.3333333333333333 0.3333333333333333 0.3333333333333333 0.3333333333333333 0.3333333333333333 0.3333333333333333 0.3333333333333333 0.3333333333333333 0.3333333333333333 0.3333333333333333 0.3333333333333333 0.3333333333333333 0.3333333333333333 0.3333333333333333 0.3333333333333333 0.3333333333333333 0.3333333333333333 0.3333333333333333 0.3333333333333333 0.3333333333333333 0.3333333333333333 0.3333333333333333 0.3333333333333333 0.3333333333333333 0.3333333333333333 0.3333333333333333 0.3333333333333333 0.3333333333333333 0.3333333333333333 0.3333333333333333 0.3333333333333333 0.3333333333333333 0.3333333333333333 0.3333333333333333 0.3333333333333333 0.3333333333333333 0.3333333333333333 0.3333333333333333 0.3333333333333333 0.3333333333333333 0.3333333333333333 0.3333333333333333 0.3333333333333333 0.3333333333333333 0.3333333333333333 0.3333333333333333 0.3333333333333333 0.3333333333333333 0.3333333333333333 0.3333333333333333 0.3333333333333333 0.3333333333333333 0.3333333333333333 0.3333333333333333 0.3333333333333333 0.3333333333333333 0.3333333333333333 0.3333333333333333 0.3333333333333333 0.3333333333333333 0.3333333333333333 0.3333333333333333 0.3333333333333333 0.3333333333333333 0.3333333333333333 0.3333333333333333 0.3333333333333333 0.3333333333333333 0.3333333333333333 0.3333333333333333 0.3333333333333333 0.3333333333333333 0.3333333333333333 0.3333333333333333 0.3333333333333333 0.3333333333333333 0 0 1 0 0 1 0.3333333333333333 0.3333333333333333 0.3333333333333333 0 0 1 0 0.3333333333333333 0.6666666666666666 0.3333333333333333 0.3333333333333333 0.3333333333333333 0.3333333333333333 0.3333333333333333 0.3333333333333333 0.3333333333333333 0.3333333333333333 0.3333333333333333 0.3333333333333333 0.3333333333333333 0.3333333333333333 0 0 1 0 1 0 0.3333333333333333 0.3333333333333333 0.3333333333333333 0 1 0 0 0.3333333333333333 0.6666666666666666 0.3333333333333333 0.3333333333333333 0.3333333333333333 0.3333333333333333 0.3333333333333333 0.3333333333333333 0.3333333333333333 0.3333333333333333 0.3333333333333333 0.3333333333333333 0.3333333333333333 0.3333333333333333 0.3333333333333333 0.3333333333333333 0.3333333333333333 0 1 0 0.3333333333333333 0.3333333333333333 0.3333333333333333 0.3333333333333333 0.3333333333333333 0.3333333333333333 0.3333333333333333 0.3333333333333333 0.3333333333333333 0.3333333333333333 0.3333333333333333 0.3333333333333333 0.3333333333333333 0.3333333333333333 0.3333333333333333 0.3333333333333333 0.3333333333333333 0.3333333333333333 0.3333333333333333 0.3333333333333333 0.3333333333333333 0.3333333333333333 0.3333333333333333 0.3333333333333333 0 0 1 0 0.3333333333333333 0.6666666666666666 0.08333333333333333 0.08333333333333333 0.8333333333333334 0 0.125 0.875 0.3333333333333333 0.3333333333333333 0.3333333333333333 0.3333333333333333 0.3333333333333333 0.3333333333333333 0.3333333333333333 0.3333333333333333 0.3333333333333333 0.3333333333333333 0.3333333333333333 0.3333333333333333 0.3333333333333333 0.3333333333333333 0.3333333333333333 1 0 0 0.3333333333333333 0.3333333333333333 0.3333333333333333 0 0 1 0.25 0.25 0.5 0.3333333333333333 0.3333333333333333 0.3333333333333333 0.3333333333333333 0.3333333333333333 0.3333333333333333 0.3333333333333333 0.3333333333333333 0.3333333333333333 0.3333333333333333 0.3333333333333333 0.3333333333333333 0.3333333333333333 0.3333333333333333 0.3333333333333333 0.3333333333333333 0.3333333333333333 0.3333333333333333 0 0 1 0.3333333333333333 0.3333333333333333 0.3333333333333333 0 0 1 1 0 0 1 0 0 0.3333333333333333 0.3333333333333333 0.3333333333333333 0.3333333333333333 0.3333333333333333 0.3333333333333333 0.3333333333333333 0.3333333333333333 0.3333333333333333 0.3333333333333333 0.3333333333333333 0.3333333333333333 1 0 0 0.3333333333333333 0.3333333333333333 0.3333333333333333 0.3333333333333333 0.3333333333333333 0.3333333333333333 0.9545454545454546 0.04545454545454546 0 1 0 0 1 0 0 1 0 0 0.3333333333333333 0.3333333333333333 0.3333333333333333 0.3333333333333333 0.3333333333333333 0.3333333333333333 0.3333333333333333 0.3333333333333333 0.3333333333333333 1 0 0 0.3333333333333333 0.3333333333333333 0.3333333333333333 0.9212121212121213 0.04242424242424243 0.03636363636363636 0.8695652173913043 0 0.1304347826086956 0.6 0.2 0.2 0.8636363636363636 0.09090909090909091 0.04545454545454546 0.8 0.2 0 0 1 0 0.75 0.25 0 1 0 0 0.3333333333333333 0.3333333333333333 0.3333333333333333 1 0 0 0.3333333333333333 0.3333333333333333 0.3333333333333333 0.3333333333333333 0.3333333333333333 0.3333333333333333 0.3333333333333333 0.3333333333333333 0.3333333333333333 0.3333333333333333 0.3333333333333333 0.3333333333333333 0.3333333333333333 0.3333333333333333 0.3333333333333333 0 0.5 0.5 0.3333333333333333 0.3333333333333333 0.3333333333333333 0.3333333333333333 0.3333333333333333 0.3333333333333333 1 0 0 0.3333333333333333 0.3333333333333333 0.3333333333333333 0.3333333333333333 0.3333333333333333 0.3333333333333333 0 0 1 0.3333333333333333 0.3333333333333333 0.3333333333333333 0.3333333333333333 0.3333333333333333 0.3333333333333333 0.3333333333333333 0.3333333333333333 0.3333333333333333 0.3333333333333333 0.3333333333333333 0.3333333333333333 0.3333333333333333 0.3333333333333333 0.3333333333333333 0.9333333333333333 0.06666666666666667 0 1 0 0 0.3333333333333333 0.3333333333333333 0.3333333333333333 0.7777777777777778 0.1111111111111111 0.1111111111111111 0.3333333333333333 0.3333333333333333 0.3333333333333333 1 0 0 0.6666666666666666 0 0.3333333333333333 0.3333333333333333 0.3333333333333333 0.3333333333333333 1 0 0 0.3333333333333333 0.3333333333333333 0.3333333333333333 0.3333333333333333 0.3333333333333333 0.3333333333333333 0.3333333333333333 0.3333333333333333 0.3333333333333333 0.3333333333333333 0.3333333333333333 0.3333333333333333 0.3333333333333333 0.3333333333333333 0.3333333333333333 0.3333333333333333 0.3333333333333333 0.3333333333333333 0.3333333333333333 0.3333333333333333 0.3333333333333333 0.3333333333333333 0.3333333333333333 0.3333333333333333 0.3333333333333333 0.3333333333333333 0.3333333333333333 1 0 0 0.3333333333333333 0.3333333333333333 0.3333333333333333 0.3333333333333333 0.3333333333333333 0.3333333333333333 0.3333333333333333 0.3333333333333333 0.3333333333333333 0.3333333333333333 0.3333333333333333 0.3333333333333333 0.3333333333333333 0.3333333333333333 0.3333333333333333 1 0 0 0.3333333333333333 0.3333333333333333 0.3333333333333333 0.3333333333333333 0.3333333333333333 0.3333333333333333 0.3333333333333333 0.3333333333333333 0.3333333333333333 0.3333333333333333 0.3333333333333333 0.3333333333333333 0.3333333333333333 0.3333333333333333 0.3333333333333333 0.3333333333333333 0.3333333333333333 0.3333333333333333 0.3333333333333333 0.3333333333333333 0.3333333333333333 0.3333333333333333 0.3333333333333333 0.3333333333333333 0.3333333333333333 0.3333333333333333 0.3333333333333333 0.3333333333333333 0.3333333333333333 0.3333333333333333 0.3333333333333333 0.3333333333333333 0.3333333333333333</probabilities>
		</cpt>
		<cpt id="P4HA3">
			<state id="x__inf_0_331223_" />
			<state id="x_0_331223_1_589313_" />
			<state id="x_1_589313_inf_" />
			<parents>genexp1 KCNE1</parents>
			<probabilities>0.125 0.5 0.375 0.2727272727272727 0.6363636363636364 0.09090909090909091 0.5428571428571428 0.4285714285714285 0.02857142857142857 0.009029345372460496 0.1241534988713318 0.8668171557562077 0 0 1 0 0 1</probabilities>
		</cpt>
		<cpt id="ANXA1">
			<state id="x__inf_0_9571_" />
			<state id="x_0_9571_inf_" />
			<parents>genexp1 USP44 CXCL3</parents>
			<probabilities>0.5 0.5 0 1 0 1 0 1 0 1 0 1 0 1 0.1428571428571428 0.8571428571428571 0 1 0.9561855670103093 0.04381443298969072 0.6666666666666666 0.3333333333333333 0.4705882352941176 0.5294117647058824 0.9375 0.0625 1 0 1 0 0.8333333333333334 0.1666666666666667 1 0 0 1</probabilities>
		</cpt>
		<cpt id="IGSF10">
			<state id="x__inf__2_488875_" />
			<state id="x__2_488875__1_316625_" />
			<state id="x__1_316625_inf_" />
			<parents>genexp1</parents>
			<probabilities>0 0.09259259259259259 0.9074074074074074 0.8365180467091295 0.1422505307855626 0.02123142250530785</probabilities>
		</cpt>
		<cpt id="TPPP2">
			<state id="x__inf_0_016813_" />
			<state id="x_0_016813_inf_" />
			<parents>genexp1 TPM3 SNCA C10orf90</parents>
			<probabilities>0.75 0.25 0.1666666666666667 0.8333333333333334 0 1 0.1304347826086956 0.8695652173913043 0.5 0.5 0.3333333333333333 0.6666666666666666 1 0 0.1111111111111111 0.8888888888888888 0.5 0.5 0.5 0.5 0.5 0.5 1 0 0.5 0.5 0.5 0.5 0.5 0.5 0.5 0.5 0.96875 0.03125 0 1 0.5 0.5 0.5 0.5 0.9417989417989417 0.0582010582010582 0.3636363636363636 0.6363636363636364 0.7619047619047619 0.2380952380952381 0.5 0.5</probabilities>
		</cpt>
		<cpt id="methy1">
			<state id="normal" />
			<state id="tumor" />
			<parents>class</parents>
			<probabilities>1 3.126704912508939e-33 1.341556724257113e-21 1</probabilities>
		</cpt>
		<cpt id="cg03602500">
			<state id="x__inf_0_666878_" />
			<state id="x_0_666878_0_744411_" />
			<state id="x_0_744411_inf_" />
			<parents>methy1</parents>
			<probabilities>0.01851851851851852 0.2222222222222222 0.7592592592592593 0.9511677282377919 0.029723991507431 0.01910828025477707</probabilities>
		</cpt>
		<cpt id="cg24625388">
			<state id="x__inf_0_378846_" />
			<state id="x_0_378846_0_486924_" />
			<state id="x_0_486924_0_569803_" />
			<state id="x_0_569803_0_815336_" />
			<state id="x_0_815336_inf_" />
			<parents>methy1</parents>
			<probabilities>1.03102710451318e-20 0.09259259259259259 0.2962962962962963 0.5925925925925926 0.01851851851851852 0.9065817409766455 0.08917197452229299 0.002123142250530786 0.002123142250530786 4.930948085621679e-115</probabilities>
		</cpt>
		<cpt id="cg08109815">
			<state id="x__inf_0_096421_" />
			<state id="x_0_096421_0_227166_" />
			<state id="x_0_227166_0_281158_" />
			<state id="x_0_281158_inf_" />
			<parents>methy1 cg24625388 cg03602500</parents>
			<probabilities>1.338001813332782e-14 1.473903796886954e-26 0.9999999334518468 6.654813980123079e-08 0 0 0 1 0 0 0 1 0 1.787719697977457e-50 4.461837853164651e-59 1 0 0.5 0.5 6.024408208678466e-22 0 0.6666666666666666 0.3333333333333333 0 0 0 0 1 0 0.5 0.5 0 0 1 0 0 0 1 0 9.661577268623265e-94 0 0.625 0.25 0.125 0 0.9565217391304348 0.04347826086956522 0 0.25 0.25 0.25 0.25 0.25 0.25 0.25 0.25 0 1 0 0 0.01222493887530562 0.05867970660146699 0.03178484107579462 0.8973105134474327 0 0 0 1 0 0 0 1 0 0.02702702702702703 0.02702702702702703 0.9459459459459459 0 3.857885432842401e-48 0.2 0.8 0 4.617151401353535e-98 1 0 0 0 0 1 0 5.46266474587839e-44 1 0 0 1 0 0 0 9.776244497801409e-122 0 1 0 0.9999999999999994 5.537257505139923e-16 4.100421379491275e-43 0 1 1.737590010146413e-54 0 0.4166666666666667 0.08333333333333333 0.25 0.25 0.25 0.25 0.25 0.25 0 1 0 0</probabilities>
		</cpt>
		<cpt id="cg27015047">
			<state id="x__inf_0_733245_" />
			<state id="x_0_733245_0_795174_" />
			<state id="x_0_795174_inf_" />
			<parents>methy1 cg24625388 cg03602500 cg08109815</parents>
			<probabilities>1 0 1.295605593786666e-76 1 5.707300174276671e-18 1.774255634736067e-42 1 7.186835926531608e-55 2.232434248719703e-53 5.146846038210151e-07 0.9992919786547912 0.0007075066606050036 0.3333333333333333 0.3333333333333333 0.3333333333333333 0.3333333333333333 0.3333333333333333 0.3333333333333333 0.3333333333333333 0.3333333333333333 0.3333333333333333 0.001487405495906637 9.139680628860664e-25 0.9985125945040934 0.3333333333333333 0.3333333333333333 0.3333333333333333 0.3333333333333333 0.3333333333333333 0.3333333333333333 0.3333333333333333 0.3333333333333333 0.3333333333333333 1.273591029481867e-64 0 1 0.3333333333333333 0.3333333333333333 0.3333333333333333 1 0 0 1 0 0 0.001024313663700871 3.356584612471271e-05 0.9989421204901744 0.3333333333333333 0.3333333333333333 0.3333333333333333 0 0 1 9.316509979655584e-49 0 1 1 0 8.640083382189654e-78 0.3333333333333333 0.3333333333333333 0.3333333333333333 0 0 1 0 0 1 0.3333333333333333 0.3333333333333333 0.3333333333333333 0.3333333333333333 0.3333333333333333 0.3333333333333333 0.3333333333333333 0.3333333333333333 0.3333333333333333 0.3333333333333333 0.3333333333333333 0.3333333333333333 0 1 0 0.3333333333333333 0.3333333333333333 0.3333333333333333 0 0 1 0 0 1 0.3333333333333333 0.3333333333333333 0.3333333333333333 0.3333333333333333 0.3333333333333333 0.3333333333333333 0 0 1 0.1428571428571428 0.1428571428571428 0.7142857142857143 0.3333333333333333 0.3333333333333333 0.3333333333333333 0.3333333333333333 0.3333333333333333 0.3333333333333333 0 0 1 0.3333333333333333 0.3333333333333333 0.3333333333333333 0 0 1 0.3333333333333333 0.3333333333333333 0.3333333333333333 0 0 1 0 0 1 0 0 1 0.3333333333333333 0.3333333333333333 0.3333333333333333 0 0 1 0 0 1 0.05263157894736842 0.05263157894736842 0.8947368421052632 0.3333333333333333 0.3333333333333333 0.3333333333333333 0.3333333333333333 0.3333333333333333 0.3333333333333333 0.3333333333333333 0.3333333333333333 0.3333333333333333 0.3333333333333333 0.3333333333333333 0.3333333333333333 0.3333333333333333 0.3333333333333333 0.3333333333333333 0.3333333333333333 0.3333333333333333 0.3333333333333333 0.3333333333333333 0.3333333333333333 0.3333333333333333 0.3333333333333333 0.3333333333333333 0.3333333333333333 0.3333333333333333 0.3333333333333333 0.3333333333333333 0 0 1 0.3333333333333333 0.3333333333333333 0.3333333333333333 0.3333333333333333 0.3333333333333333 0.3333333333333333 0.8 0 0.2 0.875 0.08333333333333333 0.04166666666666666 0.7692307692307693 0.07692307692307693 0.1538461538461539 0.896457765667575 0.02997275204359673 0.07356948228882834 0.2 0.2 0.6 0.3333333333333333 0.3333333333333333 0.3333333333333333 0.3333333333333333 0.3333333333333333 0.3333333333333333 0.5555555555555556 0.1111111111111111 0.3333333333333333 0.3333333333333333 0.3333333333333333 0.3333333333333333 0.2 0.6 0.2 0.3333333333333333 0.3333333333333333 0.3333333333333333 0.3333333333333333 0 0.6666666666666666 0.2 0.6 0.2 1 0 0 1 0 0 0.6857142857142857 0.1428571428571428 0.1714285714285714 0.3333333333333333 0.3333333333333333 0.3333333333333333 0 0 1 1 0 4.383733164287512e-42 0.75 0 0.25 0.3333333333333333 0.3333333333333333 0.3333333333333333 0 0 1 0 0 1 0.1111111111111111 0.3333333333333333 0.5555555555555556 0.3333333333333333 0.3333333333333333 0.3333333333333333 0.3333333333333333 0.3333333333333333 0.3333333333333333 0.3333333333333333 0.1111111111111111 0.5555555555555556 0 1 0 0.3333333333333333 0.3333333333333333 0.3333333333333333 0 0 1 0 0 1 0.6 0.2 0.2 0.3333333333333333 0.3333333333333333 0.3333333333333333 0 0 1 0.3333333333333333 0.3333333333333333 0.3333333333333333 0.2 0.2 0.6 0.3333333333333333 0.3333333333333333 0.3333333333333333 0 0 1 0.3333333333333333 0.3333333333333333 0.3333333333333333 0 0 1 0.3333333333333333 0.3333333333333333 0.3333333333333333 0 0 1 0 0 1 0 0 1 0.3333333333333333 0.3333333333333333 0.3333333333333333 0 0 1 0 0 1 0.3333333333333333 0.3333333333333333 0.3333333333333333 0.7142857142857143 0.1428571428571428 0.1428571428571428 0.3333333333333333 0.3333333333333333 0.3333333333333333 0.2 0.2 0.6 0.6 0.2 0.2 0.3333333333333333 0.3333333333333333 0.3333333333333333 0.3333333333333333 0.3333333333333333 0.3333333333333333 0.3333333333333333 0.3333333333333333 0.3333333333333333 0.3333333333333333 0.3333333333333333 0.3333333333333333 0.3333333333333333 0.3333333333333333 0.3333333333333333 0 0 1 0.3333333333333333 0.3333333333333333 0.3333333333333333 0.3333333333333333 0.3333333333333333 0.3333333333333333</probabilities>
		</cpt>
		<cpt id="cg00619207">
			<state id="x__inf_0_46934_" />
			<state id="x_0_46934_0_535415_" />
			<state id="x_0_535415_0_792044_" />
			<state id="x_0_792044_inf_" />
			<parents>methy1 cg24625388 cg08109815 cg27015047</parents>
			<probabilities>1 0 0 2.952208335470983e-79 0.25 0.25 0.25 0.25 0 0 0 1 7.972792001570392e-08 1.714219470696563e-64 0.99999992027208 4.566188933718169e-27 1 0 0 0 1 0 0 0 1 0 5.15262822417227e-37 0 1 0 0 0 0 0 0.9999999999999998 2.770251956331757e-16 0.0001360954942566581 3.427169669076997e-24 0.9998639045057434 2.430445142701669e-25 1.705228392685329e-13 0.9999999996280274 3.718020392728926e-10 0 1 2.860366846274301e-42 3.956575570016899e-41 3.810696215121631e-62 0.25 0.25 0.25 0.25 0.25 0.25 0.25 0.25 0.25 0.25 0.25 0.25 1 0 0 0 0.1666666666666667 0.1666666666666667 0.5000000000000001 0.1666666666666667 0 0.3333333333333333 0.6666666666666666 0 1.42660071633792e-30 0 1 0 0.25 0.25 0.25 0.25 0 0 1 0 0.9999999999992893 7.106913588440053e-13 0 0 1 1.585449901789971e-28 3.391975134055471e-19 0 1.005008067455542e-16 1 2.169891484045726e-52 0 0.25 0.25 0.25 0.25 0.25 0.25 0.25 0.25 0.25 0.25 0.25 0.25 0.25 0.25 0.25 0.25 0.1666666666666667 0.5000000000000001 0.1666666666666667 0.1666666666666667 0 0.06666666666666667 0.9333333333333333 0 0.25 0.25 0.25 0.25 0.1666666666666667 0.5000000000000001 0.1666666666666667 0.1666666666666667 0 0 1 0 0.25 0.25 0.25 0.25 1 0 0 0 0.25 0.25 0.25 0.25 0.25 0.25 0.25 0.25 0.25 0.25 0.25 0.25 0.25 0.25 0.25 0.25 0.25 0.25 0.25 0.25 0.1666666666666667 0.1666666666666667 0.5000000000000001 0.1666666666666667 0 0.03571428571428571 0.9642857142857143 0 0.25 0.25 0.25 0.25 0.25 0.25 0.25 0.25 0 0 1 0 0.25 0.25 0.25 0.25 0.25 0.25 0.25 0.25 9.661577268623265e-94 0 1 0 0.25 0.25 0.25 0.25 0.25 0.25 0.25 0.25 0.25 0.25 0.25 0.25 0.25 0.25 0.25 0.25 0.25 0.25 0.25 0.25 0 0 1 0 0.25 0.25 0.25 0.25 0.25 0.25 0.25 0.25 0.25 0.25 0.25 0.25 0.25 0.25 0.25 0.25 0.25 0.25 0.25 0.25 0.25 0.25 0.25 0.25 0.75 0 0 0.25 0.25 0.25 0.25 0.25 0 0 0 1 0.8571428571428571 0.04761904761904762 0.04761904761904762 0.04761904761904762 1 0 0 0 1 0 0 0 0.9 0 0.1 0 1 0 0 0 0 0 0.5 0.5 0.8961424332344213 0.02670623145400593 0.06231454005934718 0.01483679525222552 0.5833333333333334 0.1666666666666667 0.25 0 0.4444444444444444 0.1111111111111111 0.4166666666666667 0.02777777777777778 0.25 0.25 0.25 0.25 0.5000000000000001 0.1666666666666667 0.1666666666666667 0.1666666666666667 0.25 0.25 0.25 0.25 1 0 0 0 0.125 0.375 0.375 0.125 0 1 4.038235026827012e-82 0 0.5 0 0.5 0 0.375 0.375 0.125 0.125 0 0 1 0 0.8888888888888888 0.1111111111111111 0 0 0.6 0.2 0.2 0 0.5714285714285714 0.1428571428571428 0.2857142857142857 0 0.25 0.25 0.25 0.25 0.25 0.25 0.25 0.25 0.25 0.25 0.25 0.25 0.1666666666666667 0.5000000000000001 0.1666666666666667 0.1666666666666667 0.25 0.25 0.25 0.25 0 5.831807387666495e-43 1 0 0.1666666666666667 0.5000000000000001 0.1666666666666667 0.1666666666666667 0.25 0.25 0.25 0.25 0 0 1 0 0.7222222222222222 0.05555555555555555 0.1666666666666667 0.05555555555555555 1 0 0 0 0.25 0.4166666666666667 0.25 0.08333333333333333 0.25 0.25 0.25 0.25 0.25 0.25 0.25 0.25 0.25 0.25 0.25 0.25 0.25 0.25 0.25 0.25 0.1666666666666667 0.1666666666666667 0.5000000000000001 0.1666666666666667 0 2.992216876980773e-57 1 0 0.25 0.25 0.25 0.25 0.25 0.25 0.25 0.25 0 0 1 0 0.25 0.25 0.25 0.25 0.25 0.25 0.25 0.25 1 0 1.556914491646506e-97 0 0.125 0.125 0.625 0.125 0.25 0.25 0.25 0.25 0.25 0.25 0.25 0.25 0.25 0.25 0.25 0.25 0.25 0.25 0.25 0.25 0 0 1 0 0.25 0.25 0.25 0.25 0.25 0.25 0.25 0.25 0.1666666666666667 0.5000000000000001 0.1666666666666667 0.1666666666666667 0.1666666666666667 0.1666666666666667 0.5000000000000001 0.1666666666666667 0.25 0.25 0.25 0.25 0.25 0.25 0.25 0.25</probabilities>
		</cpt>
		<cpt id="cg14652095">
			<state id="x__inf_0_145216_" />
			<state id="x_0_145216_0_485082_" />
			<state id="x_0_485082_0_602928_" />
			<state id="x_0_602928_inf_" />
			<parents>methy1 cg24625388 cg03602500 cg08109815 cg27015047 cg00619207</parents>
			<probabilities>0 0 2.905757714365636e-53 1 0.25 0.25 0.25 0.25 0.25 0.25 0.25 0.25 1 0 0 0 0.25 0.25 0.25 0.25 0.25 0.25 0.25 0.25 0.25 0.25 0.25 0.25 0.25 0.25 0.25 0.25 0.25 0.25 0.25 0.25 0.25 0.25 0.25 0.25 0.25 0.25 0.25 0.25 0 0 0 1 0 3.32030345803228e-09 9.278657033192332e-09 0.9999999874010393 1 0 0 0 1 0 0 0 1 0 0 0 0 1 0 2.787864333704935e-83 0.25 0.25 0.25 0.25 0.25 0.25 0.25 0.25 0.25 0.25 0.25 0.25 0 1 0 0 0.25 0.25 0.25 0.25 0.25 0.25 0.25 0.25 0.25 0.25 0.25 0.25 0 1.167227776967473e-27 1 6.111393906557002e-52 0.25 0.25 0.25 0.25 0 1 0 0 0.25 0.25 0.25 0.25 0 0 1 0 0.25 0.25 0.25 0.25 0.25 0.25 0.25 0.25 0.25 0.25 0.25 0.25 0.25 0.25 0.25 0.25 0.25 0.25 0.25 0.25 0 1 0 0 1 0 0 0 2.265866796786619e-31 4.772798896013889e-19 4.576111459803622e-29 1 0 2.752782540562656e-13 1.354007792989918e-14 0.9999999999997112 0.9999999999999996 3.454290747170594e-16 0 2.406157829177844e-21 7.107747075726692e-16 0.9999999999999992 0 3.099540311363983e-44 0 1 1.267915731249473e-28 3.993518447687572e-41 0 3.106899097110519e-44 0 1 0 0 8.274608800825877e-31 1 0.25 0.25 0.25 0.25 4.399264780365367e-33 9.668610528008552e-06 7.229458379954236e-21 0.999990331389472 0.9999999999984657 1.534318158846471e-12 0 0 1.614097291981434e-23 0.007351745495270261 0 0.9926482545047296 0.25 0.25 0.25 0.25 0.25 0.25 0.25 0.25 0.25 0.25 0.25 0.25 0.25 0.25 0.25 0.25 0.25 0.25 0.25 0.25 0.25 0.25 0.25 0.25 0.25 0.25 0.25 0.25 0.25 0.25 0.25 0.25 0.25 0.25 0.25 0.25 0.25 0.25 0.25 0.25 0.25 0.25 0.25 0.25 0.25 0.25 0.25 0.25 0.25 0.25 0.25 0.25 0.25 0.25 0.25 0.25 0.25 0.25 0.25 0.25 0.25 0.25 0.25 0.25 0.25 0.25 0.25 0.25 0.25 0.25 0.25 0.25 0.25 0.25 0.25 0.25 0.25 0.25 0.25 0.25 0.25 0.25 0.25 0.25 0.25 0.25 0.25 0.25 0.25 0.25 0.25 0.25 0.25 0.25 0.25 0.25 0.25 0.25 0.25 0.25 0.25 0.25 0.25 0.25 0.25 0.25 0.25 0.25 0.25 0.25 0.25 0.25 0.25 0.25 0.25 0.25 0.25 0.25 0.25 0.25 0.25 0.25 0.25 0.25 0.25 0.25 0.25 0.25 0.25 0.25 0.25 0.25 0.25 0.25 0.25 0.25 0.25 0.25 0.25 0.25 0.25 0.25 0.25 0.25 0.25 0.25 0.25 0.25 0 0 0 1 0.25 0.25 0.25 0.25 0 1 0 0 0.25 0.25 0.25 0.25 0 0 0 1 0.25 0.25 0.25 0.25 0.25 0.25 0.25 0.25 0.25 0.25 0.25 0.25 0 1 0 0 0 1 0 0 0 1 0 0 0.25 0.25 0.25 0.25 0.25 0.25 0.25 0.25 0.25 0.25 0.25 0.25 0.25 0.25 0.25 0.25 0.25 0.25 0.25 0.25 0.25 0.25 0.25 0.25 0.25 0.25 0.25 0.25 0.25 0.25 0.25 0.25 0.25 0.25 0.25 0.25 0.25 0.25 0.25 0.25 0.25 0.25 0.25 0.25 0.25 0.25 0.25 0.25 0.25 0.25 0.25 0.25 0.25 0.25 0.25 0.25 0.25 0.25 0.25 0.25 0.25 0.25 0.25 0.25 0.25 0.25 0.25 0.25 0.25 0.25 0.25 0.25 0.25 0.25 0.25 0.25 0.25 0.25 0.25 0.25 0.25 0.25 0.25 0.25 0.25 0.25 0.25 0.25 0.25 0.25 0.25 0.25 0.25 0.25 0.25 0.25 0.25 0.25 0.25 0.25 0.25 0.25 0.25 0.25 0.25 0.25 0.25 0.25 0.25 0.25 0.25 0.25 0.25 0.25 0.25 0.25 0.25 0.25 0.25 0.25 0.25 0.25 0.25 0.25 0.25 0.25 0.25 0.25 0.25 0.25 0.25 0.25 0.25 0.25 0.25 0.25 0.25 0.25 0.25 0.25 0.25 0.25 0.25 0.25 0.25 0.25 0.25 0.25 0 0 0.9513420088533331 0.04865799114666687 0.25 0.25 0.25 0.25 0.25 0.25 0.25 0.25 0.25 0.25 0.25 0.25 0.25 0.25 0.25 0.25 0.25 0.25 0.25 0.25 0.25 0.25 0.25 0.25 0.25 0.25 0.25 0.25 0 2.167539304086621e-74 0 1 0 1 0 0 6.844217341902479e-08 0.9999999315578266 0 0 1 0 0 0 0.25 0.25 0.25 0.25 0.25 0.25 0.25 0.25 0.25 0.25 0.25 0.25 0.25 0.25 0.25 0.25 0.25 0.25 0.25 0.25 0.25 0.25 0.25 0.25 0.25 0.25 0.25 0.25 0.25 0.25 0.25 0.25 0.25 0.25 0.25 0.25 0.25 0.25 0.25 0.25 0.25 0.25 0.25 0.25 0.25 0.25 0.25 0.25 0 0 0 1 0.25 0.25 0.25 0.25 0.25 0.25 0.25 0.25 0.25 0.25 0.25 0.25 0.25 0.25 0.25 0.25 0.25 0.25 0.25 0.25 0.25 0.25 0.25 0.25 0.25 0.25 0.25 0.25 0.25 0.25 0.25 0.25 0.25 0.25 0.25 0.25 0.25 0.25 0.25 0.25 0.25 0.25 0.25 0.25 0 0 0 1 0.25 0.25 0.25 0.25 0.25 0.25 0.25 0.25 0.25 0.25 0.25 0.25 0.25 0.25 0.25 0.25 0.25 0.25 0.25 0.25 0.25 0.25 0.25 0.25 0.25 0.25 0.25 0.25 0.25 0.25 0.25 0.25 0.25 0.25 0.25 0.25 0.25 0.25 0.25 0.25 0.25 0.25 0.25 0.25 0 0.06761632040489465 3.599888273842926e-17 0.9323836795951054 0 0 1 4.264820730105652e-19 0.25 0.25 0.25 0.25 0.25 0.25 0.25 0.25 0 7.204413101516933e-26 2.220093582109512e-16 0.9999999999999998 0 0 0 1 0 0 1 0 0.25 0.25 0.25 0.25 0 2.26015089161138e-07 0 0.9999997739849108 0 0 0 1 0 1 0 0 0.25 0.25 0.25 0.25 0.25 0.25 0.25 0.25 0.25 0.25 0.25 0.25 0.25 0.25 0.25 0.25 0.25 0.25 0.25 0.25 0.25 0.25 0.25 0.25 0.25 0.25 0.25 0.25 0.25 0.25 0.25 0.25 0.25 0.25 0.25 0.25 0.25 0.25 0.25 0.25 0.25 0.25 0.25 0.25 0.25 0.25 0.25 0.25 0.25 0.25 0.25 0.25 0.25 0.25 0.25 0.25 0.25 0.25 0.25 0.25 0.25 0.25 0.25 0.25 0.25 0.25 0.25 0.25 0.25 0.25 0.25 0.25 0.25 0.25 0.25 0.25 0.25 0.25 0.25 0.25 0.25 0.25 0.25 0.25 0.25 0.25 0.25 0.25 0 1 0 0 0.25 0.25 0.25 0.25 0.25 0.25 0.25 0.25 0.25 0.25 0.25 0.25 0.25 0.25 0.25 0.25 0 0 1 0 0.25 0.25 0.25 0.25 0.25 0.25 0.25 0.25 0.25 0.25 0.25 0.25 0.25 0.25 0.25 0.25 0.25 0.25 0.25 0.25 0.25 0.25 0.25 0.25 0.25 0.25 0.25 0.25 0 1 0 0 0.25 0.25 0.25 0.25 0 0 0 1 0.25 0.25 0.25 0.25 0.25 0.25 0.25 0.25 0.25 0.25 0.25 0.25 0.25 0.25 0.25 0.25 0.25 0.25 0.25 0.25 0.25 0.25 0.25 0.25 0.25 0.25 0.25 0.25 0.25 0.25 0.25 0.25 0.25 0.25 0.25 0.25 0 0 1 0 0.25 0.25 0.25 0.25 0.25 0.25 0.25 0.25 0.25 0.25 0.25 0.25 0.25 0.25 0.25 0.25 0.25 0.25 0.25 0.25 0.25 0.25 0.25 0.25 0.25 0.25 0.25 0.25 0.25 0.25 0.25 0.25 0.25 0.25 0.25 0.25 0.25 0.25 0.25 0.25 0.25 0.25 0.25 0.25 0.25 0.25 0.25 0.25 0.25 0.25 0.25 0.25 0.25 0.25 0.25 0.25 0.25 0.25 0.25 0.25 0.25 0.25 0.25 0.25 0.25 0.25 0.25 0.25 0.25 0.25 0.25 0.25 0.25 0.25 0.25 0.25 0.1666666666666667 0.5000000000000001 0.1666666666666667 0.1666666666666667 0.25 0.25 0.25 0.25 0.25 0.25 0.25 0.25 0.25 0.25 0.25 0.25 0 1 0 0 0.25 0.25 0.25 0.25 0.25 0.25 0.25 0.25 0.25 0.25 0.25 0.25 0.25 0.25 0.25 0.25 0.25 0.25 0.25 0.25 0.25 0.25 0.25 0.25 0.25 0.25 0.25 0.25 0.25 0.25 0.25 0.25 0.25 0.25 0.25 0.25 0.1666666666666667 0.1666666666666667 0.5000000000000001 0.1666666666666667 0.1666666666666667 0.5000000000000001 0.1666666666666667 0.1666666666666667 0 1 0 0 0.25 0.25 0.25 0.25 0.25 0.25 0.25 0.25 0.25 0.25 0.25 0.25 0.25 0.25 0.25 0.25 0.25 0.25 0.25 0.25 0.25 0.25 0.25 0.25 0.25 0.25 0.25 0.25 0.25 0.25 0.25 0.25 0.25 0.25 0.25 0.25 0.25 0.25 0.25 0.25 0.25 0.25 0.25 0.25 0.25 0.25 0.25 0.25 0.25 0.25 0.25 0.25 0.25 0.25 0.25 0.25 0.25 0.25 0.25 0.25 0.25 0.25 0.25 0.25 0.25 0.25 0.25 0.25 0.25 0.25 0.25 0.25 0.25 0.25 0.25 0.25 0.25 0.25 0.25 0.25 0.25 0.25 0.25 0.25 0.25 0.25 0.25 0.25 0.25 0.25 0.25 0.25 0.25 0.25 0.25 0.25 0.25 0.25 0.25 0.25 0.25 0.25 0.25 0.25 0.25 0.25 0.25 0.25 0.25 0.25 0.25 0.25 0.25 0.25 0.25 0.25 0.25 0.25 0.25 0.25 0.25 0.25 0.25 0.25 0.25 0.25 0.25 0.25 0.25 0.25 0.25 0.25 0.25 0.25 0.25 0.25 0.25 0.25 0.25 0.25 0.25 0.25 0.25 0.25 0.25 0.25 0.25 0.25 0.25 0.25 0.25 0.25 0.25 0.25 0.25 0.25 0.25 0.25 0.25 0.25 0.25 0.25 0.25 0.25 0.25 0.25 0.25 0.25 0.25 0.25 0.25 0.25 0.25 0.25 0.25 0.25 0.25 0.25 0.25 0.25 0.25 0.25 0.25 0.25 0.25 0.25 0.25 0.25 0.25 0.25 0.25 0.25 0.25 0.25 0.25 0.25 0.25 0.25 0.25 0.25 0.25 0.25 0.25 0.25 0.25 0.25 0.25 0.25 0.25 0.25 0.25 0.25 0 0 0 1 0.25 0.25 0.25 0.25 0.25 0.25 0.25 0.25 0.25 0.25 0.25 0.25 0.25 0.25 0.25 0.25 0.25 0.25 0.25 0.25 0.25 0.25 0.25 0.25 0.25 0.25 0.25 0.25 0.25 0.25 0.25 0.25 0.25 0.25 0.25 0.25 0.25 0.25 0.25 0.25 0.25 0.25 0.25 0.25 0.25 0.25 0.25 0.25 0.25 0.25 0.25 0.25 0.25 0.25 0.25 0.25 0.25 0.25 0.25 0.25 0.25 0.25 0.25 0.25 0.25 0.25 0.25 0.25 0.25 0.25 0.25 0.25 0.25 0.25 0.25 0.25 0.25 0.25 0.25 0.25 0.25 0.25 0.25 0.25 0.25 0.25 0.25 0.25 0.25 0.25 0.25 0.25 0.25 0.25 0.25 0.25 0.1666666666666667 0.5000000000000001 0.1666666666666667 0.1666666666666667 0.25 0.25 0.25 0.25 0.25 0.25 0.25 0.25 0.25 0.25 0.25 0.25 0.25 0.25 0.25 0.25 0 1 0 0 0.25 0.25 0.25 0.25 0.25 0.25 0.25 0.25 0.25 0.25 0.25 0.25 0.25 0.25 0.25 0.25 0.25 0.25 0.25 0.25 0.25 0.25 0.25 0.25 0.1666666666666667 0.1666666666666667 0.5000000000000001 0.1666666666666667 0.25 0.25 0.25 0.25 0.25 0.25 0.25 0.25 0.25 0.25 0.25 0.25 0.25 0.25 0.25 0.25 0 0 1 0 0.25 0.25 0.25 0.25 0.25 0.25 0.25 0.25 0.25 0.25 0.25 0.25 0.25 0.25 0.25 0.25 0.25 0.25 0.25 0.25 0.25 0.25 0.25 0.25 0.25 0.25 0.25 0.25 0.25 0.25 0.25 0.25 0.25 0.25 0.25 0.25 0.25 0.25 0.25 0.25 0.25 0.25 0.25 0.25 0.25 0.25 0.25 0.25 0.25 0.25 0.25 0.25 0.25 0.25 0.25 0.25 0.25 0.25 0.25 0.25 0.25 0.25 0.25 0.25 0.25 0.25 0.25 0.25 0.25 0.25 0.25 0.25 0.25 0.25 0.25 0.25 0.25 0.25 0.25 0.25 0.25 0.25 0.25 0.25 0.25 0.25 0.25 0.25 0.25 0.25 0.25 0.25 0.25 0.25 0.25 0.25 0.25 0.25 0.25 0.25 0.25 0.25 0.25 0.25 0.25 0.25 0.25 0.25 0.25 0.25 0.25 0.25 0.25 0.25 0.25 0.25 0.25 0.25 0.25 0.25 0.25 0.25 0.25 0.25 0.25 0.25 0.25 0.25 0.25 0.25 0.25 0.25 0.25 0.25 0.25 0.25 0 0 1 0 0 1 0 0 0.25 0.25 0.25 0.25 0.25 0.25 0.25 0.25 0.25 0.25 0.25 0.25 0.25 0.25 0.25 0.25 0.25 0.25 0.25 0.25 0.25 0.25 0.25 0.25 0.25 0.25 0.25 0.25 0.25 0.25 0.25 0.25 0.25 0.25 0.25 0.25 0.25 0.25 0.25 0.25 0.1666666666666667 0.5000000000000001 0.1666666666666667 0.1666666666666667 0.1666666666666667 0.5000000000000001 0.1666666666666667 0.1666666666666667 0.25 0.25 0.25 0.25 0.25 0.25 0.25 0.25 0.25 0.25 0.25 0.25 0.25 0.25 0.25 0.25 0.25 0.25 0.25 0.25 0.25 0.25 0.25 0.25 0.25 0.25 0.25 0.25 0.25 0.25 0.25 0.25 0.25 0.25 0.25 0.25 0.25 0.25 0.25 0.25 0.25 0.25 0.25 0.25 0.25 0.25 0.25 0.25 0.25 0.25 0.25 0.25 0.25 0.25 0.25 0.25 0.25 0.25 0.25 0.25 0.25 0.25 0.25 0.25 0.25 0.25 0.25 0.25 0.25 0.25 0.25 0.25 0.25 0.25 0.25 0.25 0.25 0.25 0.25 0.25 0.25 0.25 0.25 0.25 0.25 0.25 0.25 0.25 0.25 0.25 0.25 0.25 0.25 0.25 0.25 0.25 0.25 0.25 0.25 0.25 0.25 0.25 0.25 0.25 0.25 0.25 0.25 0.25 0.25 0.25 0.25 0.25 0.25 0.25 0.25 0.25 0.25 0.25 0.25 0.25 0.25 0.25 0.25 0.25 0.25 0.25 0.25 0.25 0.25 0.25 0.25 0.25 0.25 0.25 0.25 0.25 0.25 0.25 0.25 0.25 0 1 0 0 0.25 0.25 0.25 0.25 0.25 0.25 0.25 0.25 0.25 0.25 0.25 0.25 0.25 0.25 0.25 0.25 0.25 0.25 0.25 0.25 0.25 0.25 0.25 0.25 0.25 0.25 0.25 0.25 0.25 0.25 0.25 0.25 0.25 0.25 0.25 0.25 0.25 0.25 0.25 0.25 0.25 0.25 0.25 0.25 0.25 0.25 0.25 0.25 0.25 0.25 0.25 0.25 0.25 0.25 0.25 0.25 0.25 0.25 0.25 0.25 0.25 0.25 0.25 0.25 0.25 0.25 0.25 0.25 0.25 0.25 0.25 0.25 0.25 0.25 0.25 0.25 0.25 0.25 0.25 0.25 0.25 0.25 0.25 0.25 0 1 0 0 0.25 0.25 0.25 0.25 0.25 0.25 0.25 0.25 0.25 0.25 0.25 0.25 0.25 0.25 0.25 0.25 0.25 0.25 0.25 0.25 0.25 0.25 0.25 0.25 0.25 0.25 0.25 0.25 0.25 0.25 0.25 0.25 0.25 0.25 0.25 0.25 0.25 0.25 0.25 0.25 0.25 0.25 0.25 0.25 0.25 0.25 0.25 0.25 0.25 0.25 0.25 0.25 0.25 0.25 0.25 0.25 0.25 0.25 0.25 0.25 0.25 0.25 0.25 0.25 0.25 0.25 0.25 0.25 0.25 0.25 0.25 0.25 0.25 0.25 0.25 0.25 0.25 0.25 0.25 0.25 0.25 0.25 0.25 0.25 0.25 0.25 0.25 0.25 0.25 0.25 0.25 0.25 0.25 0.25 0.25 0.25 0.125 0.625 0.125 0.125 0 1 0 0 0.25 0.25 0.25 0.25 0.25 0.25 0.25 0.25 0.25 0.25 0.25 0.25 0.25 0.25 0.25 0.25 0.25 0.25 0.25 0.25 0.25 0.25 0.25 0.25 0.25 0.25 0.25 0.25 0.25 0.25 0.25 0.25 0.25 0.25 0.25 0.25 0.25 0.25 0.25 0.25 0.25 0.25 0.25 0.25 0 0 1 0 0.25 0.25 0.25 0.25 0.25 0.25 0.25 0.25 0.25 0.25 0.25 0.25 0.25 0.25 0.25 0.25 0.25 0.25 0.25 0.25 0.25 0.25 0.25 0.25 0.25 0.25 0.25 0.25 0.25 0.25 0.25 0.25 0.25 0.25 0.25 0.25 0.25 0.25 0.25 0.25 0.25 0.25 0.25 0.25 0 0 1 0 0.25 0.25 0.25 0.25 0.25 0.25 0.25 0.25 0.25 0.25 0.25 0.25 0.25 0.25 0.25 0.25 0.25 0.25 0.25 0.25 0.25 0.25 0.25 0.25 0.25 0.25 0.25 0.25 0.25 0.25 0.25 0.25 0.25 0.25 0.25 0.25 0.25 0.25 0.25 0.25 0.25 0.25 0.25 0.25 0.25 0.25 0.25 0.25 0.25 0.25 0.25 0.25 0.25 0.25 0.25 0.25 0.25 0.25 0.25 0.25 0.25 0.25 0.25 0.25 0.25 0.25 0.25 0.25 0.25 0.25 0.25 0.25 0.25 0.25 0.25 0.25 0.1666666666666667 0.5000000000000001 0.1666666666666667 0.1666666666666667 0.25 0.25 0.25 0.25 0.25 0.25 0.25 0.25 0 1 0 0 0 1 0 0 0.25 0.25 0.25 0.25 0.25 0.25 0.25 0.25 0.25 0.25 0.25 0.25 0.25 0.25 0.25 0.25 0.25 0.25 0.25 0.25 0.25 0.25 0.25 0.25 0.25 0.25 0.25 0.25 0.25 0.25 0.25 0.25 0.25 0.25 0.25 0.25 0.25 0.25 0.25 0.25 0.25 0.25 0.25 0.25 0 1 0 0 0.25 0.25 0.25 0.25 0.25 0.25 0.25 0.25 0.25 0.25 0.25 0.25 0.25 0.25 0.25 0.25 0.25 0.25 0.25 0.25 0.25 0.25 0.25 0.25 0.25 0.25 0.25 0.25 0.25 0.25 0.25 0.25 0.25 0.25 0.25 0.25 0.25 0.25 0.25 0.25 0.25 0.25 0.25 0.25 0.05 0.35 0.55 0.05 0.25 0.25 0.25 0.25 0.25 0.25 0.25 0.25 0.25 0.25 0.25 0.25 0.25 0.25 0.25 0.25 0.25 0.25 0.25 0.25 0.25 0.25 0.25 0.25 0.25 0.25 0.25 0.25 0.25 0.25 0.25 0.25 0.25 0.25 0.25 0.25 0.25 0.25 0.25 0.25 0.25 0.25 0.25 0.25 0.25 0.25 0.25 0.25 0.25 0.25 0.25 0.25 0.25 0.25 0.25 0.25 0.25 0.25 0.25 0.25 0.25 0.25 0.25 0.25 0.25 0.25 0.25 0.25 0.25 0.25 0.25 0.25 0.25 0.25 0.25 0.25 0.25 0.25 0.25 0.25 0.25 0.25 0.25 0.25 0.25 0.25 0.25 0.25 0.25 0.25 0.25 0.25 0.25 0.25 0.25 0.25 0.25 0.25 0.25 0.25 0.25 0.25 0.25 0.25 0.25 0.25 0.25 0.25 0.25 0.25 0.25 0.25 0.25 0.25 0.25 0.25 0.25 0.25 0.25 0.25 0.25 0.25 0.25 0.25 0.25 0.25 0.25 0.25 0.25 0.25 0.25 0.25 0.25 0.25 0.25 0.25 0.25 0.25 0.25 0.25 0.25 0.25 0.25 0.25 0.25 0.25 0.25 0.25 0.25 0.25 0.25 0.25 0.25 0.25 0.25 0.25 0.25 0.25 0.25 0.25 0.25 0.25 0.25 0.25 0.25 0.25 0.25 0.25 0.25 0.25 0.25 0.25 0.25 0.25 0.25 0.25 0.25 0.25 0.25 0.25 0.25 0.25 0.25 0.25 0.25 0.25 0.25 0.25 0.25 0.25 0.25 0.25 0.25 0.25 0.25 0.25 0.25 0.25 0.25 0.25 0.25 0.25 0.25 0.25 0.25 0.25 0.25 0.25 0.25 0.25 0.25 0.25 0.25 0.25 0.25 0.25 0.25 0.25 0.25 0.25 0.25 0.25 0.25 0.25 0.25 0.25 0.25 0.25 0.25 0.25 0.25 0.25 0.25 0.25 0.25 0.25 0.25 0.25 0.25 0.25 0.25 0.25 0.25 0.25 0.25 0.25 0.25 0.25 0.25 0.25 0.25 0.25 0.25 0.25 0.25 0.25 0.25 0.25 0.25 0.25 0.25 0.25 0.25 0.25 0.25 0.25 0.25 0.25 0.25 0.25 0.25 0.25 0.25 0.25 0.25 0.25 0.25 0.25 0.25 0.25 0.25 0.25 0.25 0.25 0.25 0.25 0.25 0.25 0.25 0.25 0.25 0.25 0.25 0.25 0.25 0.25 0.25 0.25 0.25 0.25 0.25 0.25 0.25 0.25 0.25 0.25 0.25 0.25 0.25 0.25 0.25 0.25 0.25 0.25 0.25 0.25 0.25 0.25 0.25 0.25 0.25 0.25 0.25 0.25 0.25 0.25 0.25 0.25 0.25 0.25 0.25 0.25 0.25 0.25 0.25 0.25 0.25 0.25 0.25 0.25 0.25 0.25 0.25 0.25 0.25 0.25 0.25 0.25 0.25 0.25 0.25 0.25 0.25 0.25 0.25 0.25 0.25 0.25 0.25 0.25 0.25 0.25 0.25 0.25 0.25 0.25 0.25 0.25 0.25 0.25 0.25 0.25 0.25 0.25 0.25 0.25 0.25 0.25 0.25 0.25 0.25 0.25 0.25 0.25 0.25 0.25 0.25 0.25 0.25 0.25 0.25 0.25 0.25 0.25 0.25 0.25 0.25 0.25 0.25 0.25 0.25 0.25 0.25 0.25 0.25 0.25 0.25 0.25 0.25 0.25 0.25 0.25 0.25 0.25 0.25 0.25 0.25 0.25 0.25 0.25 0.25 0.25 0.25 0.25 0.25 0.25 0.25 0.25 0.25 0.25 0.25 0.25 0.25 0.25 0.25 0.25 0.25 0.25 0.25 0.25 0.25 0.25 0.25 0.25 0.25 0.25 0.25 0.25 0.25 0.25 0.25 0.25 0.25 0.25 0.25 0.25 0.25 0.25 0.25 0.25 0.25 0.25 0.25 0.25 0.25 0.25 0.25 0.25 0.25 0.25 0.25 0.25 0.25 0.25 0.25 0.25 0 1 0 0 0.25 0.25 0.25 0.25 0.25 0.25 0.25 0.25 0.25 0.25 0.25 0.25 0.25 0.25 0.25 0.25 0.25 0.25 0.25 0.25 0.25 0.25 0.25 0.25 0.25 0.25 0.25 0.25 0.25 0.25 0.25 0.25 0.25 0.25 0.25 0.25 0.25 0.25 0.25 0.25 0.25 0.25 0.25 0.25 0.25 0.25 0.25 0.25 0.25 0.25 0.25 0.25 0.25 0.25 0.25 0.25 0.25 0.25 0.25 0.25 0.25 0.25 0.25 0.25 0.25 0.25 0.25 0.25 0.25 0.25 0.25 0.25 0.25 0.25 0.25 0.25 0.25 0.25 0.25 0.25 0.25 0.25 0.25 0.25 0.25 0.25 0.25 0.25 0.25 0.25 0.25 0.25 0.25 0.25 0.25 0.25 0.25 0.25 0.25 0.25 0 0 0.3333333333333333 0.6666666666666666 0.25 0.25 0.25 0.25 0.25 0.25 0.25 0.25 1 0 0 0 0.25 0.25 0.25 0.25 0.25 0.25 0.25 0.25 0.25 0.25 0.25 0.25 0.25 0.25 0.25 0.25 0.1666666666666667 0.5000000000000001 0.1666666666666667 0.1666666666666667 0.25 0.25 0.25 0.25 0.25 0.25 0.25 0.25 0 0 0 1 0 0.05555555555555555 0.05555555555555555 0.8888888888888888 1 0 0 0 1 0 0 0 1 0 0 0 0 0.5 0 0.5 0.25 0.25 0.25 0.25 0.25 0.25 0.25 0.25 0.25 0.25 0.25 0.25 0 1 0 0 0.1666666666666667 0.1666666666666667 0.5000000000000001 0.1666666666666667 0.25 0.25 0.25 0.25 0.25 0.25 0.25 0.25 0 0.2222222222222222 0.1111111111111111 0.6666666666666666 0.25 0.25 0.25 0.25 0 1 0 0 0.25 0.25 0.25 0.25 0 0 1 0 0.25 0.25 0.25 0.25 0.25 0.25 0.25 0.25 0.5000000000000001 0.1666666666666667 0.1666666666666667 0.1666666666666667 0.125 0.375 0.125 0.375 0.25 0.25 0.25 0.25 0 1 0 0 1 0 0 0 0.0135593220338983 0.02372881355932203 0.01694915254237288 0.9457627118644067 0 0.2222222222222222 0.1111111111111111 0.6666666666666666 0.45 0.15 0 0.4 0.6 0.2 0 0.2 0 0.1666666666666667 0.1666666666666667 0.6666666666666666 0 0.5 0 0.5 0 0 0.6666666666666666 0.3333333333333333 0.25 0.25 0.25 0.25 0.07692307692307693 0.2307692307692308 0.3846153846153846 0.3076923076923077 0.5 0.5 0 0 0.25 0.5833333333333334 0 0.1666666666666667 0.1 0.7000000000000001 0.1 0.1 0.25 0.25 0.25 0.25 0.25 0.25 0.25 0.25 0.25 0.25 0.25 0.25 0.25 0.25 0.25 0.25 0.25 0.25 0.25 0.25 0.25 0.25 0.25 0.25 0.25 0.25 0.25 0.25 0.25 0.25 0.25 0.25 0.25 0.25 0.25 0.25 0.25 0.25 0.25 0.25 0.5000000000000001 0.1666666666666667 0.1666666666666667 0.1666666666666667 0.25 0.25 0.25 0.25 0.25 0.25 0.25 0.25 0.25 0.25 0.25 0.25 0.25 0.25 0.25 0.25 0.25 0.25 0.25 0.25 0.25 0.25 0.25 0.25 0.25 0.25 0.25 0.25 0.25 0.25 0.25 0.25 0.25 0.25 0.25 0.25 0.25 0.25 0.25 0.25 0.25 0.25 0.25 0.25 0.25 0.25 0.25 0.25 0.25 0.25 0.25 0.25 0.25 0.25 0.25 0.25 0.25 0.25 0.25 0.25 0.25 0.25 0.25 0.25 0.25 0.25 0.25 0.25 0.25 0.25 0.25 0.25 0.25 0.25 0.25 0.25 0.25 0.25 0.25 0.25 0.25 0.25 0.25 0.25 0.25 0.25 0.25 0.25 0.25 0.25 0.25 0.25 0.25 0.25 0.25 0.25 0.25 0.25 0.25 0.25 0 0 0 1 0.25 0.25 0.25 0.25 0 1 0 0 0.25 0.25 0.25 0.25 0 0 0 1 0.1666666666666667 0.5000000000000001 0.1666666666666667 0.1666666666666667 0.1666666666666667 0.5000000000000001 0.1666666666666667 0.1666666666666667 0.25 0.25 0.25 0.25 0 1 0 0 0 1 0 0 0 1 0 0 0.25 0.25 0.25 0.25 0.25 0.25 0.25 0.25 0.25 0.25 0.25 0.25 0.25 0.25 0.25 0.25 0.25 0.25 0.25 0.25 0.25 0.25 0.25 0.25 0.25 0.25 0.25 0.25 0.25 0.25 0.25 0.25 0.25 0.25 0.25 0.25 0.25 0.25 0.25 0.25 0.25 0.25 0.25 0.25 0.25 0.25 0.25 0.25 0.25 0.25 0.25 0.25 0.25 0.25 0.25 0.25 0.25 0.25 0.25 0.25 0.25 0.25 0.25 0.25 0.25 0.25 0.25 0.25 0.25 0.25 0.25 0.25 0.25 0.25 0.25 0.25 0.25 0.25 0.25 0.25 0.5000000000000001 0.1666666666666667 0.1666666666666667 0.1666666666666667 0.25 0.25 0.25 0.25 0.25 0.25 0.25 0.25 0.25 0.25 0.25 0.25 0.25 0.25 0.25 0.25 0.25 0.25 0.25 0.25 0.25 0.25 0.25 0.25 0.25 0.25 0.25 0.25 0.25 0.25 0.25 0.25 0.25 0.25 0.25 0.25 0.25 0.25 0.25 0.25 0.25 0.25 0.25 0.25 0.25 0.25 0.25 0.25 0.25 0.25 0.25 0.25 0.25 0.25 0.25 0.25 0.25 0.25 0.25 0.25 0.25 0.25 0.25 0.25 0 0 0.3333333333333333 0.6666666666666666 0.25 0.25 0.25 0.25 0.25 0.25 0.25 0.25 0.25 0.25 0.25 0.25 0.25 0.25 0.25 0.25 0.25 0.25 0.25 0.25 0.25 0.25 0.25 0.25 0.25 0.25 0.25 0.25 0 0.5 0 0.5 0 1 0 0 0.5 0.5 0 0 1 0 0 0 0.25 0.25 0.25 0.25 0.25 0.25 0.25 0.25 0.25 0.25 0.25 0.25 0.25 0.25 0.25 0.25 0.5000000000000001 0.1666666666666667 0.1666666666666667 0.1666666666666667 0.25 0.25 0.25 0.25 0.25 0.25 0.25 0.25 0.25 0.25 0.25 0.25 0.25 0.25 0.25 0.25 0.25 0.25 0.25 0.25 0.25 0.25 0.25 0.25 0.25 0.25 0.25 0.25 0 0 0 1 0.25 0.25 0.25 0.25 0.25 0.25 0.25 0.25 0.25 0.25 0.25 0.25 0.25 0.25 0.25 0.25 0.1666666666666667 0.5000000000000001 0.1666666666666667 0.1666666666666667 0.1666666666666667 0.1666666666666667 0.5000000000000001 0.1666666666666667 0.25 0.25 0.25 0.25 0.25 0.25 0.25 0.25 0.25 0.25 0.25 0.25 0.25 0.25 0.25 0.25 0.25 0.25 0.25 0.25 0 0 0 1 0.25 0.25 0.25 0.25 0.25 0.25 0.25 0.25 0.25 0.25 0.25 0.25 0.1666666666666667 0.1666666666666667 0.1666666666666667 0.5 0.1666666666666667 0.1666666666666667 0.5000000000000001 0.1666666666666667 0.25 0.25 0.25 0.25 0.25 0.25 0.25 0.25 0.25 0.25 0.25 0.25 0.1666666666666667 0.5000000000000001 0.1666666666666667 0.1666666666666667 0.25 0.25 0.25 0.25 0.25 0.25 0.25 0.25 0 0.04761904761904762 0.1428571428571428 0.8095238095238095 0 0 0.3333333333333333 0.6666666666666666 0.1666666666666667 0.5000000000000001 0.1666666666666667 0.1666666666666667 0.25 0.25 0.25 0.25 0 0.3333333333333333 0.3333333333333333 0.3333333333333333 0 0 0 1 0 0 1 0 0.25 0.25 0.25 0.25 0 0.25 0 0.75 0 0 0 1 0 1 0 0 0.25 0.25 0.25 0.25 0.25 0.25 0.25 0.25 0.25 0.25 0.25 0.25 0.25 0.25 0.25 0.25 0.25 0.25 0.25 0.25 0.25 0.25 0.25 0.25 0.25 0.25 0.25 0.25 0.25 0.25 0.25 0.25 0.25 0.25 0.25 0.25 0.25 0.25 0.25 0.25 0.25 0.25 0.25 0.25 0.25 0.25 0.25 0.25 0.25 0.25 0.25 0.25 0.25 0.25 0.25 0.25 0.25 0.25 0.25 0.25 0.25 0.25 0.25 0.25 0.25 0.25 0.25 0.25 0.25 0.25 0.25 0.25 0.25 0.25 0.25 0.25 0.25 0.25 0.25 0.25 0.25 0.25 0.25 0.25 0.25 0.25 0.25 0.25 0 1 0 0 0.25 0.25 0.25 0.25 0.25 0.25 0.25 0.25 0.25 0.25 0.25 0.25 0.25 0.25 0.25 0.25 0 0 1 0 0.25 0.25 0.25 0.25 0.25 0.25 0.25 0.25 0.25 0.25 0.25 0.25 0.25 0.25 0.25 0.25 0.25 0.25 0.25 0.25 0.25 0.25 0.25 0.25 0.25 0.25 0.25 0.25 0 1 0 0 0.25 0.25 0.25 0.25 0 0 0 1 0.25 0.25 0.25 0.25 0.25 0.25 0.25 0.25 0.25 0.25 0.25 0.25 0.25 0.25 0.25 0.25 0.1666666666666667 0.1666666666666667 0.1666666666666667 0.5 0.25 0.25 0.25 0.25 0.25 0.25 0.25 0.25 0.125 0.125 0.125 0.625 0.125 0.125 0.625 0.125 0 0 1 0 0.25 0.25 0.25 0.25 0.25 0.25 0.25 0.25 0.25 0.25 0.25 0.25 0.25 0.25 0.25 0.25 0.25 0.25 0.25 0.25 0.25 0.25 0.25 0.25 0.25 0.25 0.25 0.25 0.25 0.25 0.25 0.25 0.25 0.25 0.25 0.25 0.25 0.25 0.25 0.25 0.25 0.25 0.25 0.25 0.25 0.25 0.25 0.25 0.25 0.25 0.25 0.25 0.25 0.25 0.25 0.25 0.25 0.25 0.25 0.25 0.25 0.25 0.25 0.25 0.25 0.25 0.25 0.25 0.25 0.25 0.25 0.25 0.25 0.25 0.25 0.25 0.25 0.25 0.25 0.25 0.25 0.25 0.25 0.25 0.25 0.25 0.25 0.25 0.1666666666666667 0.5000000000000001 0.1666666666666667 0.1666666666666667 0 1 0 0 0.25 0.25 0.25 0.25 0.25 0.25 0.25 0.25 0.25 0.25 0.25 0.25 0.25 0.25 0.25 0.25 0.25 0.25 0.25 0.25 0.25 0.25 0.25 0.25 0.25 0.25 0.25 0.25 0.25 0.25 0.25 0.25 0.25 0.25 0.25 0.25 0.25 0.25 0.25 0.25 0.25 0.25 0.25 0.25 0 1 0 0 0.25 0.25 0.25 0.25 0.25 0.25 0.25 0.25 0.25 0.25 0.25 0.25 0.25 0.25 0.25 0.25 0.25 0.25 0.25 0.25 0.1666666666666667 0.1666666666666667 0.1666666666666667 0.5 0.25 0.25 0.25 0.25 0.25 0.25 0.25 0.25 0.25 0.25 0.25 0.25 0.25 0.25 0.25 0.25 0.1666666666666667 0.1666666666666667 0.1666666666666667 0.5 0.1666666666666667 0.1666666666666667 0.5000000000000001 0.1666666666666667 0.25 0.25 0.25 0.25 0.25 0.25 0.25 0.25 0.25 0.25 0.25 0.25 0.25 0.25 0.25 0.25 0.25 0.25 0.25 0.25 0.25 0.25 0.25 0.25 0.25 0.25 0.25 0.25 0.25 0.25 0.25 0.25 0.25 0.25 0.25 0.25 0.25 0.25 0.25 0.25 0.25 0.25 0.25 0.25 0.25 0.25 0.25 0.25 0.25 0.25 0.25 0.25 0.25 0.25 0.25 0.25 0.25 0.25 0.25 0.25 0.25 0.25 0.25 0.25 0.25 0.25 0.25 0.25 0.25 0.25 0.25 0.25 0.25 0.25 0.25 0.25 0.25 0.25 0.25 0.25 0.25 0.25 0.25 0.25 0.25 0.25 0.25 0.25 0.25 0.25 0.25 0.25 0.25 0.25 0.25 0.25 0.25 0.25 0.25 0.25 0.25 0.25 0.25 0.25 0.1666666666666667 0.5000000000000001 0.1666666666666667 0.1666666666666667 0.25 0.25 0.25 0.25 0.25 0.25 0.25 0.25 0.25 0.25 0.25 0.25 0.25 0.25 0.25 0.25 0.25 0.25 0.25 0.25 0.25 0.25 0.25 0.25 0.1666666666666667 0.1666666666666667 0.5000000000000001 0.1666666666666667 0.1666666666666667 0.1666666666666667 0.5000000000000001 0.1666666666666667 0.25 0.25 0.25 0.25 0.25 0.25 0.25 0.25 0.07142857142857142 0.3571428571428572 0.07142857142857142 0.5 0.25 0.25 0.25 0.25 0.1666666666666667 0.5000000000000001 0.1666666666666667 0.1666666666666667 0.25 0.25 0.25 0.25 0 0 0 1 0.1666666666666667 0.1666666666666667 0.5000000000000001 0.1666666666666667 0.25 0.25 0.25 0.25 0.25 0.25 0.25 0.25 0.1666666666666667 0.1666666666666667 0.5000000000000001 0.1666666666666667 0.1666666666666667 0.5000000000000001 0.1666666666666667 0.1666666666666667 0.1666666666666667 0.1666666666666667 0.1666666666666667 0.5 0.25 0.25 0.25 0.25 0.25 0.25 0.25 0.25 0.25 0.25 0.25 0.25 0.25 0.25 0.25 0.25 0.25 0.25 0.25 0.25 0.25 0.25 0.25 0.25 0.25 0.25 0.25 0.25 0.25 0.25 0.25 0.25 0.25 0.25 0.25 0.25 0.25 0.25 0.25 0.25 0.25 0.25 0.25 0.25 0.25 0.25 0.25 0.25 0.25 0.25 0.25 0.25 0.25 0.25 0.25 0.25 0.1666666666666667 0.5000000000000001 0.1666666666666667 0.1666666666666667 0.25 0.25 0.25 0.25 0.25 0.25 0.25 0.25 0.25 0.25 0.25 0.25 0.25 0.25 0.25 0.25 0.25 0.25 0.25 0.25 0.25 0.25 0.25 0.25 0.25 0.25 0.25 0.25 0.25 0.25 0.25 0.25 0 1 0 0 0.25 0.25 0.25 0.25 0.25 0.25 0.25 0.25 0.25 0.25 0.25 0.25 0.25 0.25 0.25 0.25 0.25 0.25 0.25 0.25 0.25 0.25 0.25 0.25 0.25 0.25 0.25 0.25 0.25 0.25 0.25 0.25 0.25 0.25 0.25 0.25 0.25 0.25 0.25 0.25 0.25 0.25 0.25 0.25 0 0 1 0 0.25 0.25 0.25 0.25 0.1666666666666667 0.1666666666666667 0.5000000000000001 0.1666666666666667 0.25 0.25 0.25 0.25 0.25 0.25 0.25 0.25 0.25 0.25 0.25 0.25 0.25 0.25 0.25 0.25 0.25 0.25 0.25 0.25 0.25 0.25 0.25 0.25 0.25 0.25 0.25 0.25 0.25 0.25 0.25 0.25 0.25 0.25 0.25 0.25 0.25 0.25 0.25 0.25 0.25 0.25 0.25 0.25 0.25 0.25 0.25 0.25 0.25 0.25 0.25 0.25 0.25 0.25 0.25 0.25 0.25 0.25 0.25 0.25 0.25 0.25 0.25 0.25 0.25 0.25 0.25 0.25 0.25 0.25 0.25 0.25 0.25 0.25 0.25 0.25 0.25 0.25 0.25 0.25 0.25 0.25 0.25 0.25 0.25 0.25 0.25 0.25 0.25 0.25 0.25 0.25 0.25 0.25 0.25 0.25 0.25 0.25 0.25 0.25 0.25 0.25 0.25 0.25 0.25 0.25 0.25 0.25 0.25 0.25 0.25 0.25 0.25 0.25 0.25 0.25 0.25 0.25 0.25 0.25 0.25 0.25 0.25 0.25 0.25 0.25 0.25 0.25 0 0 1 0 0 1 0 0 0.25 0.25 0.25 0.25 0.25 0.25 0.25 0.25 0.25 0.25 0.25 0.25 0.25 0.25 0.25 0.25 0.25 0.25 0.25 0.25 0.25 0.25 0.25 0.25 0.25 0.25 0.25 0.25 0.25 0.25 0.25 0.25 0.25 0.25 0.25 0.25 0.25 0.25 0.25 0.25 0.25 0.25 0.25 0.25 0.25 0.25 0.25 0.25 0.25 0.25 0.25 0.25 0.25 0.25 0.25 0.25 0.25 0.25 0.25 0.25 0.25 0.25 0.25 0.25 0.25 0.25 0.25 0.25 0.25 0.25 0.25 0.25 0.25 0.25 0.25 0.25 0.25 0.25 0.25 0.25 0.25 0.25 0.25 0.25 0.25 0.25 0.25 0.25 0.1666666666666667 0.1666666666666667 0.5000000000000001 0.1666666666666667 0.25 0.25 0.25 0.25 0.25 0.25 0.25 0.25 0.25 0.25 0.25 0.25 0.25 0.25 0.25 0.25 0.25 0.25 0.25 0.25 0.25 0.25 0.25 0.25 0.25 0.25 0.25 0.25 0.25 0.25 0.25 0.25 0.25 0.25 0.25 0.25 0.25 0.25 0.25 0.25 0.25 0.25 0.25 0.25 0.25 0.25 0.25 0.25 0.25 0.25 0.25 0.25 0.25 0.25 0.25 0.25 0.25 0.25 0.25 0.25 0.25 0.25 0.25 0.25 0.25 0.25 0.25 0.25 0.25 0.25 0.25 0.25 0.25 0.25 0.25 0.25 0.25 0.25 0.25 0.25 0.25 0.25 0.25 0.25 0.25 0.25 0.25 0.25 0.1666666666666667 0.1666666666666667 0.1666666666666667 0.5 0.25 0.25 0.25 0.25 0 1 0 0 0.25 0.25 0.25 0.25 0.25 0.25 0.25 0.25 0.25 0.25 0.25 0.25 0.25 0.25 0.25 0.25 0.25 0.25 0.25 0.25 0.25 0.25 0.25 0.25 0.25 0.25 0.25 0.25 0.25 0.25 0.25 0.25 0.25 0.25 0.25 0.25 0.25 0.25 0.25 0.25 0.25 0.25 0.25 0.25 0.25 0.25 0.25 0.25 0.25 0.25 0.25 0.25 0.25 0.25 0.25 0.25 0.25 0.25 0.25 0.25 0.25 0.25 0.25 0.25 0.25 0.25 0.25 0.25 0.25 0.25 0.25 0.25 0.25 0.25 0.25 0.25 0.25 0.25 0.25 0.25 0.25 0.25 0.25 0.25 0 1 0 0 0.1666666666666667 0.5000000000000001 0.1666666666666667 0.1666666666666667 0.25 0.25 0.25 0.25 0.25 0.25 0.25 0.25 0.25 0.25 0.25 0.25 0.25 0.25 0.25 0.25 0.25 0.25 0.25 0.25 0.25 0.25 0.25 0.25 0.25 0.25 0.25 0.25 0.25 0.25 0.25 0.25 0.25 0.25 0.25 0.25 0.25 0.25 0.25 0.25 0.25 0.25 0.25 0.25 0.25 0.25 0.25 0.25 0.25 0.25 0.25 0.25 0.25 0.25 0.25 0.25 0.25 0.25 0.25 0.25 0.25 0.25 0.25 0.25 0.25 0.25 0.25 0.25 0.25 0.25 0.25 0.25 0.25 0.25 0.25 0.25 0.25 0.25 0.25 0.25 0.25 0.25 0.25 0.25 0.25 0.25 0.25 0.25 0.25 0.25 0.25 0.25 0.25 0.25 0.25 0.25 0 1 0 0 0.25 0.25 0.25 0.25 0.25 0.25 0.25 0.25 0.25 0.25 0.25 0.25 0.25 0.25 0.25 0.25 0.25 0.25 0.25 0.25 0.25 0.25 0.25 0.25 0.25 0.25 0.25 0.25 0.25 0.25 0.25 0.25 0.25 0.25 0.25 0.25 0.25 0.25 0.25 0.25 0.25 0.25 0.25 0.25 0 0 1 0 0.25 0.25 0.25 0.25 0.25 0.25 0.25 0.25 0.25 0.25 0.25 0.25 0.25 0.25 0.25 0.25 0.25 0.25 0.25 0.25 0.25 0.25 0.25 0.25 0.25 0.25 0.25 0.25 0.25 0.25 0.25 0.25 0.25 0.25 0.25 0.25 0.25 0.25 0.25 0.25 0.25 0.25 0.25 0.25 0 0 1 0 0.25 0.25 0.25 0.25 0.25 0.25 0.25 0.25 0.25 0.25 0.25 0.25 0.25 0.25 0.25 0.25 0.25 0.25 0.25 0.25 0.25 0.25 0.25 0.25 0.25 0.25 0.25 0.25 0.25 0.25 0.25 0.25 0.25 0.25 0.25 0.25 0.25 0.25 0.25 0.25 0.25 0.25 0.25 0.25 0.25 0.25 0.25 0.25 0.25 0.25 0.25 0.25 0.25 0.25 0.25 0.25 0.25 0.25 0.25 0.25 0.25 0.25 0.25 0.25 0.25 0.25 0.25 0.25 0.25 0.25 0.25 0.25 0.25 0.25 0.25 0.25 0.1666666666666667 0.5000000000000001 0.1666666666666667 0.1666666666666667 0.25 0.25 0.25 0.25 0.25 0.25 0.25 0.25 0 1 0 0 0 1 0 0 0.25 0.25 0.25 0.25 0.25 0.25 0.25 0.25 0.25 0.25 0.25 0.25 0.25 0.25 0.25 0.25 0.25 0.25 0.25 0.25 0.25 0.25 0.25 0.25 0.25 0.25 0.25 0.25 0.25 0.25 0.25 0.25 0.25 0.25 0.25 0.25 0.25 0.25 0.25 0.25 0.25 0.25 0.25 0.25 0 1 0 0 0.25 0.25 0.25 0.25 0.25 0.25 0.25 0.25 0.25 0.25 0.25 0.25 0.25 0.25 0.25 0.25 0.25 0.25 0.25 0.25 0.25 0.25 0.25 0.25 0.25 0.25 0.25 0.25 0.25 0.25 0.25 0.25 0.25 0.25 0.25 0.25 0.25 0.25 0.25 0.25 0.25 0.25 0.25 0.25 0.25 0.25 0.25 0.25 0.25 0.25 0.25 0.25 0.25 0.25 0.25 0.25 0.25 0.25 0.25 0.25 0.125 0.125 0.125 0.625 0.25 0.25 0.25 0.25 0.25 0.25 0.25 0.25 0.25 0.25 0.25 0.25 0.25 0.25 0.25 0.25 0.25 0.25 0.25 0.25 0.25 0.25 0.25 0.25 0.25 0.25 0.25 0.25 0.25 0.25 0.25 0.25 0.25 0.25 0.25 0.25 0.25 0.25 0.25 0.25 0.25 0.25 0.25 0.25 0.25 0.25 0.25 0.25 0.25 0.25 0.25 0.25 0.25 0.25 0.25 0.25 0.25 0.25 0.25 0.25 0.25 0.25 0.25 0.25 0.25 0.25 0.25 0.25 0.25 0.25 0.25 0.25 0.25 0.25 0.25 0.25 0.25 0.25 0.25 0.25 0.25 0.25 0.25 0.25 0.25 0.25 0.25 0.25 0.25 0.25 0.25 0.25 0.25 0.25 0.25 0.25 0.25 0.25 0.25 0.25 0.25 0.25 0.25 0.25 0.25 0.25 0.25 0.25 0.25 0.25 0.25 0.25 0.25 0.25 0.25 0.25 0.25 0.25 0.25 0.25 0.1666666666666667 0.1666666666666667 0.5000000000000001 0.1666666666666667 0.25 0.25 0.25 0.25 0.25 0.25 0.25 0.25 0.25 0.25 0.25 0.25 0.25 0.25 0.25 0.25 0.1666666666666667 0.5000000000000001 0.1666666666666667 0.1666666666666667 0.25 0.25 0.25 0.25 0.25 0.25 0.25 0.25 0.25 0.25 0.25 0.25 0.25 0.25 0.25 0.25 0.25 0.25 0.25 0.25 0.25 0.25 0.25 0.25 0.25 0.25 0.25 0.25 0.25 0.25 0.25 0.25 0.25 0.25 0.25 0.25 0.25 0.25 0.25 0.25 0.25 0.25 0.25 0.25 0.25 0.25 0.25 0.25 0.25 0.25 0.25 0.25 0.25 0.25 0.25 0.25 0.25 0.25 0.25 0.25 0.25 0.25 0.25 0.25 0.25 0.25 0.25 0.25 0.25 0.25 0.25 0.25 0.25 0.25 0.25 0.25 0.25 0.25 0.25 0.25 0.25 0.25 0.25 0.25 0.25 0.25 0.25 0.25 0.25 0.25 0.25 0.25 0.25 0.25 0.25 0.25 0.25 0.25 0.25 0.25 0.25 0.25 0.25 0.25 0.25 0.25 0.25 0.25 0.25 0.25 0.25 0.25 0.25 0.25 0.25 0.25 0.25 0.25 0.25 0.25 0.25 0.25 0.25 0.25 0.25 0.25 0.25 0.25 0.25 0.25 0.25 0.25 0.25 0.25 0.25 0.25 0.25 0.25 0.25 0.25 0.25 0.25 0.25 0.25 0.25 0.25 0.25 0.25 0.25 0.25 0.25 0.25 0.25 0.25 0.25 0.25 0.25 0.25 0.25 0.25 0.25 0.25 0.25 0.25 0.25 0.25 0.25 0.25 0.25 0.25 0.25 0.25 0.25 0.25 0.25 0.25 0.25 0.25 0.25 0.25 0.25 0.25 0.25 0.25 0.25 0.25 0.25 0.25 0.25 0.25 0.25 0.25 0.25 0.25 0.25 0.25 0.25 0.25 0.25 0.25 0.25 0.25 0.25 0.25 0.25 0.25 0.25 0.25 0.25 0.25 0.25 0.25 0.25 0.25 0.25 0.25 0.25 0.25 0.25 0.25 0.25 0.25 0.25 0.25 0.25 0.25 0.25 0.25 0.25 0.25 0.25 0.25 0.25 0.25 0.25 0.25 0.25 0.25 0.25 0.25 0.25 0.25 0.25 0.25 0.25 0.25 0.25 0.25 0.25 0.25 0.25 0.25 0.25 0.25 0.25 0.25 0.25 0.25 0.25 0.25 0.25 0.25 0.25 0.25 0.25 0.25 0.25 0.25 0.25 0.25 0.25 0.25 0.25 0.25 0.25 0.25 0.25 0.25 0.25 0.25 0.25 0.25 0.25 0.25 0.25 0.25 0.25 0.25 0.25 0.25 0.25 0.25 0.25 0.25 0.25 0.25 0.25 0.25 0.25 0.25 0.25 0.25 0.25 0.25 0.25 0.25 0.25 0.25 0.25 0.25 0.25 0.25 0.25 0.25 0.25 0.25 0 1 0 0 0.25 0.25 0.25 0.25 0.25 0.25 0.25 0.25 0.25 0.25 0.25 0.25 0.25 0.25 0.25 0.25 0.25 0.25 0.25 0.25 0.25 0.25 0.25 0.25 0.25 0.25 0.25 0.25 0.25 0.25 0.25 0.25 0.25 0.25 0.25 0.25 0.25 0.25 0.25 0.25 0.25 0.25 0.25 0.25 0.25 0.25 0.25 0.25 0.25 0.25 0.25 0.25 0.25 0.25 0.25 0.25 0.25 0.25 0.25 0.25 0.25 0.25 0.25 0.25 0.25 0.25 0.25 0.25 0.25 0.25 0.25 0.25 0.25 0.25 0.25 0.25 0.25 0.25 0.25 0.25 0.25 0.25 0.25 0.25 0.25 0.25 0.25 0.25 0.25 0.25 0.25 0.25 0.25 0.25 0.25 0.25 0.25 0.25 0.25 0.25</probabilities>
		</cpt>
		<cpt id="cg07084163">
			<state id="x__inf_0_149333_" />
			<state id="x_0_149333_0_251814_" />
			<state id="x_0_251814_inf_" />
			<parents>methy1 cg03602500 cg08109815 cg27015047 cg14652095</parents>
